{"learner":{"attributes":{"best_iteration":"497","best_score":"0.03013953943841246","scikit_learn":"{\"_estimator_type\": \"classifier\"}"},"feature_names":["xg_p90","xa_p90","npxg_p90","shots_p90","key_passes_p90","xg_buildup_p90","tackles_per_90","interceptions_per_90","clearances_per_90","fouls_p90","yellow_cards_p90","red_cards_p90","minutes","pos_FWD","pos_MID","pos_DEF"],"feature_types":["float","float","float","float","float","float","float","float","float","float","float","float","int","i","i","i"],"gradient_booster":{"model":{"cats":{"enc":[],"feature_segments":[],"sorted_idx":[]},"gbtree_model_param":{"num_parallel_tree":"1","num_trees":"500"},"iteration_indptr":[0,1,2,3,4,5,6,7,8,9,10,11,12,13,14,15,16,17,18,19,20,21,22,23,24,25,26,27,28,29,30,31,32,33,34,35,36,37,38,39,40,41,42,43,44,45,46,47,48,49,50,51,52,53,54,55,56,57,58,59,60,61,62,63,64,65,66,67,68,69,70,71,72,73,74,75,76,77,78,79,80,81,82,83,84,85,86,87,88,89,90,91,92,93,94,95,96,97,98,99,100,101,102,103,104,105,106,107,108,109,110,111,112,113,114,115,116,117,118,119,120,121,122,123,124,125,126,127,128,129,130,131,132,133,134,135,136,137,138,139,140,141,142,143,144,145,146,147,148,149,150,151,152,153,154,155,156,157,158,159,160,161,162,163,164,165,166,167,168,169,170,171,172,173,174,175,176,177,178,179,180,181,182,183,184,185,186,187,188,189,190,191,192,193,194,195,196,197,198,199,200,201,202,203,204,205,206,207,208,209,210,211,212,213,214,215,216,217,218,219,220,221,222,223,224,225,226,227,228,229,230,231,232,233,234,235,236,237,238,239,240,241,242,243,244,245,246,247,248,249,250,251,252,253,254,255,256,257,258,259,260,261,262,263,264,265,266,267,268,269,270,271,272,273,274,275,276,277,278,279,280,281,282,283,284,285,286,287,288,289,290,291,292,293,294,295,296,297,298,299,300,301,302,303,304,305,306,307,308,309,310,311,312,313,314,315,316,317,318,319,320,321,322,323,324,325,326,327,328,329,330,331,332,333,334,335,336,337,338,339,340,341,342,343,344,345,346,347,348,349,350,351,352,353,354,355,356,357,358,359,360,361,362,363,364,365,366,367,368,369,370,371,372,373,374,375,376,377,378,379,380,381,382,383,384,385,386,387,388,389,390,391,392,393,394,395,396,397,398,399,400,401,402,403,404,405,406,407,408,409,410,411,412,413,414,415,416,417,418,419,420,421,422,423,424,425,426,427,428,429,430,431,432,433,434,435,436,437,438,439,440,441,442,443,444,445,446,447,448,449,450,451,452,453,454,455,456,457,458,459,460,461,462,463,464,465,466,467,468,469,470,471,472,473,474,475,476,477,478,479,480,481,482,483,484,485,486,487,488,489,490,491,492,493,494,495,496,497,498,499,500],"tree_info":[0,0,0,0,0,0,0,0,0,0,0,0,0,0,0,0,0,0,0,0,0,0,0,0,0,0,0,0,0,0,0,0,0,0,0,0,0,0,0,0,0,0,0,0,0,0,0,0,0,0,0,0,0,0,0,0,0,0,0,0,0,0,0,0,0,0,0,0,0,0,0,0,0,0,0,0,0,0,0,0,0,0,0,0,0,0,0,0,0,0,0,0,0,0,0,0,0,0,0,0,0,0,0,0,0,0,0,0,0,0,0,0,0,0,0,0,0,0,0,0,0,0,0,0,0,0,0,0,0,0,0,0,0,0,0,0,0,0,0,0,0,0,0,0,0,0,0,0,0,0,0,0,0,0,0,0,0,0,0,0,0,0,0,0,0,0,0,0,0,0,0,0,0,0,0,0,0,0,0,0,0,0,0,0,0,0,0,0,0,0,0,0,0,0,0,0,0,0,0,0,0,0,0,0,0,0,0,0,0,0,0,0,0,0,0,0,0,0,0,0,0,0,0,0,0,0,0,0,0,0,0,0,0,0,0,0,0,0,0,0,0,0,0,0,0,0,0,0,0,0,0,0,0,0,0,0,0,0,0,0,0,0,0,0,0,0,0,0,0,0,0,0,0,0,0,0,0,0,0,0,0,0,0,0,0,0,0,0,0,0,0,0,0,0,0,0,0,0,0,0,0,0,0,0,0,0,0,0,0,0,0,0,0,0,0,0,0,0,0,0,0,0,0,0,0,0,0,0,0,0,0,0,0,0,0,0,0,0,0,0,0,0,0,0,0,0,0,0,0,0,0,0,0,0,0,0,0,0,0,0,0,0,0,0,0,0,0,0,0,0,0,0,0,0,0,0,0,0,0,0,0,0,0,0,0,0,0,0,0,0,0,0,0,0,0,0,0,0,0,0,0,0,0,0,0,0,0,0,0,0,0,0,0,0,0,0,0,0,0,0,0,0,0,0,0,0,0,0,0,0,0,0,0,0,0,0,0,0,0,0,0,0,0,0,0,0,0,0,0,0,0,0,0,0,0,0,0,0,0,0,0,0,0,0,0,0,0,0,0,0,0,0,0,0,0,0,0,0,0,0,0,0,0,0,0,0,0,0,0,0,0,0,0,0,0,0,0,0,0,0],"trees":[{"base_weights":[1.3268333E-2,-4.493169E-1,1.3457708E0,1.1714271E0,-1.1394986E0,1.8003689E0,-2.2655195E-1,-4.753624E-1,1.8046212E0,-1.7894437E0,-3.4562162E-1,4.948701E-2,1.1593575E0,-1.5826268E0,1.2266725E0,9.614494E-1,-1.8143872E0,9.745817E-1,4.9836796E-2,-1.2485378E0,-5.1991172E-2,1.051244E0,-1.7425146E0,-4.120017E-2,1.7508914E0,-5.042584E-2,-7.4018914E-1,1.6851044E0,-4.2996593E-2,-1.2685599E0,1.6015079E0,-5.0916605E-2,-1.042836E0,1.7499752E0,-4.404356E-2,-1.8213246E0,1.2694017E0,4.9031354E-2,3.2019636E-1,-1.8708252E0,-4.7618318E-1,6.480635E-3,4.849597E-2,2.859545E-2,-1.3770229E0,1.196504E-2,4.7744617E-2,-3.1960227E-2,2.9964356E-2,-4.832819E-3,-4.3242384E-2,4.793384E-2,3.9503527E-1,6.480635E-3,-4.3242384E-2,4.744113E-2,1.898283E-2,-5.1632635E-2,-6.531862E-1,1.6752552E0,-1.0060258E-2,-1.0922983E0,1.6440903E0,-1.3065499E0,-5.2244224E-2,3.7112042E-2,-4.6246864E-2,-8.262575E-3,-4.4721484E-2,-2.0709917E-2,3.5967056E-2,3.4322858E-2,-4.6033636E-2,1.898283E-2,4.616318E-2,2.303866E-3,-4.170382E-2,1.4822989E-2,4.6962302E-2,-5.045347E-2,3.336368E-2],"categories":[],"categories_nodes":[],"categories_segments":[],"categories_sizes":[],"default_left":[0,0,0,0,0,0,0,0,0,0,0,0,0,0,0,0,0,0,0,0,0,0,0,0,0,0,0,0,0,0,0,0,0,0,0,0,0,0,0,0,0,0,0,0,0,0,0,0,0,0,0,0,0,0,0,0,0,0,0,0,0,0,0,0,0,0,0,0,0,0,0,0,0,0,0,0,0,0,0,0,0],"id":0,"left_children":[1,3,5,7,9,11,13,15,17,19,21,-1,23,25,27,29,31,33,-1,35,-1,37,39,-1,41,-1,43,45,47,49,51,-1,53,55,-1,57,59,-1,61,63,65,-1,-1,-1,67,-1,-1,-1,-1,-1,-1,-1,69,-1,-1,-1,-1,-1,71,73,-1,75,77,79,-1,-1,-1,-1,-1,-1,-1,-1,-1,-1,-1,-1,-1,-1,-1,-1,-1],"loss_changes":[6.460565E2,8.7166296E2,1.9346332E2,2.4367429E2,2.8119812E2,1.36970215E1,1.2306859E2,1.2768912E2,1.5980347E1,3.4248535E1,4.84003E2,0E0,6.0250004E1,8.670914E0,1.7669716E1,4.803714E1,2.1642456E0,5.3917347E1,0E0,1.3384056E2,0E0,7.6549194E1,1.9245422E1,0E0,5.2547455E0,0E0,1.50607395E1,3.6541214E0,1.4405071E1,3.1040583E0,7.171776E0,0E0,6.9805813E0,4.155922E-1,0E0,1.4464081E1,1.2433403E1,0E0,1.2888216E2,7.1615906E0,3.4723618E1,0E0,0E0,0E0,2.8381424E0,0E0,0E0,0E0,0E0,0E0,0E0,0E0,8.002589E0,0E0,0E0,0E0,0E0,0E0,2.8184813E1,2.1699905E-1,0E0,2.0905312E1,5.66378E0,4.812374E1,0E0,0E0,0E0,0E0,0E0,0E0,0E0,0E0,0E0,0E0,0E0,0E0,0E0,0E0,0E0,0E0,0E0],"parents":[2147483647,0,0,1,1,2,2,3,3,4,4,5,5,6,6,7,7,8,8,9,9,10,10,12,12,13,13,14,14,15,15,16,16,17,17,19,19,21,21,22,22,24,24,26,26,27,27,28,28,29,29,30,30,32,32,33,33,35,35,36,36,38,38,39,39,40,40,44,44,52,52,58,58,59,59,61,61,62,62,63,63],"right_children":[2,4,6,8,10,12,14,16,18,20,22,-1,24,26,28,30,32,34,-1,36,-1,38,40,-1,42,-1,44,46,48,50,52,-1,54,56,-1,58,60,-1,62,64,66,-1,-1,-1,68,-1,-1,-1,-1,-1,-1,-1,70,-1,-1,-1,-1,-1,72,74,-1,76,78,80,-1,-1,-1,-1,-1,-1,-1,-1,-1,-1,-1,-1,-1,-1,-1,-1,-1],"split_conditions":[1.9714771E-1,3.180014E-2,2.3646621E-1,2.4400955E-2,7.175361E-2,1.915977E-1,3.4225845E-1,1.320136E-2,3.1174116E-2,5.2516922E-2,1.1879795E-1,4.948701E-2,2.4186847E-1,2.9660544E-1,3.2526466E-1,7.14798E-3,2.0002827E-2,2.4191052E-2,4.9836796E-2,5.0492473E-2,-5.1991172E-2,6.903285E-2,1.8288934E-1,-4.120017E-2,2.6102906E-1,-5.042584E-2,2.6027778E-1,3.6916223E-1,4.5589715E-1,5.5512222E-3,1.0027617E-2,-5.0916605E-2,2.0850267E-2,1.286348E0,-4.404356E-2,4.1266754E-2,5.020454E-2,4.9031354E-2,1.15033396E-1,1.431805E-1,1.6200508E-1,6.480635E-3,4.849597E-2,2.859545E-2,2.854848E-1,1.196504E-2,4.7744617E-2,-3.1960227E-2,2.9964356E-2,-4.832819E-3,-4.3242384E-2,4.793384E-2,1.4118276E-2,6.480635E-3,-4.3242384E-2,4.744113E-2,1.898283E-2,-5.1632635E-2,3.8423773E-2,5.405947E-2,-1.0060258E-2,8.079585E-2,1.2423701E-1,1.4519504E-1,-5.2244224E-2,3.7112042E-2,-4.6246864E-2,-8.262575E-3,-4.4721484E-2,-2.0709917E-2,3.5967056E-2,3.4322858E-2,-4.6033636E-2,1.898283E-2,4.616318E-2,2.303866E-3,-4.170382E-2,1.4822989E-2,4.6962302E-2,-5.045347E-2,3.336368E-2],"split_indices":[0,1,1,0,0,1,0,1,0,1,1,0,0,0,1,0,0,1,0,0,0,1,0,0,0,0,1,0,0,1,1,0,1,9,0,2,1,0,0,1,1,0,0,0,1,0,0,0,0,0,0,0,0,0,0,0,0,0,1,0,0,1,0,0,0,0,0,0,0,0,0,0,0,0,0,0,0,0,0,0,0],"split_type":[0,0,0,0,0,0,0,0,0,0,0,0,0,0,0,0,0,0,0,0,0,0,0,0,0,0,0,0,0,0,0,0,0,0,0,0,0,0,0,0,0,0,0,0,0,0,0,0,0,0,0,0,0,0,0,0,0,0,0,0,0,0,0,0,0,0,0,0,0,0,0,0,0,0,0,0,0,0,0,0,0],"sum_hessian":[1.0461383E3,7.7704565E2,2.6909265E2,2.3186443E2,5.451812E2,2.0862802E2,6.0464645E1,6.446231E1,1.6740211E2,2.9907513E2,2.461061E2,1.7439803E2,3.4229984E1,3.1231739E1,2.9232908E1,3.1231739E1,3.323057E1,2.3486267E1,1.4391585E2,9.019726E1,2.0887787E2,1.2317798E2,1.2292812E2,5.7466397E0,2.8483345E1,2.0737875E1,1.0493864E1,2.1237583E1,7.995325E0,6.7460556E0,2.4485683E1,2.6234661E1,6.9959097E0,1.848919E1,4.997078E0,7.37069E1,1.6490358E1,5.621713E1,6.6960846E1,1.1118499E2,1.1743134E1,2.498539E0,2.5984806E1,2.498539E0,7.995325E0,2.998247E0,1.8239336E1,3.9976625E0,3.9976625E0,2.2486851E0,4.4973702E0,1.9738459E1,4.7472243E0,2.498539E0,4.4973702E0,1.6240503E1,2.2486851E0,6.321304E1,1.0493864E1,1.3242257E1,3.2481008E0,3.2481007E1,3.447984E1,2.5984806E1,8.520018E1,4.7472243E0,6.9959097E0,2.498539E0,5.496786E0,2.2486851E0,2.498539E0,3.7478087E0,6.7460556E0,2.2486851E0,1.0993572E1,1.024401E1,2.2236998E1,5.496786E0,2.8983053E1,2.0987728E1,4.997078E0],"tree_param":{"num_deleted":"0","num_feature":"16","num_nodes":"81","size_leaf_vector":"1"}},{"base_weights":[1.0508446E-2,-4.4896904E-1,1.3378943E0,1.1427661E0,-1.119686E0,1.7853534E0,-1.6160576E-1,-4.2032346E-1,1.7771072E0,-1.7132376E0,-2.957651E-1,4.8597924E-2,1.2477611E0,-1.4234924E0,1.4296762E0,9.1471976E-1,-1.6663824E0,9.3227786E-1,4.8653048E-2,-1.0661501E0,-1.9386983E0,1.2769516E0,-1.6128142E0,-3.883896E-2,1.7496356E0,-4.7971588E-2,-6.9522E-1,4.6048217E-2,-1.210859E-1,-1.3494822E0,1.5108657E0,-4.9513195E-2,-9.0396625E-1,4.4740047E-2,-4.229271E-2,-1.7640055E0,1.4979906E0,-1.9869732E-2,-5.0203517E-2,1.8224809E0,3.8799325E-1,-6.4702797E-1,-1.8348374E0,1.3734526E-2,4.7437966E-2,7.674068E-1,-4.3499295E-2,-2.9777555E-2,2.2615463E-2,-4.205435E-2,-1.2377501E-2,4.6792522E-2,5.234536E-1,3.0054625E-2,-4.5403738E-2,-5.015122E-2,-6.332567E-1,4.6002463E-2,1.0927315E-2,8.393198E-1,4.8510473E-2,-1.6418781E0,1.6202521E0,-4.870118E-2,4.4052485E-2,-1.9121898E0,-9.9647415E-1,-1.0643066E-3,3.6755357E-2,-3.6349367E-2,4.0532183E-2,3.277249E-2,-4.4516925E-2,3.4027364E-2,2.6034052E-3,-4.764598E-2,-2.0884084E-2,1.2846768E-2,4.5997787E-2,-3.1397026E-2,-5.0864916E-2,3.4227185E-2,-4.5559525E-2],"categories":[],"categories_nodes":[],"categories_segments":[],"categories_sizes":[],"default_left":[0,0,0,0,0,0,0,0,0,0,0,0,0,0,0,0,0,0,0,0,0,0,0,0,0,0,0,0,0,0,0,0,0,0,0,0,0,0,0,0,0,0,0,0,0,0,0,0,0,0,0,0,0,0,0,0,0,0,0,0,0,0,0,0,0,0,0,0,0,0,0,0,0,0,0,0,0,0,0,0,0,0,0],"id":1,"left_children":[1,3,5,7,9,11,13,15,17,19,21,-1,23,25,27,29,31,33,-1,35,37,39,41,-1,43,-1,45,-1,47,49,51,-1,53,-1,-1,55,57,-1,-1,59,61,63,65,-1,-1,67,-1,-1,-1,-1,-1,-1,69,-1,-1,-1,71,-1,-1,73,-1,75,77,-1,-1,79,81,-1,-1,-1,-1,-1,-1,-1,-1,-1,-1,-1,-1,-1,-1,-1,-1],"loss_changes":[6.42683E2,8.369996E2,1.8209311E2,2.3133801E2,2.6907117E2,8.7630005E0,1.2892224E2,1.1455012E2,1.355011E1,4.464862E1,4.826825E2,0E0,5.1606987E1,1.0072159E1,1.5913635E1,4.7183937E1,5.1248093E0,4.6124146E1,0E0,1.5467116E2,6.9177246E-1,5.0848648E1,2.5985748E1,0E0,2.3456192E0,0E0,2.3037554E1,0E0,7.45467E0,1.0508165E0,7.12603E0,0E0,2.1100903E1,0E0,0E0,1.2501068E1,4.9899063E0,0E0,0E0,2.1954803E0,1.0696564E2,7.6992805E1,4.741089E0,0E0,0E0,3.6466203E0,0E0,0E0,0E0,0E0,0E0,0E0,1.789868E1,0E0,0E0,0E0,2.4550312E1,0E0,0E0,1.8133132E0,0E0,1.28368E0,3.9588318E0,0E0,0E0,1.4712524E0,2.1573364E1,0E0,0E0,0E0,0E0,0E0,0E0,0E0,0E0,0E0,0E0,0E0,0E0,0E0,0E0,0E0,0E0],"parents":[2147483647,0,0,1,1,2,2,3,3,4,4,5,5,6,6,7,7,8,8,9,9,10,10,12,12,13,13,14,14,15,15,16,16,17,17,19,19,20,20,21,21,22,22,24,24,26,26,28,28,29,29,30,30,32,32,35,35,36,36,39,39,40,40,41,41,42,42,45,45,52,52,56,56,59,59,61,61,62,62,65,65,66,66],"right_children":[2,4,6,8,10,12,14,16,18,20,22,-1,24,26,28,30,32,34,-1,36,38,40,42,-1,44,-1,46,-1,48,50,52,-1,54,-1,-1,56,58,-1,-1,60,62,64,66,-1,-1,68,-1,-1,-1,-1,-1,-1,70,-1,-1,-1,72,-1,-1,74,-1,76,78,-1,-1,80,82,-1,-1,-1,-1,-1,-1,-1,-1,-1,-1,-1,-1,-1,-1,-1,-1],"split_conditions":[1.9714771E-1,3.180014E-2,2.3646621E-1,2.4919031E-2,7.675025E-2,1.915977E-1,3.765154E-1,1.320136E-2,3.1174116E-2,5.0790053E-2,1.1238413E-1,4.8597924E-2,2.4186847E-1,2.9048318E-1,3.5692433E-1,5.8897715E-3,1.931461E-2,2.4191052E-2,4.8653048E-2,4.885521E-2,2.303263E-1,7.864506E-2,1.3400735E-1,-3.883896E-2,2.6102906E-1,-4.7971588E-2,2.854848E-1,4.6048217E-2,4.5589715E-1,3.83E0,9.483898E-3,-4.9513195E-2,1.9998025E-2,4.4740047E-2,-4.229271E-2,4.1266754E-2,4.605213E-2,-1.9869732E-2,-5.0203517E-2,7.92879E-2,1.10916175E-1,1.4519504E-1,1.8288934E-1,1.3734526E-2,4.7437966E-2,3.126263E-1,-4.3499295E-2,-2.9777555E-2,2.2615463E-2,-4.205435E-2,-1.2377501E-2,4.6792522E-2,1.1895773E-2,3.0054625E-2,-4.5403738E-2,-5.015122E-2,3.8423773E-2,4.6002463E-2,1.0927315E-2,4.8969716E-2,4.8510473E-2,9.610177E-2,1.18805595E-1,-4.870118E-2,4.4052485E-2,1.431805E-1,1.6200508E-1,-1.0643066E-3,3.6755357E-2,-3.6349367E-2,4.0532183E-2,3.277249E-2,-4.4516925E-2,3.4027364E-2,2.6034052E-3,-4.764598E-2,-2.0884084E-2,1.2846768E-2,4.5997787E-2,-3.1397026E-2,-5.0864916E-2,3.4227185E-2,-4.5559525E-2],"split_indices":[0,1,1,0,0,1,0,1,0,1,1,0,0,0,1,2,0,1,0,0,4,1,1,0,0,0,1,0,0,8,1,0,1,0,0,2,1,0,0,0,0,0,0,0,0,0,0,0,0,0,0,0,0,0,0,0,1,0,0,1,0,2,0,0,0,1,1,0,0,0,0,0,0,0,0,0,0,0,0,0,0,0,0],"split_type":[0,0,0,0,0,0,0,0,0,0,0,0,0,0,0,0,0,0,0,0,0,0,0,0,0,0,0,0,0,0,0,0,0,0,0,0,0,0,0,0,0,0,0,0,0,0,0,0,0,0,0,0,0,0,0,0,0,0,0,0,0,0,0,0,0,0,0,0,0,0,0,0,0,0,0,0,0,0,0,0,0,0,0],"sum_hessian":[1.0517596E3,7.8179974E2,2.699599E2,2.3156042E2,5.502394E2,2.0776967E2,6.219024E1,6.694287E1,1.6461755E2,3.1920505E2,2.3103429E2,1.7333482E2,3.443484E1,3.4743828E1,2.7446413E1,3.244587E1,3.4497E1,1.99665E1,1.4465105E2,8.3960724E1,2.3524434E2,1.0531082E2,1.2572347E2,4.999936E0,2.9434904E1,2.0749977E1,1.3993848E1,2.2200794E1,5.2456193E0,6.498907E0,2.594696E1,2.4749958E1,9.747042E0,1.546652E1,4.499979E0,6.6243866E1,1.7716856E1,2.2499025E0,2.3299443E2,6.46108E1,4.0700016E1,2.4231655E1,1.0149182E2,2.4981215E0,2.6936783E1,5.744875E0,8.248974E0,2.4998322E0,2.7457871E0,4.2495055E0,2.2494018E0,1.9205915E1,6.7410455E0,2.7479239E0,6.999118E0,5.649985E1,9.744017E0,1.3472785E1,4.2440715E0,4.491073E0,6.011973E1,1.5248728E1,2.5451288E1,1.5997754E1,8.2339E0,9.174593E1,9.745888E0,2.9972792E0,2.7475955E0,2.2490394E0,4.4920063E0,3.4940257E0,6.2499914E0,2.2446735E0,2.2463994E0,1.1249087E1,3.9996405E0,3.748075E0,2.1703213E1,8.996241E0,8.274969E1,2.245896E0,7.4999914E0],"tree_param":{"num_deleted":"0","num_feature":"16","num_nodes":"83","size_leaf_vector":"1"}},{"base_weights":[1.3748143E-3,-4.4861385E-1,1.3017658E0,1.1359221E0,-1.0947087E0,1.7434227E0,-1.1123998E-1,-4.333307E-1,1.7533796E0,-1.6921123E0,-3.477931E-1,4.7774985E-2,1.2854028E0,-1.2784448E0,1.4645119E0,8.4716856E-1,-1.6137804E0,1.0688292E0,4.771905E-2,-1.1426585E0,-4.9526494E-2,1.1004229E0,-1.5884254E0,-8.853981E-1,4.605877E-2,-1.6729019E0,-2.7554405E-1,4.616682E-2,-1.3069545E-1,-1.2657163E0,1.519961E0,-4.8298378E-2,-7.7075523E-1,4.4312507E-2,-4.0491913E-2,-1.7199464E0,1.1413231E0,1.6664827E0,1.9664747E-1,-9.1549754E-1,-1.8479189E0,-1.2332681E0,2.1777083E-3,-4.7212288E-2,-7.161046E-1,3.6114275E-2,-4.034066E-2,-2.7767565E-2,2.0284636E-2,-4.3891934E-3,-4.2504933E-2,4.5729887E-2,3.769994E-1,2.9507082E-2,-4.34687E-2,-4.873207E-2,-4.9683648E-1,1.5677278E0,-1.0418605E-2,4.839318E-1,4.6646673E-2,-1.5213542E0,1.4783384E0,-1.825225E0,1.3943243E0,-4.962524E-2,-1.0617565E0,-3.967122E-2,-1.1738723E-2,3.6673576E-3,-3.4915294E-2,-1.9991653E-2,3.4603294E-2,3.782114E-2,-4.345673E-2,4.4572506E-2,1.5588905E-2,4.0628493E-2,-3.2747623E-2,-4.7279794E-2,-1.2588923E-2,5.759708E-3,4.487824E-2,-4.865495E-2,-1.967267E-2,4.303638E-2,9.432289E-3,2.6020661E-2,-4.4541433E-2],"categories":[],"categories_nodes":[],"categories_segments":[],"categories_sizes":[],"default_left":[0,0,0,0,0,0,0,0,0,0,0,0,0,0,0,0,0,0,0,0,0,0,0,0,0,0,0,0,0,0,0,0,0,0,0,0,0,0,0,0,0,0,0,0,0,0,0,0,0,0,0,0,0,0,0,0,0,0,0,0,0,0,0,0,0,0,0,0,0,0,0,0,0,0,0,0,0,0,0,0,0,0,0,0,0,0,0,0,0],"id":2,"left_children":[1,3,5,7,9,11,13,15,17,19,21,-1,23,25,27,29,31,33,-1,35,-1,37,39,41,-1,43,45,-1,47,49,51,-1,53,-1,-1,55,57,59,61,63,65,67,-1,-1,69,-1,-1,-1,-1,-1,-1,-1,71,-1,-1,-1,73,75,-1,77,-1,79,81,83,85,-1,87,-1,-1,-1,-1,-1,-1,-1,-1,-1,-1,-1,-1,-1,-1,-1,-1,-1,-1,-1,-1,-1,-1],"loss_changes":[6.180527E2,8.045685E2,1.6964636E2,2.2145767E2,2.483565E2,7.9544067E0,1.22526405E2,9.979586E1,8.880707E0,3.6652832E1,4.4946652E2,0E0,4.836785E1,1.4658752E1,1.4975185E1,4.7257435E1,6.029297E0,4.1538326E1,0E0,1.2508189E2,0E0,5.8794968E1,2.181607E1,3.0517125E0,0E0,2.799591E0,2.8076033E1,0E0,5.8299365E0,3.1748447E0,6.4634666E0,0E0,1.899467E1,0E0,0E0,1.4609283E1,1.3443348E1,1.1054825E1,1.027469E2,8.543613E1,3.725769E0,8.4098244E-1,0E0,0E0,3.2014742E0,0E0,0E0,0E0,0E0,0E0,0E0,0E0,7.4196043E0,0E0,0E0,0E0,2.6928606E1,1.3436508E0,0E0,1.918958E1,0E0,5.5487022E0,8.366844E0,4.3431854E-1,2.6958122E0,0E0,1.6538094E1,0E0,0E0,0E0,0E0,0E0,0E0,0E0,0E0,0E0,0E0,0E0,0E0,0E0,0E0,0E0,0E0,0E0,0E0,0E0,0E0,0E0,0E0],"parents":[2147483647,0,0,1,1,2,2,3,3,4,4,5,5,6,6,7,7,8,8,9,9,10,10,12,12,13,13,14,14,15,15,16,16,17,17,19,19,21,21,22,22,23,23,25,25,26,26,28,28,29,29,30,30,32,32,35,35,36,36,37,37,38,38,39,39,40,40,41,41,44,44,52,52,56,56,57,57,59,59,61,61,62,62,63,63,64,64,66,66],"right_children":[2,4,6,8,10,12,14,16,18,20,22,-1,24,26,28,30,32,34,-1,36,-1,38,40,42,-1,44,46,-1,48,50,52,-1,54,-1,-1,56,58,60,62,64,66,68,-1,-1,70,-1,-1,-1,-1,-1,-1,-1,72,-1,-1,-1,74,76,-1,78,-1,80,82,84,86,-1,88,-1,-1,-1,-1,-1,-1,-1,-1,-1,-1,-1,-1,-1,-1,-1,-1,-1,-1,-1,-1,-1,-1],"split_conditions":[1.9714771E-1,3.108703E-2,2.3206894E-1,2.4919031E-2,7.175361E-2,1.8037507E-1,3.765154E-1,1.320136E-2,3.1174116E-2,5.2516922E-2,1.1146813E-1,4.7774985E-2,2.4610505E-1,3.0843383E-1,3.5692433E-1,7.14798E-3,1.931461E-2,2.4191052E-2,4.771905E-2,4.885521E-2,-4.9526494E-2,7.864506E-2,1.4526841E-1,1.903503E0,4.605877E-2,2.7630967E-1,2.854848E-1,4.616682E-2,4.9099648E-1,1.0638298E-1,1.0027617E-2,-4.8298378E-2,1.9998025E-2,4.4312507E-2,-4.0491913E-2,4.1266754E-2,5.020454E-2,7.846867E-2,1.10916175E-1,1.4519504E-1,1.8288934E-1,2.199206E-1,2.1777083E-3,-4.7212288E-2,2.854848E-1,3.6114275E-2,-4.034066E-2,-2.7767565E-2,2.0284636E-2,-4.3891934E-3,-4.2504933E-2,4.5729887E-2,1.4118276E-2,2.9507082E-2,-4.34687E-2,-4.873207E-2,3.762157E-2,4.605213E-2,-1.0418605E-2,6.1254967E-2,4.6646673E-2,9.679056E-2,1.18805595E-1,1.7504587E0,1.3634051E-1,-4.962524E-2,1.6762854E-1,-3.967122E-2,-1.1738723E-2,3.6673576E-3,-3.4915294E-2,-1.9991653E-2,3.4603294E-2,3.782114E-2,-4.345673E-2,4.4572506E-2,1.5588905E-2,4.0628493E-2,-3.2747623E-2,-4.7279794E-2,-1.2588923E-2,5.759708E-3,4.487824E-2,-4.865495E-2,-1.967267E-2,4.303638E-2,9.432289E-3,2.6020661E-2,-4.4541433E-2],"split_indices":[0,1,1,0,0,1,0,1,0,1,1,0,0,0,1,0,0,1,0,0,0,1,1,4,0,2,1,0,0,4,1,0,1,0,0,2,1,0,0,0,0,0,0,0,1,0,0,0,0,0,0,0,0,0,0,0,1,1,0,1,0,0,0,9,1,0,1,0,0,0,0,0,0,0,0,0,0,0,0,0,0,0,0,0,0,0,0,0,0],"split_type":[0,0,0,0,0,0,0,0,0,0,0,0,0,0,0,0,0,0,0,0,0,0,0,0,0,0,0,0,0,0,0,0,0,0,0,0,0,0,0,0,0,0,0,0,0,0,0,0,0,0,0,0,0,0,0,0,0,0,0,0,0,0,0,0,0,0,0,0,0,0,0,0,0,0,0,0,0,0,0,0,0,0,0,0,0,0,0,0,0],"sum_hessian":[1.0542113E3,7.8368066E2,2.7053067E2,2.267709E2,5.569097E2,2.0593016E2,6.460051E1,6.4117096E1,1.6265381E2,3.0872083E2,2.481889E2,1.6386989E2,4.2060272E1,3.7219574E1,2.7380936E1,3.089064E1,3.322646E1,2.1665224E1,1.4098859E2,9.2376915E1,2.1634392E2,1.145663E2,1.336226E2,7.7367187E0,3.432355E1,2.6233467E1,1.098611E1,2.2638018E1,4.742918E0,7.2478123E0,2.3642828E1,2.4483398E1,8.743059E0,1.7666666E1,3.9985578E0,7.3936134E1,1.8440779E1,6.992586E1,4.4640438E1,3.8447414E1,9.517519E1,5.49434E0,2.2423787E0,2.1736362E1,4.4971046E0,4.737917E0,6.248193E0,2.2492747E0,2.4936433E0,2.2492447E0,4.9985676E0,1.8903532E1,4.739296E0,2.7453194E0,5.99774E0,6.4452156E1,9.483978E0,1.4441376E1,3.999404E0,7.980435E0,6.1945423E1,1.8993807E1,2.5646633E1,2.773409E1,1.0713322E1,8.5436E1,9.739197E0,3.245366E0,2.2489736E0,2.248261E0,2.2488434E0,2.249386E0,2.48991E0,3.4873395E0,5.9966383E0,1.1697329E1,2.7440464E0,4.98173E0,2.9987054E0,1.399465E1,4.999157E0,4.7466235E0,2.090001E1,2.5486185E1,2.247907E0,7.9658265E0,2.7474957E0,2.2427356E0,7.4964614E0],"tree_param":{"num_deleted":"0","num_feature":"16","num_nodes":"89","size_leaf_vector":"1"}},{"base_weights":[5.9705935E-3,-4.2535558E-1,1.251519E0,1.0944095E0,-1.0757651E0,1.5599655E0,-8.4281933E-1,-4.1683492E-1,1.6753992E0,-1.6410544E0,-2.943617E-1,4.6476014E-2,8.596122E-1,-1.2852197E0,1.0629886E0,9.163755E-1,-1.6106458E0,8.6137503E-1,4.65286E-2,-9.449541E-1,-1.8130203E0,1.210878E0,-1.5514088E0,-1.1268892E0,1.351662E0,2.2890687E-2,-1.5661654E0,3.8185216E-2,2.454614E-3,-1.0689545E0,1.4933227E0,-6.755073E-1,-4.6635825E-2,1.6416453E0,-4.196655E-2,-1.7501334E0,1.4535625E0,-5.7249314E-1,-1.8381621E0,4.5673862E-2,3.4553078E-1,-7.455375E-1,-1.7879378E0,-1.9984902E-1,-4.1094847E-2,1.6884218E0,2.4015634E-1,-4.6897255E-2,-7.6281E-1,-4.106995E-2,3.7530505E-3,4.4735156E-2,5.331062E-1,-4.016804E-2,2.643459E-2,4.4567965E-2,1.7285306E-2,-4.743453E-2,-1.1709383E-2,-4.7246332E-4,4.409122E-2,-3.7792083E-2,1.9888164E-2,-4.873985E-2,-1.5090423E0,-1.5164313E0,1.4563257E0,-4.5906145E-2,4.0311754E-2,-4.7676437E-2,-1.0919925E0,-3.4599416E-2,2.5961488E-2,1.0925795E0,4.5749977E-2,-3.407049E-2,3.803426E-2,2.0053308E-2,-4.1296307E-2,-2.0182975E-2,3.654629E-2,2.6886519E-2,-4.7801994E-2,-2.0218277E-2,-4.5561906E-2,7.2758584E-3,4.4006705E-2,1.7653188E-2,-4.3220982E-2,3.8070437E-2,3.6297324E-3],"categories":[],"categories_nodes":[],"categories_segments":[],"categories_sizes":[],"default_left":[0,0,0,0,0,0,0,0,0,0,0,0,0,0,0,0,0,0,0,0,0,0,0,0,0,0,0,0,0,0,0,0,0,0,0,0,0,0,0,0,0,0,0,0,0,0,0,0,0,0,0,0,0,0,0,0,0,0,0,0,0,0,0,0,0,0,0,0,0,0,0,0,0,0,0,0,0,0,0,0,0,0,0,0,0,0,0,0,0,0,0],"id":3,"left_children":[1,3,5,7,9,11,13,15,17,19,21,-1,23,25,27,29,31,33,-1,35,37,39,41,43,45,-1,47,-1,-1,49,51,53,-1,55,-1,57,59,61,63,-1,65,67,69,71,-1,73,75,-1,77,-1,-1,-1,79,-1,-1,-1,-1,-1,-1,-1,-1,-1,-1,-1,81,83,85,-1,-1,-1,87,-1,-1,89,-1,-1,-1,-1,-1,-1,-1,-1,-1,-1,-1,-1,-1,-1,-1,-1,-1],"loss_changes":[5.6519025E2,7.7360406E2,1.7612146E2,2.0676492E2,2.4146484E2,3.8509155E1,3.1201656E1,1.06478645E2,1.6233063E1,3.6305603E1,4.392304E2,0E0,6.2711235E1,1.9198143E1,2.7750063E0,3.8025818E1,5.278923E0,5.1393127E1,0E0,1.2808653E2,6.8570557E0,5.064392E1,2.275882E1,5.29253E0,1.854451E1,0E0,3.921486E0,0E0,0E0,5.155612E0,4.8812294E0,1.3194483E1,0E0,4.8817444E-1,0E0,4.840103E0,6.3951187E0,8.916182E0,1.371582E0,0E0,9.071882E1,7.5370735E1,2.0797424E0,8.908291E0,0E0,3.35083E-2,2.6886381E1,0E0,1.1554659E1,0E0,0E0,0E0,8.641085E0,0E0,0E0,0E0,0E0,0E0,0E0,0E0,0E0,0E0,0E0,0E0,3.591127E1,1.6356277E0,7.5377426E0,0E0,0E0,0E0,1.1754661E1,0E0,0E0,2.5160599E0,0E0,0E0,0E0,0E0,0E0,0E0,0E0,0E0,0E0,0E0,0E0,0E0,0E0,0E0,0E0,0E0,0E0],"parents":[2147483647,0,0,1,1,2,2,3,3,4,4,5,5,6,6,7,7,8,8,9,9,10,10,12,12,13,13,14,14,15,15,16,16,17,17,19,19,20,20,21,21,22,22,23,23,24,24,26,26,29,29,30,30,31,31,33,33,35,35,36,36,37,37,38,38,40,40,41,41,42,42,43,43,45,45,46,46,48,48,52,52,64,64,65,65,66,66,70,70,73,73],"right_children":[2,4,6,8,10,12,14,16,18,20,22,-1,24,26,28,30,32,34,-1,36,38,40,42,44,46,-1,48,-1,-1,50,52,54,-1,56,-1,58,60,62,64,-1,66,68,70,72,-1,74,76,-1,78,-1,-1,-1,80,-1,-1,-1,-1,-1,-1,-1,-1,-1,-1,-1,82,84,86,-1,-1,-1,88,-1,-1,90,-1,-1,-1,-1,-1,-1,-1,-1,-1,-1,-1,-1,-1,-1,-1,-1,-1],"split_conditions":[1.9714771E-1,3.180014E-2,2.1383114E0,2.4400955E-2,7.675025E-2,1.915977E-1,4.3728745E-1,1.320136E-2,3.1174116E-2,4.605213E-2,1.1238413E-1,4.6476014E-2,2.7038014E-1,2.0686275E-1,4.0285027E-1,7.14798E-3,1.6918154E-2,2.4191052E-2,4.65286E-2,4.4517457E-2,2.589928E-1,7.864506E-2,1.3742906E-1,2.0686275E-1,2.7934062E-1,2.2890687E-2,3.0843383E-1,3.8185216E-2,2.454614E-3,3.83E0,9.483898E-3,1.5355938E-2,-4.6635825E-2,3.3852768E-1,-4.196655E-2,4.1185897E-2,4.885521E-2,4.770071E-2,6.376035E-2,4.5673862E-2,1.10916175E-1,1.4519504E-1,1.8288934E-1,2.3178977E-1,-4.1094847E-2,3.0843383E-1,3.6916223E-1,-4.6897255E-2,3.0826098E-1,-4.106995E-2,3.7530505E-3,4.4735156E-2,1.2871423E-2,-4.016804E-2,2.643459E-2,4.4567965E-2,1.7285306E-2,-4.743453E-2,-1.1709383E-2,-4.7246332E-4,4.409122E-2,-3.7792083E-2,1.9888164E-2,-4.873985E-2,6.1254967E-2,8.733717E-2,1.2026206E-1,-4.5906145E-2,4.0311754E-2,-4.7676437E-2,1.6762854E-1,-3.4599416E-2,2.5961488E-2,2.3206894E-1,4.5749977E-2,-3.407049E-2,3.803426E-2,2.0053308E-2,-4.1296307E-2,-2.0182975E-2,3.654629E-2,2.6886519E-2,-4.7801994E-2,-2.0218277E-2,-4.5561906E-2,7.2758584E-3,4.4006705E-2,1.7653188E-2,-4.3220982E-2,3.8070437E-2,3.6297324E-3],"split_indices":[0,1,4,0,0,1,0,1,0,1,1,0,0,1,1,0,1,1,0,0,4,1,1,1,1,0,0,0,0,8,1,0,0,4,0,0,0,0,0,0,0,0,0,0,0,0,0,0,1,0,0,0,0,0,0,0,0,0,0,0,0,0,0,0,1,1,0,0,0,0,1,0,0,1,0,0,0,0,0,0,0,0,0,0,0,0,0,0,0,0,0],"split_type":[0,0,0,0,0,0,0,0,0,0,0,0,0,0,0,0,0,0,0,0,0,0,0,0,0,0,0,0,0,0,0,0,0,0,0,0,0,0,0,0,0,0,0,0,0,0,0,0,0,0,0,0,0,0,0,0,0,0,0,0,0,0,0,0,0,0,0,0,0,0,0,0,0,0,0,0,0,0,0,0,0,0,0,0,0,0,0,0,0,0,0],"sum_hessian":[1.0500393E3,7.80437E2,2.696023E2,2.3369533E2,5.467417E2,2.3521574E2,3.4386566E1,6.497299E1,1.6872232E2,3.1660242E2,2.3013927E2,1.7361656E2,6.1599186E1,2.817245E1,6.2141166E0,3.0804213E1,3.416878E1,2.4091013E1,1.4463132E2,6.400636E1,2.5259605E2,1.0474729E2,1.25391975E2,1.1972732E1,4.9626453E1,2.9784157E0,2.5194033E1,3.9707413E0,2.2433753E0,6.744156E0,2.4060057E1,6.7327533E0,2.7436028E1,1.8599703E1,5.49131E0,4.8122143E1,1.5884221E1,5.489845E0,2.471062E2,6.2952625E1,4.1794666E1,2.9394566E1,9.599741E1,4.486522E0,7.4862094E0,3.768865E1,1.1937805E1,1.8211596E1,6.9824386E0,4.495158E0,2.248998E0,1.858388E1,5.476177E0,4.4886847E0,2.2440686E0,1.6363989E1,2.2357135E0,4.4633446E1,3.4887E0,2.4915364E0,1.3392685E1,3.243717E0,2.2461276E0,2.0944797E2,3.7658245E1,1.5480466E1,2.63142E1,2.0456974E1,8.93759E0,8.677126E1,9.226152E0,2.2476022E0,2.23892E0,6.4599805E0,3.1228668E1,5.240679E0,6.6971264E0,2.4866555E0,4.495783E0,2.2467782E0,3.2293987E0,4.2383246E0,3.3419918E1,4.9942684E0,1.04861965E1,4.9932346E0,2.1320965E1,2.2396853E0,6.9864674E0,4.2117343E0,2.2482462E0],"tree_param":{"num_deleted":"0","num_feature":"16","num_nodes":"91","size_leaf_vector":"1"}},{"base_weights":[-1.2022155E-2,-4.3085515E-1,1.2214543E0,1.0648253E0,-1.0488247E0,1.6532534E0,-1.2818445E-1,-4.3405834E-1,1.6583312E0,-1.6079867E0,-2.8735957E-1,1.134933E0,4.56622E-2,-1.2511084E0,1.2930657E0,8.14043E-1,-1.574558E0,9.2990065E-1,4.5555193E-2,-9.042801E-1,-1.7769039E0,1.1771836E0,-1.5029017E0,4.461073E-2,-1.0229278E0,-1.628381E0,-2.7238807E-1,4.3237895E-2,-1.03294425E-1,-9.530462E-1,1.5186213E0,-6.9875085E-1,-4.5653895E-2,4.2527933E-2,-4.0149856E-2,-4.6329174E-2,1.0833758E0,-6.9218016E-1,-1.8045871E0,1.7064024E0,3.5423493E-1,-6.8258965E-1,-1.7325327E0,-3.7145145E-2,-8.369144E-3,-8.876963E-1,-4.6184447E-2,3.844516E-2,-3.885056E-2,-3.1192679E-2,2.4878347E-2,1.687181E-3,-4.123512E-2,4.3678295E-2,7.282601E-1,-3.9781805E-2,2.5984831E-2,-8.638272E-2,4.3032162E-2,-4.0269293E-2,2.7258707E-2,-4.776238E-2,-1.4869002E0,1.1067551E0,4.543504E-2,-1.1288027E0,4.3261975E-2,-4.4904877E-2,3.9687786E-2,-1.8073962E0,-1.0133228E0,-3.632637E-2,-2.4674067E-3,-5.140115E-3,3.4553327E-2,3.600518E-2,-3.387733E-2,2.8933115E-2,-4.6699062E-2,3.8811915E-2,8.117377E-4,-1.2005581E-2,-4.5073923E-2,-2.7132314E-2,-4.738271E-2,2.6625605E-2,-4.3241695E-2],"categories":[],"categories_nodes":[],"categories_segments":[],"categories_sizes":[],"default_left":[0,0,0,0,0,0,0,0,0,0,0,0,0,0,0,0,0,0,0,0,0,0,0,0,0,0,0,0,0,0,0,0,0,0,0,0,0,0,0,0,0,0,0,0,0,0,0,0,0,0,0,0,0,0,0,0,0,0,0,0,0,0,0,0,0,0,0,0,0,0,0,0,0,0,0,0,0,0,0,0,0,0,0,0,0,0,0],"id":4,"left_children":[1,3,5,7,9,11,13,15,17,19,21,23,-1,25,27,29,31,33,-1,35,37,39,41,-1,43,45,47,-1,49,51,53,55,-1,-1,-1,-1,57,59,61,63,65,67,69,-1,-1,71,-1,-1,-1,-1,-1,-1,-1,-1,73,-1,-1,75,-1,-1,-1,-1,77,79,-1,81,-1,-1,-1,83,85,-1,-1,-1,-1,-1,-1,-1,-1,-1,-1,-1,-1,-1,-1,-1,-1],"loss_changes":[5.3911774E2,7.2113824E2,1.5436954E2,2.0377383E2,2.3446313E2,1.0179016E1,1.0542761E2,9.457071E1,1.1245392E1,3.618347E1,4.198202E2,5.2832935E1,0E0,1.316111E1,1.5809654E1,4.1228554E1,4.6899033E0,4.416632E1,0E0,1.1468384E2,6.418457E0,4.6025696E1,2.3072601E1,0E0,2.2216892E0,1.5853577E0,2.7162159E1,0E0,9.71223E0,6.4998035E0,1.9795113E0,1.3026224E1,0E0,0E0,0E0,0E0,1.4053432E1,1.3778466E1,9.8602295E-1,2.0387268E-1,8.660504E1,7.27865E1,3.550171E0,0E0,0E0,2.6413684E0,0E0,0E0,0E0,0E0,0E0,0E0,0E0,0E0,3.650867E0,0E0,0E0,1.5890499E1,0E0,0E0,0E0,0E0,3.355871E1,3.4519644E0,0E0,7.787945E0,0E0,0E0,0E0,8.053589E-2,1.7608002E1,0E0,0E0,0E0,0E0,0E0,0E0,0E0,0E0,0E0,0E0,0E0,0E0,0E0,0E0,0E0,0E0],"parents":[2147483647,0,0,1,1,2,2,3,3,4,4,5,5,6,6,7,7,8,8,9,9,10,10,11,11,13,13,14,14,15,15,16,16,17,17,19,19,20,20,21,21,22,22,24,24,25,25,26,26,28,28,29,29,30,30,31,31,36,36,37,37,38,38,39,39,40,40,41,41,42,42,45,45,54,54,57,57,62,62,63,63,65,65,69,69,70,70],"right_children":[2,4,6,8,10,12,14,16,18,20,22,24,-1,26,28,30,32,34,-1,36,38,40,42,-1,44,46,48,-1,50,52,54,56,-1,-1,-1,-1,58,60,62,64,66,68,70,-1,-1,72,-1,-1,-1,-1,-1,-1,-1,-1,74,-1,-1,76,-1,-1,-1,-1,78,80,-1,82,-1,-1,-1,84,86,-1,-1,-1,-1,-1,-1,-1,-1,-1,-1,-1,-1,-1,-1,-1,-1],"split_conditions":[1.9714771E-1,3.180014E-2,2.3206894E-1,2.4919031E-2,7.675025E-2,2.4610505E-1,3.765154E-1,1.320136E-2,3.1174116E-2,4.605213E-2,1.1146813E-1,1.8037507E-1,4.56622E-2,3.0843383E-1,3.5692433E-1,9.260279E-3,1.6918154E-2,2.4191052E-2,4.5555193E-2,4.1185897E-2,2.7728873E-1,7.864506E-2,1.3742906E-1,4.461073E-2,2.2757575E-1,2.505687E-1,2.854848E-1,4.3237895E-2,4.5589715E-1,6.286054E-3,9.483898E-3,1.5355938E-2,-4.5653895E-2,4.2527933E-2,-4.0149856E-2,-4.6329174E-2,4.885521E-2,5.269804E-2,6.376035E-2,8.135845E-2,1.18805595E-1,1.4519504E-1,1.8288934E-1,-3.7145145E-2,-8.369144E-3,2.5728345E-1,-4.6184447E-2,3.844516E-2,-3.885056E-2,-3.1192679E-2,2.4878347E-2,1.687181E-3,-4.123512E-2,4.3678295E-2,3.3990768E-1,-3.9781805E-2,2.5984831E-2,3.762157E-2,4.3032162E-2,-4.0269293E-2,2.7258707E-2,-4.776238E-2,6.1254967E-2,6.988521E-1,4.543504E-2,9.588971E-2,4.3261975E-2,-4.4904877E-2,3.9687786E-2,1.431805E-1,1.6200508E-1,-3.632637E-2,-2.4674067E-3,-5.140115E-3,3.4553327E-2,3.600518E-2,-3.387733E-2,2.8933115E-2,-4.6699062E-2,3.8811915E-2,8.117377E-4,-1.2005581E-2,-4.5073923E-2,-2.7132314E-2,-4.738271E-2,2.6625605E-2,-4.3241695E-2],"split_indices":[0,1,1,0,0,0,0,1,0,1,1,1,0,0,1,2,1,1,0,0,4,1,1,0,0,1,1,0,0,1,1,0,0,0,0,0,0,0,0,0,0,0,0,0,0,0,0,0,0,0,0,0,0,0,3,0,0,1,0,0,0,0,1,4,0,1,0,0,0,1,1,0,0,0,0,0,0,0,0,0,0,0,0,0,0,0,0],"split_type":[0,0,0,0,0,0,0,0,0,0,0,0,0,0,0,0,0,0,0,0,0,0,0,0,0,0,0,0,0,0,0,0,0,0,0,0,0,0,0,0,0,0,0,0,0,0,0,0,0,0,0,0,0,0,0,0,0,0,0,0,0,0,0,0,0,0,0,0,0,0,0,0,0,0,0,0,0,0,0,0,0,0,0,0,0,0,0],"sum_hessian":[1.0415281E3,7.780037E2,2.635243E2,2.2725417E2,5.507496E2,1.9947873E2,6.404556E1,6.45368E1,1.6271736E2,3.169177E2,2.3383188E2,3.878165E1,1.6069708E2,3.58446E1,2.8200962E1,3.0951447E1,3.3585354E1,2.2262644E1,1.4045473E2,6.2576847E1,2.5434084E2,1.0606784E2,1.2776404E2,3.055665E1,8.225002E0,2.5392595E1,1.0452006E1,2.1967411E1,6.2335515E0,8.722553E0,2.2228893E1,6.967998E0,2.6617355E1,1.7530083E1,4.732561E0,4.3257534E1,1.9319315E1,6.9766345E0,2.473642E2,6.3901062E1,4.216678E1,2.881186E1,9.895218E1,4.483447E0,3.7415552E0,5.7295136E0,1.9663082E1,4.217868E0,6.2341385E0,2.9968407E0,3.2367108E0,3.7335749E0,4.988978E0,1.726354E1,4.9653525E0,4.7266216E0,2.2413764E0,6.7263117E0,1.2593003E1,4.732201E0,2.244433E0,2.1104776E2,3.6316433E1,7.173156E0,5.6727905E1,1.9952175E1,2.2214605E1,1.9659698E1,9.15216E0,8.825281E1,1.0699376E1,2.9868503E0,2.7426634E0,2.2407506E0,2.724602E0,2.9839938E0,3.7423177E0,3.7383373E0,3.2578094E1,4.9431458E0,2.2300103E0,1.0476787E1,9.4753895E0,4.734622E0,8.351818E1,2.4837122E0,8.215664E0],"tree_param":{"num_deleted":"0","num_feature":"16","num_nodes":"87","size_leaf_vector":"1"}},{"base_weights":[9.078611E-3,-4.152755E-1,1.2271156E0,1.0850022E0,-1.0272874E0,1.4886786E0,-6.330962E-1,-3.8135943E-1,1.6528465E0,-1.6871496E0,-4.1704693E-1,4.4471003E-2,8.692015E-1,-1.2459624E0,1.0389537E0,9.036234E-1,-1.5099374E0,8.77773E-1,4.469648E-2,-1.175229E0,-1.8004502E0,7.4343973E-1,-1.5324457E0,-1.0381645E0,1.363435E0,2.0593757E-2,-1.5273222E0,3.9092492E-2,1.8149049E-3,-9.349467E-1,1.393155E0,-6.032209E-1,-1.6988598E0,4.2142704E-2,-3.4042943E-2,-4.532306E-2,9.937128E-1,-4.6643127E-2,-1.8261513E-2,1.5956012E0,-3.7623602E-3,-9.8340225E-1,-4.5397542E-2,-2.1318197E-2,-4.0498845E-2,1.6146047E0,4.135293E-1,-4.2983286E-2,-7.328847E-3,3.8681787E-3,-3.8225677E-2,4.1936204E-2,2.9089156E-1,-3.7797894E-2,2.0619692E-2,-4.5347217E-2,-2.011469E-2,-8.0837554E-4,3.7361715E-2,4.3680508E-2,9.2112076E-1,-1.4405831E0,1.1807061E0,-4.516921E-2,1.2681339E0,-3.3456527E-2,2.8213598E-2,4.3148413E-2,2.1513047E-2,-3.3026498E-2,1.2691498E0,-1.9172767E-2,3.20515E-2,-2.531629E-2,3.9887708E-2,-4.506852E-2,-1.0917043E-2,7.6081646E-3,4.2869024E-2,4.0795106E-2,6.0246116E-3,3.9027177E-2,9.609931E-3],"categories":[],"categories_nodes":[],"categories_segments":[],"categories_sizes":[],"default_left":[0,0,0,0,0,0,0,0,0,0,0,0,0,0,0,0,0,0,0,0,0,0,0,0,0,0,0,0,0,0,0,0,0,0,0,0,0,0,0,0,0,0,0,0,0,0,0,0,0,0,0,0,0,0,0,0,0,0,0,0,0,0,0,0,0,0,0,0,0,0,0,0,0,0,0,0,0,0,0,0,0,0,0],"id":5,"left_children":[1,3,5,7,9,11,13,15,17,19,21,-1,23,25,27,29,31,33,-1,35,37,39,41,43,45,-1,47,-1,-1,49,51,53,55,-1,-1,-1,57,-1,-1,59,61,63,-1,65,-1,67,69,-1,-1,-1,-1,-1,71,-1,-1,-1,-1,-1,-1,-1,73,75,77,-1,79,-1,-1,-1,-1,-1,81,-1,-1,-1,-1,-1,-1,-1,-1,-1,-1,-1,-1],"loss_changes":[5.396779E2,7.121154E2,1.3220279E2,1.878518E2,2.2097131E2,3.3075745E1,3.6092445E1,9.356519E1,8.572662E0,1.3206238E1,3.7306775E2,0E0,6.4841286E1,1.5775482E1,4.3520393E0,2.8622753E1,4.8376465E0,3.0833652E1,0E0,6.5830414E1,6.246338E-1,9.010099E1,1.6638E1,7.7665043E0,1.2184601E1,0E0,3.4391403E0,0E0,0E0,4.367205E0,5.7845764E0,1.0186287E1,1.4640045E-1,0E0,0E0,0E0,5.3522053E0,0E0,0E0,2.8143158E0,1.3170311E2,8.0609055E1,0E0,9.90891E0,0E0,5.3284454E-1,1.9902792E1,0E0,0E0,0E0,0E0,0E0,6.3092628E0,0E0,0E0,0E0,0E0,0E0,0E0,0E0,1.4119E1,1.0178818E1,1.7601883E1,0E0,3.5604687E0,0E0,0E0,0E0,0E0,0E0,1.3796911E0,0E0,0E0,0E0,0E0,0E0,0E0,0E0,0E0,0E0,0E0,0E0,0E0],"parents":[2147483647,0,0,1,1,2,2,3,3,4,4,5,5,6,6,7,7,8,8,9,9,10,10,12,12,13,13,14,14,15,15,16,16,17,17,19,19,20,20,21,21,22,22,23,23,24,24,26,26,29,29,30,30,31,31,32,32,36,36,39,39,40,40,41,41,43,43,45,45,46,46,52,52,60,60,61,61,62,62,64,64,70,70],"right_children":[2,4,6,8,10,12,14,16,18,20,22,-1,24,26,28,30,32,34,-1,36,38,40,42,44,46,-1,48,-1,-1,50,52,54,56,-1,-1,-1,58,-1,-1,60,62,64,-1,66,-1,68,70,-1,-1,-1,-1,-1,72,-1,-1,-1,-1,-1,-1,-1,74,76,78,-1,80,-1,-1,-1,-1,-1,82,-1,-1,-1,-1,-1,-1,-1,-1,-1,-1,-1,-1],"split_conditions":[1.9714771E-1,3.108703E-2,2.1383114E0,2.4919031E-2,6.0181245E-2,1.915977E-1,3.8491556E-1,1.320136E-2,2.9964877E-2,4.2627305E-2,1.1238413E-1,4.4471003E-2,2.765469E-1,2.0686275E-1,3.764422E-1,7.14798E-3,1.6918154E-2,2.251614E-2,4.469648E-2,4.1185897E-2,5.86E0,6.8177976E-2,1.468341E-1,2.0686275E-1,2.7934062E-1,2.0593757E-2,3.234244E-1,3.9092492E-2,1.8149049E-3,9.796807E-2,1.0027617E-2,1.4894607E-2,2.3384225E-2,4.2142704E-2,-3.4042943E-2,-4.532306E-2,4.4517457E-2,-4.6643127E-2,-1.8261513E-2,6.230503E-2,9.5146164E-2,1.4519504E-1,-4.5397542E-2,2.3178977E-1,-4.0498845E-2,1.02E0,3.6359712E-1,-4.2983286E-2,-7.328847E-3,3.8681787E-3,-3.8225677E-2,4.1936204E-2,1.4118276E-2,-3.7797894E-2,2.0619692E-2,-4.5347217E-2,-2.011469E-2,-8.0837554E-4,3.7361715E-2,4.3680508E-2,7.77174E-2,8.534817E-2,1.2026206E-1,-4.516921E-2,1.3634051E-1,-3.3456527E-2,2.8213598E-2,4.3148413E-2,2.1513047E-2,-3.3026498E-2,9.1E-1,-1.9172767E-2,3.20515E-2,-2.531629E-2,3.9887708E-2,-4.506852E-2,-1.0917043E-2,7.6081646E-3,4.2869024E-2,4.0795106E-2,6.0246116E-3,3.9027177E-2,9.609931E-3],"split_indices":[0,1,4,0,0,1,0,1,0,1,1,0,0,1,5,0,1,1,0,0,8,1,1,1,1,0,2,0,0,4,1,0,0,0,0,0,0,0,0,1,0,0,0,0,0,8,0,0,0,0,0,0,0,0,0,0,0,0,0,0,0,0,0,0,1,0,0,0,0,0,6,0,0,0,0,0,0,0,0,0,0,0,0],"split_type":[0,0,0,0,0,0,0,0,0,0,0,0,0,0,0,0,0,0,0,0,0,0,0,0,0,0,0,0,0,0,0,0,0,0,0,0,0,0,0,0,0,0,0,0,0,0,0,0,0,0,0,0,0,0,0,0,0,0,0,0,0,0,0,0,0,0,0,0,0,0,0,0,0,0,0,0,0,0,0,0,0,0,0],"sum_hessian":[1.0421229E3,7.7335236E2,2.687706E2,2.238461E2,5.495063E2,2.3581285E2,3.2957737E1,6.2577835E1,1.6126826E2,2.6317084E2,2.8633542E2,1.695307E2,6.628215E1,2.4304205E1,8.653533E0,2.9354519E1,3.3223316E1,1.6252182E1,1.4501608E2,4.975188E1,2.1341896E2,1.4049483E2,1.458406E2,1.3413946E1,5.2868202E1,2.7177498E0,2.1586454E1,5.420104E0,3.2334285E0,5.9810743E0,2.3373446E1,6.4517355E0,2.6771578E1,1.2282114E1,3.9700668E0,3.937334E1,1.0378538E1,2.111906E2,2.2283654E0,6.510692E1,7.538792E1,4.4330624E1,1.0150998E2,4.965761E0,8.448185E0,4.125895E1,1.1609252E1,1.9104244E1,2.4822109E0,2.2487726E0,3.7323017E0,1.8903696E1,4.4697495E0,3.9676592E0,2.4840765E0,2.4286177E1,2.485402E0,3.4767418E0,6.901797E0,5.5519997E1,9.586921E0,3.3967445E1,4.142047E1,3.3220684E1,1.1109939E1,2.2399662E0,2.7257948E0,3.7319115E1,3.9398339E0,3.7290444E0,7.880207E0,2.2471104E0,2.222639E0,2.2310507E0,7.3558702E0,2.554254E1,8.424905E0,1.5156159E1,2.626431E1,8.119024E0,2.9909136E0,5.652952E0,2.227255E0],"tree_param":{"num_deleted":"0","num_feature":"16","num_nodes":"83","size_leaf_vector":"1"}},{"base_weights":[-1.8057198E-3,-4.171364E-1,1.1929259E0,1.0151579E0,-1.0025841E0,1.4695357E0,-7.394263E-1,-4.1752622E-1,1.5875182E0,-1.6567795E0,-4.0606472E-1,4.377991E-2,8.3827764E-1,-1.2964276E0,8.116951E-1,8.175542E-1,-1.5114728E0,7.803085E-1,4.367047E-2,-1.133769E0,-4.5479573E-2,1.2937168E0,-1.1660252E0,-1.1167384E0,1.2389159E0,2.3861682E-2,-1.5479989E0,3.6937825E-2,-1.4103616E-3,-1.0393573E0,1.3998265E0,-4.4549827E-2,-7.2454935E-1,4.1815758E-2,-3.318452E-2,-4.4197943E-2,1.0074266E0,3.9048085E-1,4.3122433E-2,-2.974516E-1,-1.5939636E0,-4.08365E-2,-6.685172E-3,1.5202386E0,2.2520702E-1,-4.398979E-2,-8.409964E-1,3.8111538E-3,-3.9508395E-2,4.2227242E-2,4.532314E-1,3.2993507E-2,-4.0080767E-2,3.907194E-2,3.1350653E-3,1.528385E0,-4.0378902E-2,-1.5865133E0,1.2274957E0,-1.683136E0,-6.1000365E-1,9.048695E-1,4.3207258E-2,-3.4380674E-2,1.2166988E0,-8.4158115E-4,-3.5319578E-2,-1.9584984E-2,3.4392375E-2,4.2844318E-2,1.0602439E-2,-4.5078233E-2,-2.240189E-2,4.4131414E-3,4.0030297E-2,-3.4125574E-2,-4.5514736E-2,3.6010135E-2,-3.9170016E-2,3.7089292E-2,-1.9239943E-2,3.784988E-2,9.326683E-3],"categories":[],"categories_nodes":[],"categories_segments":[],"categories_sizes":[],"default_left":[0,0,0,0,0,0,0,0,0,0,0,0,0,0,0,0,0,0,0,0,0,0,0,0,0,0,0,0,0,0,0,0,0,0,0,0,0,0,0,0,0,0,0,0,0,0,0,0,0,0,0,0,0,0,0,0,0,0,0,0,0,0,0,0,0,0,0,0,0,0,0,0,0,0,0,0,0,0,0,0,0,0,0],"id":6,"left_children":[1,3,5,7,9,11,13,15,17,19,21,-1,23,25,27,29,31,33,-1,35,-1,37,39,41,43,-1,45,-1,-1,47,49,-1,51,-1,-1,-1,53,55,-1,57,59,-1,-1,61,63,-1,65,-1,-1,-1,67,-1,-1,-1,-1,69,-1,71,73,75,77,79,-1,-1,81,-1,-1,-1,-1,-1,-1,-1,-1,-1,-1,-1,-1,-1,-1,-1,-1,-1,-1],"loss_changes":[5.1355743E2,6.4499536E2,1.4378876E2,1.8379312E2,2.1226367E2,3.224292E1,3.051112E1,8.843996E1,1.2324982E1,1.2504028E1,3.7190094E2,0E0,5.1543583E1,1.5669212E1,5.2526007E0,3.493482E1,4.624283E0,3.7502472E1,0E0,5.989517E1,0E0,2.9783676E1,7.337082E1,4.1588936E0,1.4949776E1,0E0,1.1584587E0,0E0,0E0,4.884363E0,4.6540184E0,0E0,1.7228897E1,0E0,0E0,0E0,4.5880117E0,6.3824387E1,0E0,1.3326807E2,1.0631195E1,0E0,0E0,2.4741364E0,2.1433542E1,0E0,2.610125E0,0E0,0E0,0E0,7.6280417E0,0E0,0E0,0E0,0E0,1.9830284E0,0E0,2.7266617E0,1.042374E1,1.230133E0,2.5111237E1,1.0395947E1,0E0,0E0,1.262805E0,0E0,0E0,0E0,0E0,0E0,0E0,0E0,0E0,0E0,0E0,0E0,0E0,0E0,0E0,0E0,0E0,0E0,0E0],"parents":[2147483647,0,0,1,1,2,2,3,3,4,4,5,5,6,6,7,7,8,8,9,9,10,10,12,12,13,13,14,14,15,15,16,16,17,17,19,19,21,21,22,22,23,23,24,24,26,26,29,29,30,30,32,32,36,36,37,37,39,39,40,40,43,43,44,44,46,46,50,50,55,55,57,57,58,58,59,59,60,60,61,61,64,64],"right_children":[2,4,6,8,10,12,14,16,18,20,22,-1,24,26,28,30,32,34,-1,36,-1,38,40,42,44,-1,46,-1,-1,48,50,-1,52,-1,-1,-1,54,56,-1,58,60,-1,-1,62,64,-1,66,-1,-1,-1,68,-1,-1,-1,-1,70,-1,72,74,76,78,80,-1,-1,82,-1,-1,-1,-1,-1,-1,-1,-1,-1,-1,-1,-1,-1,-1,-1,-1,-1,-1],"split_conditions":[1.9714771E-1,3.108703E-2,2.1229699E0,2.4400955E-2,6.0181245E-2,1.915977E-1,3.8491556E-1,1.2446604E-2,3.0362481E-2,4.215767E-2,7.864506E-2,4.377991E-2,2.6102906E-1,2.0686275E-1,3.5692433E-1,7.14798E-3,1.931461E-2,1.9998025E-2,4.367047E-2,4.1185897E-2,-4.5479573E-2,7.846867E-2,1.2107334E-1,2.4020721E-1,2.7934062E-1,2.3861682E-2,3.170861E-1,3.6937825E-2,-1.4103616E-3,4.4261394E-3,9.483898E-3,-4.4549827E-2,1.8254744E-2,4.1815758E-2,-3.318452E-2,-4.4197943E-2,3.762157E-2,6.1254967E-2,4.3122433E-2,1.10916175E-1,1.8288934E-1,-4.08365E-2,-6.685172E-3,3.0843383E-1,3.6359712E-1,-4.398979E-2,3.1697226E-1,3.8111538E-3,-3.9508395E-2,4.2227242E-2,1.2871423E-2,3.2993507E-2,-4.0080767E-2,3.907194E-2,3.1350653E-3,5.566479E-2,-4.0378902E-2,9.679056E-2,1.2423701E-1,1.431805E-1,1.5910126E-1,2.4732222E-1,4.3207258E-2,-3.4380674E-2,3.1697226E-1,-8.4158115E-4,-3.5319578E-2,-1.9584984E-2,3.4392375E-2,4.2844318E-2,1.0602439E-2,-4.5078233E-2,-2.240189E-2,4.4131414E-3,4.0030297E-2,-3.4125574E-2,-4.5514736E-2,3.6010135E-2,-3.9170016E-2,3.7089292E-2,-1.9239943E-2,3.784988E-2,9.326683E-3],"split_indices":[0,1,4,0,0,1,0,1,0,1,1,0,0,1,1,0,0,1,0,0,0,0,1,2,1,0,0,0,0,1,1,0,1,0,0,0,1,1,0,0,0,0,0,0,0,0,1,0,0,0,0,0,0,0,0,1,0,0,0,1,1,1,0,0,1,0,0,0,0,0,0,0,0,0,0,0,0,0,0,0,0,0,0],"split_type":[0,0,0,0,0,0,0,0,0,0,0,0,0,0,0,0,0,0,0,0,0,0,0,0,0,0,0,0,0,0,0,0,0,0,0,0,0,0,0,0,0,0,0,0,0,0,0,0,0,0,0,0,0,0,0,0,0,0,0,0,0,0,0,0,0,0,0,0,0,0,0,0,0,0,0,0,0,0,0,0,0,0,0],"sum_hessian":[1.0329596E3,7.6698096E2,2.6597867E2,2.2232648E2,5.446545E2,2.3288191E2,3.3096767E1,6.3542576E1,1.587839E2,2.5892126E2,2.8573322E2,1.6984135E2,6.3040558E1,2.4472862E1,8.623905E0,2.9964691E1,3.3577885E1,1.9370804E1,1.394131E2,4.5838375E1,2.1308289E2,8.8062965E1,1.9767023E2,1.041764E1,5.262292E1,2.216937E0,2.2255926E1,4.644217E0,3.9796877E0,6.965661E0,2.2999031E1,2.5409859E1,8.168024E0,1.3921581E1,5.449223E0,3.622533E1,9.613046E0,2.6598028E1,6.146494E1,6.5804306E1,1.3186592E2,6.197959E0,4.2196813E0,4.080039E1,1.1822533E1,1.7041986E1,5.21394E0,2.2479653E0,4.7176957E0,1.780214E1,5.1968913E0,2.2327158E0,5.9353085E0,5.659842E0,3.9532034E0,1.6954363E1,9.643664E0,3.5638313E1,3.0165993E1,1.20256935E2,1.160899E1,9.589968E0,3.121042E1,4.4632096E0,7.3593225E0,2.4810066E0,2.7329338E0,2.2436593E0,2.9532318E0,1.4716867E1,2.2374957E0,2.7925367E1,7.7129455E0,7.4508357E0,2.2715158E1,2.5427996E1,9.482894E1,3.4519856E0,8.157004E0,7.345978E0,2.2439897E0,5.1357555E0,2.2235672E0],"tree_param":{"num_deleted":"0","num_feature":"16","num_nodes":"83","size_leaf_vector":"1"}},{"base_weights":[-1.9190533E-2,-4.164144E-1,1.1515627E0,9.9795705E-1,-1.0083897E0,1.4332907E0,-6.914901E-1,-4.1080636E-1,1.5622998E0,-1.6220487E0,-4.394917E-1,1.6605545E0,8.049849E-1,-1.2228253E0,7.6349133E-1,7.823443E-1,-1.4868418E0,8.432792E-1,4.3047562E-2,-9.3974745E-1,-1.695446E0,1.1647425E0,-1.1763691E0,1.96248E-2,4.3118272E-2,-2.8014645E-1,1.540524E0,1.9820662E-2,-1.4830061E0,3.3766642E-2,-1.6188499E-3,-1.0169475E0,1.3210205E0,-4.3629657E-2,-8.136622E-1,4.0269755E-2,-3.8765676E-2,-4.195978E-2,3.840368E-2,-4.4353615E-2,-1.1869187E0,3.4837547E-1,1.6001421E0,-3.016493E-1,-1.5556123E0,3.6875218E-1,-1.2957666E0,4.204585E-2,2.1506152E-3,-4.319598E-2,-6.7429394E-1,3.7431812E-3,-3.8704347E-2,4.1445363E-2,4.599903E-1,2.6785027E-2,-3.9976183E-2,1.329929E-2,-4.1152097E-2,4.145079E-2,-1.3753083E0,4.3013286E-2,6.7555654E-1,-1.4604125E0,1.3586434E0,-1.6398215E0,-5.9686065E-1,-3.960628E-2,3.677664E-2,-3.8427617E-2,-1.0392391E-2,2.6254528E-3,-3.3871848E-2,-3.4184076E-2,3.7243918E-2,-1.2496786E-2,-4.2298187E-2,3.233256E-2,-3.8930727E-3,-4.144624E-2,-7.5537916E-3,4.163256E-2,1.5096066E-2,-3.2651264E-2,-4.4632893E-2,3.1558037E-2,-4.0477127E-2],"categories":[],"categories_nodes":[],"categories_segments":[],"categories_sizes":[],"default_left":[0,0,0,0,0,0,0,0,0,0,0,0,0,0,0,0,0,0,0,0,0,0,0,0,0,0,0,0,0,0,0,0,0,0,0,0,0,0,0,0,0,0,0,0,0,0,0,0,0,0,0,0,0,0,0,0,0,0,0,0,0,0,0,0,0,0,0,0,0,0,0,0,0,0,0,0,0,0,0,0,0,0,0,0,0,0,0],"id":7,"left_children":[1,3,5,7,9,11,13,15,17,19,21,23,25,27,29,31,33,35,-1,37,39,41,43,-1,-1,45,47,-1,49,-1,-1,51,53,-1,55,-1,-1,-1,-1,-1,57,59,61,63,65,67,69,-1,-1,-1,71,-1,-1,-1,73,-1,-1,-1,-1,-1,75,-1,77,79,81,83,85,-1,-1,-1,-1,-1,-1,-1,-1,-1,-1,-1,-1,-1,-1,-1,-1,-1,-1,-1,-1],"loss_changes":[4.816071E2,6.483948E2,1.3721802E2,1.8241603E2,1.8975122E2,3.1204987E1,2.8347961E1,8.613846E1,1.1152039E1,1.1531738E1,3.3766376E2,4.276123E-1,5.0297966E1,1.4797146E1,4.6377172E0,3.2398285E1,3.47126E0,4.1394127E1,0E0,4.865793E1,8.7506104E-1,3.1448639E1,6.4363556E1,0E0,0E0,1.7669668E1,4.7567215E0,0E0,2.5419846E0,0E0,0E0,4.6860476E0,5.4405785E0,0E0,1.5424491E1,0E0,0E0,0E0,0E0,0E0,1.055839E1,7.294602E1,2.531479E0,1.1808665E2,1.0008545E1,3.580656E1,1.2017803E0,0E0,0E0,0E0,3.2142038E0,0E0,0E0,0E0,1.5370714E1,0E0,0E0,0E0,0E0,0E0,2.5777512E0,0E0,2.8976998E0,5.6977386E0,4.06155E0,2.0360107E0,2.4161037E1,0E0,0E0,0E0,0E0,0E0,0E0,0E0,0E0,0E0,0E0,0E0,0E0,0E0,0E0,0E0,0E0,0E0,0E0,0E0,0E0],"parents":[2147483647,0,0,1,1,2,2,3,3,4,4,5,5,6,6,7,7,8,8,9,9,10,10,11,11,12,12,13,13,14,14,15,15,16,16,17,17,19,19,20,20,21,21,22,22,25,25,26,26,28,28,31,31,32,32,34,34,40,40,41,41,42,42,43,43,44,44,45,45,46,46,50,50,54,54,60,60,62,62,63,63,64,64,65,65,66,66],"right_children":[2,4,6,8,10,12,14,16,18,20,22,24,26,28,30,32,34,36,-1,38,40,42,44,-1,-1,46,48,-1,50,-1,-1,52,54,-1,56,-1,-1,-1,-1,-1,58,60,62,64,66,68,70,-1,-1,-1,72,-1,-1,-1,74,-1,-1,-1,-1,-1,76,-1,78,80,82,84,86,-1,-1,-1,-1,-1,-1,-1,-1,-1,-1,-1,-1,-1,-1,-1,-1,-1,-1,-1,-1],"split_conditions":[1.9714771E-1,3.180014E-2,2.1383114E0,2.4919031E-2,6.0181245E-2,1.915977E-1,3.8491556E-1,1.320136E-2,3.1174116E-2,3.762157E-2,8.216042E-2,2.0017539E-1,3.4225845E-1,2.0686275E-1,3.7288192E-1,7.14798E-3,1.931461E-2,2.4191052E-2,4.3047562E-2,4.1185897E-2,5.717994E-2,8.135845E-2,1.2107334E-1,1.96248E-2,4.3118272E-2,2.4456699E-1,3.2526466E-1,1.9820662E-2,3.170861E-1,3.3766642E-2,-1.6188499E-3,4.4261394E-3,9.483898E-3,-4.3629657E-2,1.9998025E-2,4.0269755E-2,-3.8765676E-2,-4.195978E-2,3.840368E-2,-4.4353615E-2,5.2516922E-2,6.009836E-2,7.864506E-2,1.18805595E-1,1.8288934E-1,2.4186847E-1,1.0518934E0,4.204585E-2,2.1506152E-3,-4.319598E-2,3.1697226E-1,3.7431812E-3,-3.8704347E-2,4.1445363E-2,1.1895773E-2,2.6785027E-2,-3.9976183E-2,1.329929E-2,-4.1152097E-2,4.145079E-2,6.747191E-2,4.3013286E-2,8.8E-1,1.10916175E-1,1.1018872E-1,1.431805E-1,1.6200508E-1,-3.960628E-2,3.677664E-2,-3.8427617E-2,-1.0392391E-2,2.6254528E-3,-3.3871848E-2,-3.4184076E-2,3.7243918E-2,-1.2496786E-2,-4.2298187E-2,3.233256E-2,-3.8930727E-3,-4.144624E-2,-7.5537916E-3,4.163256E-2,1.5096066E-2,-3.2651264E-2,-4.4632893E-2,3.1558037E-2,-4.0477127E-2],"split_indices":[0,1,4,0,0,1,0,1,0,1,1,0,0,1,5,0,0,1,0,0,2,0,1,0,0,1,1,0,0,0,0,1,1,0,1,0,0,0,0,0,1,1,1,0,0,0,9,0,0,0,1,0,0,0,0,0,0,0,0,0,1,0,7,0,1,1,1,0,0,0,0,0,0,0,0,0,0,0,0,0,0,0,0,0,0,0,0],"split_type":[0,0,0,0,0,0,0,0,0,0,0,0,0,0,0,0,0,0,0,0,0,0,0,0,0,0,0,0,0,0,0,0,0,0,0,0,0,0,0,0,0,0,0,0,0,0,0,0,0,0,0,0,0,0,0,0,0,0,0,0,0,0,0,0,0,0,0,0,0,0,0,0,0,0,0,0,0,0,0,0,0,0,0,0,0,0,0],"sum_hessian":[1.0335692E3,7.7221075E2,2.6135843E2,2.2763947E2,5.445713E2,2.2689735E2,3.4461075E1,6.518667E1,1.6245279E2,2.6108878E2,2.834825E2,1.654204E2,6.1476967E1,2.5359695E1,9.101382E0,3.1040583E1,3.4146084E1,2.2171314E1,1.4028148E2,2.6698944E1,2.3438983E2,8.9044876E1,1.9443764E2,2.9095914E0,1.625108E2,2.5086418E1,3.639055E1,2.7046866E0,2.2655008E1,5.12881E0,3.972572E0,6.9472947E0,2.4093288E1,2.5018225E1,9.127861E0,1.7231672E1,4.9396424E0,2.1067928E1,5.631016E0,2.2140079E2,1.2989046E1,3.159845E1,5.7446426E1,5.934789E1,1.3508975E2,1.5695312E1,9.391107E0,3.416607E1,2.2244794E0,1.7444214E1,5.2107935E0,2.247919E0,4.6993756E0,1.7435167E1,6.6581206E0,2.4799263E0,6.6479344E0,2.4640005E0,1.0525045E1,1.8300438E1,1.3298011E1,5.2778267E1,4.6681595E0,3.5024048E1,2.4323841E1,1.23529526E2,1.1560227E1,5.441239E0,1.0254072E1,7.163489E0,2.227618E0,2.732813E0,2.4779806E0,2.2426145E0,4.4155064E0,3.6958222E0,9.602188E0,2.442677E0,2.2254825E0,3.0780859E1,4.2431893E0,1.7462908E1,6.8609333E0,2.706791E1,9.646162E1,3.9356472E0,7.62458E0],"tree_param":{"num_deleted":"0","num_feature":"16","num_nodes":"87","size_leaf_vector":"1"}},{"base_weights":[8.067576E-3,-3.2108065E-1,1.2507261E0,9.932583E-1,-8.276944E-1,1.5836016E0,-4.304638E-2,-3.6039695E-1,1.5450844E0,-1.5218328E0,-2.3773782E-1,1.6020929E0,9.907672E-3,-1.0932617E0,1.101069E0,8.010748E-1,-1.337189E0,8.335798E-1,1.6291627E0,-1.0791211E0,-1.6206664E0,7.982913E-1,-1.0977755E0,1.2162629E0,4.2161413E-2,-1.2776682E0,-2.6653546E-1,1.3443085E0,-1.8973835E-2,-1.0228095E0,1.3904365E0,-7.432404E-3,-1.4279593E0,1.4534539E0,-3.5878528E-2,4.2314142E-2,1.905611E-2,-4.176538E-2,8.708142E-1,-1.6565933E0,-1.3244123E0,1.5216507E0,2.0488006E-1,-1.4945326E0,-3.7555334E-1,3.9941143E-2,-1.3956231E-2,-3.995348E-2,-6.1675035E-3,-2.0330705E-2,9.7712595E-3,4.0456742E-2,5.0991386E-1,3.516665E-3,-3.831724E-2,4.0781286E-2,5.8246607E-1,-1.56184E0,-9.1481906E-1,4.0019255E-2,1.52027495E-2,3.780907E-2,1.2332199E-1,-4.293561E-2,-2.0191332E-2,-3.3944629E-3,-3.716917E-2,4.1309666E-2,8.7746465E-1,-1.1221882E0,1.3080041E0,-6.9236267E-1,-1.5598031E0,8.3767664E-1,-1.4400905E0,-7.83013E-3,3.1802777E-2,-7.4115284E-3,3.2197755E-2,-4.1703038E-2,-1.7375667E-2,8.836184E-3,-3.8189523E-2,-2.349961E-2,3.2794446E-2,-1.7416187E-2,3.7233844E-2,-3.796106E-2,-1.0643732E-2,1.1405822E-2,4.071062E-2,-3.192864E-2,2.3430234E-2,-4.1403044E-2,-2.509323E-2,9.723477E-4,3.4075897E-2,-1.0769848E-2,-3.927269E-2],"categories":[],"categories_nodes":[],"categories_segments":[],"categories_sizes":[],"default_left":[0,0,0,0,0,0,0,0,0,0,0,0,0,0,0,0,0,0,0,0,0,0,0,0,0,0,0,0,0,0,0,0,0,0,0,0,0,0,0,0,0,0,0,0,0,0,0,0,0,0,0,0,0,0,0,0,0,0,0,0,0,0,0,0,0,0,0,0,0,0,0,0,0,0,0,0,0,0,0,0,0,0,0,0,0,0,0,0,0,0,0,0,0,0,0,0,0,0,0],"id":8,"left_children":[1,3,5,7,9,11,13,15,17,19,21,23,-1,25,27,29,31,33,35,37,39,41,43,45,-1,47,49,51,-1,53,55,-1,57,59,-1,-1,-1,-1,61,63,65,67,69,71,73,-1,-1,-1,-1,-1,-1,-1,75,-1,-1,-1,77,79,81,-1,-1,-1,83,-1,-1,-1,-1,-1,85,87,89,91,93,95,97,-1,-1,-1,-1,-1,-1,-1,-1,-1,-1,-1,-1,-1,-1,-1,-1,-1,-1,-1,-1,-1,-1,-1,-1],"loss_changes":[4.2241547E2,5.4450275E2,9.320596E1,1.7058318E2,2.4120432E2,3.2000732E0,5.5550377E1,7.677607E1,8.326538E0,1.0101196E1,2.860566E2,1.4608765E-1,0E0,3.331215E0,1.0883066E1,3.4861107E1,3.0754166E0,2.8440178E1,2.6760864E-1,5.6640205E1,1.4129639E-1,6.2253357E1,4.96716E1,1.0842627E1,0E0,5.1080494E0,2.2034523E0,2.9278793E0,0E0,4.588628E0,2.769825E0,0E0,8.692932E-1,3.9907455E-1,0E0,0E0,0E0,0E0,5.169136E0,7.537842E-2,3.8118248E0,1.9770355E0,1.2037474E2,4.8266144E0,8.320984E1,0E0,0E0,0E0,0E0,0E0,0E0,0E0,3.728811E0,0E0,0E0,0E0,3.925419E0,1.4163971E-1,7.151355E0,0E0,0E0,0E0,8.787708E0,0E0,0E0,0E0,0E0,0E0,9.293906E0,8.674992E0,9.799088E0,1.0110577E1,1.2080078E0,1.1675137E1,2.255127E0,0E0,0E0,0E0,0E0,0E0,0E0,0E0,0E0,0E0,0E0,0E0,0E0,0E0,0E0,0E0,0E0,0E0,0E0,0E0,0E0,0E0,0E0,0E0,0E0],"parents":[2147483647,0,0,1,1,2,2,3,3,4,4,5,5,6,6,7,7,8,8,9,9,10,10,11,11,13,13,14,14,15,15,16,16,17,17,18,18,19,19,20,20,21,21,22,22,23,23,25,25,26,26,27,27,29,29,30,30,32,32,33,33,38,38,39,39,40,40,41,41,42,42,43,43,44,44,52,52,56,56,57,57,58,58,62,62,68,68,69,69,70,70,71,71,72,72,73,73,74,74],"right_children":[2,4,6,8,10,12,14,16,18,20,22,24,-1,26,28,30,32,34,36,38,40,42,44,46,-1,48,50,52,-1,54,56,-1,58,60,-1,-1,-1,-1,62,64,66,68,70,72,74,-1,-1,-1,-1,-1,-1,-1,76,-1,-1,-1,78,80,82,-1,-1,-1,84,-1,-1,-1,-1,-1,86,88,90,92,94,96,98,-1,-1,-1,-1,-1,-1,-1,-1,-1,-1,-1,-1,-1,-1,-1,-1,-1,-1,-1,-1,-1,-1,-1,-1],"split_conditions":[2.2012495E-1,3.180014E-2,2.505687E-1,2.4801932E-2,6.0150903E-2,2.1383114E0,3.458702E-1,1.320136E-2,3.0265866E-2,4.4161562E-2,1.1238413E-1,2.4294776E-1,9.907672E-3,2.1420072E-1,4.5187503E-1,7.12955E-3,8E-1,2.3710122E-2,3.108703E-2,4.070779E-2,9.794438E-1,6.747191E-2,1.543958E-1,1.915977E-1,4.2161413E-2,3.234244E-1,2.152E3,3.2526466E-1,-1.8973835E-2,4.146075E-3,9.483898E-3,-7.432404E-3,1.931461E-2,3.3063924E-1,-3.5878528E-2,4.2314142E-2,1.905611E-2,-4.176538E-2,3.762157E-2,3.279E3,3.1914238E-2,6.230503E-2,9.5323145E-2,1.1879795E-1,1.8355022E-1,3.9941143E-2,-1.3956231E-2,-3.995348E-2,-6.1675035E-3,-2.0330705E-2,9.7712595E-3,4.0456742E-2,4.523395E-1,3.516665E-3,-3.831724E-2,4.0781286E-2,1.4418261E-2,3.022423E-1,2.0850267E-2,4.0019255E-2,1.52027495E-2,3.780907E-2,4.8738018E-2,-4.293561E-2,-2.0191332E-2,-3.3944629E-3,-3.716917E-2,4.1309666E-2,7.7254325E-2,8.16144E-2,1.14907056E-1,1.2635803E-1,2.1299639E0,1.7847417E-1,2.2E-1,-7.83013E-3,3.1802777E-2,-7.4115284E-3,3.2197755E-2,-4.1703038E-2,-1.7375667E-2,8.836184E-3,-3.8189523E-2,-2.349961E-2,3.2794446E-2,-1.7416187E-2,3.7233844E-2,-3.796106E-2,-1.0643732E-2,1.1405822E-2,4.071062E-2,-3.192864E-2,2.3430234E-2,-4.1403044E-2,-2.509323E-2,9.723477E-4,3.4075897E-2,-1.0769848E-2,-3.927269E-2],"split_indices":[2,1,1,2,2,4,2,1,2,1,1,2,0,10,1,2,8,1,1,2,3,1,2,1,0,2,12,1,0,1,1,0,2,4,0,0,0,0,1,12,2,1,2,1,1,0,0,0,0,0,0,0,2,0,0,0,2,5,1,0,0,0,2,0,0,0,0,0,2,2,2,2,3,2,7,0,0,0,0,0,0,0,0,0,0,0,0,0,0,0,0,0,0,0,0,0,0,0,0],"split_type":[0,0,0,0,0,0,0,0,0,0,0,0,0,0,0,0,0,0,0,0,0,0,0,0,0,0,0,0,0,0,0,0,0,0,0,0,0,0,0,0,0,0,0,0,0,0,0,0,0,0,0,0,0,0,0,0,0,0,0,0,0,0,0,0,0,0,0,0,0,0,0,0,0,0,0,0,0,0,0,0,0,0,0,0,0,0,0,0,0,0,0,0,0,0,0,0,0,0,0],"sum_hessian":[1.0307712E3,8.155062E2,2.1526497E2,2.2661765E2,5.8888855E2,1.710352E2,4.4229763E1,6.572877E1,1.6088887E2,2.698296E2,3.19059E2,1.6810783E2,2.9273753E0,2.3084398E1,2.1145365E1,3.0108099E1,3.562067E1,1.8156414E1,1.4273245E2,5.141988E1,2.184097E2,1.4475465E2,1.7430434E2,1.6123505E1,1.5198433E2,1.842838E1,4.656019E0,1.8909367E1,2.2359998E0,7.1733727E0,2.2934725E1,3.169295E0,3.2451374E1,1.44711075E1,3.6853065E0,1.4006975E2,2.6627073E0,4.0395676E1,1.1024202E1,1.9069252E2,2.7717178E1,6.45297E1,8.022495E1,1.1181096E2,6.2493385E1,1.3658466E1,2.4650385E0,1.4219032E1,4.2093472E0,2.452155E0,2.203864E0,1.42082E1,4.701165E0,2.2485676E0,4.924805E0,1.7778128E1,5.1565986E0,2.4115768E1,8.335607E0,1.22781925E1,2.1929154E0,5.6020145E0,5.422188E0,1.880153E2,2.6772158E0,2.6621401E0,2.5055038E1,5.606884E1,8.460859E0,3.6408237E1,4.381672E1,9.286623E0,1.0252433E2,2.9306503E1,3.3186882E1,2.4855359E0,2.2156293E0,2.4826121E0,2.6739864E0,2.1931973E1,2.1837957E0,2.7098114E0,5.6257954E0,2.9610052E0,2.4611826E0,2.209546E0,6.2513127E0,2.3666655E1,1.2741582E1,1.1059951E1,3.2756767E1,7.094916E0,2.1917074E0,9.352156E1,9.002774E0,1.1447884E1,1.7858622E1,2.9361804E0,3.02507E1],"tree_param":{"num_deleted":"0","num_feature":"16","num_nodes":"99","size_leaf_vector":"1"}},{"base_weights":[-4.387799E-3,-3.999003E-1,1.1221611E0,6.730079E-1,-9.852538E-1,1.3889157E0,-6.6094255E-1,-3.541525E-1,1.2111171E0,-1.457535E0,-3.8035598E-1,1.5022856E0,6.948224E-1,-1.2165933E0,9.0174323E-1,6.945467E-1,-7.131496E-1,8.5043746E-1,4.0120196E-2,-7.299705E-1,-1.5429094E0,6.7919457E-1,-1.2232686E0,1.1979192E0,1.5870763E0,4.9038325E-2,3.8374826E-2,-1.4238999E0,-4.9397278E-1,3.3305086E-2,3.840502E-3,-2.5925856E-2,9.1383094E-1,-1.2608461E0,-1.1673031E-1,1.3262823E0,1.2927178E-1,-3.7331842E-2,4.2174405E-1,-1.258238E0,-1.6194998E0,1.3844019E0,3.2533908E-1,-8.8923943E-1,-1.5928918E0,3.7876908E-2,4.000485E-1,1.5980071E0,1.4625846E-2,-4.3399164E-1,6.5745884E-1,-1.6588425E-2,-3.9202742E-2,8.44893E-3,-2.677277E-2,3.12588E-2,4.6661747E-1,-1.3445126E0,-3.8057005E-3,2.4155512E-1,-7.3275304E-1,3.8967557E-2,9.7502404E-1,-3.73605E-2,8.2971126E-1,-1.1274965E-2,8.9374346E-1,-4.1686155E-2,-6.973132E-1,-4.227787E-2,-8.1823343E-1,9.1041034E-1,3.8180232E-2,-1.5934259E-1,1.164238E0,-1.427559E0,-4.388537E-1,-4.211071E-2,-1.8161364E-2,3.0034214E-2,-6.1562825E-2,4.1485354E-2,2.0208552E-2,8.696474E-3,-6.445185E-1,-1.0973206E-3,9.17512E-1,2.315763E-2,-5.269753E-3,-2.217708E-2,-3.8665738E-2,1.0642608E-2,-2.3733372E-2,-2.3963066E-2,4.017948E-3,2.854803E-2,8.830101E-3,1.5171684E-2,-6.9378084E-3,3.068419E-2,8.77095E-3,7.903423E-3,2.8569419E-2,8.315173E-3,-2.169205E-2,-2.79874E-2,-6.58528E-3,8.0649145E-3,2.7873574E-2,7.1358643E-3,-2.0410514E-2,2.4414582E-3,3.2639563E-2,-3.8465295E-2,-1.8727522E-2,1.1863168E-2,-1.579278E-2,-1.3390094E-2,1.4454922E-2,2.1135383E-3,-2.4228642E-2,7.7480907E-3,3.211644E-2],"categories":[],"categories_nodes":[],"categories_segments":[],"categories_sizes":[],"default_left":[0,0,0,0,0,0,0,0,0,0,0,0,0,0,0,0,0,0,0,0,0,0,0,0,0,0,0,0,0,0,0,0,0,0,0,0,0,0,0,0,0,0,0,0,0,0,0,0,0,0,0,0,0,0,0,0,0,0,0,0,0,0,0,0,0,0,0,0,0,0,0,0,0,0,0,0,0,0,0,0,0,0,0,0,0,0,0,0,0,0,0,0,0,0,0,0,0,0,0,0,0,0,0,0,0,0,0,0,0,0,0,0,0,0,0,0,0,0,0,0,0,0,0],"id":9,"left_children":[1,3,5,7,9,11,13,15,17,19,21,23,25,27,29,31,33,35,-1,37,39,41,43,45,47,49,-1,51,53,-1,-1,-1,55,57,59,61,63,-1,65,67,69,71,73,75,77,-1,79,81,-1,83,85,-1,-1,-1,-1,-1,87,89,-1,91,93,-1,95,97,99,-1,101,-1,103,-1,105,107,-1,109,111,113,115,-1,-1,-1,117,-1,-1,-1,119,-1,121,-1,-1,-1,-1,-1,-1,-1,-1,-1,-1,-1,-1,-1,-1,-1,-1,-1,-1,-1,-1,-1,-1,-1,-1,-1,-1,-1,-1,-1,-1,-1,-1,-1,-1,-1,-1],"loss_changes":[4.5443137E2,4.7474353E2,1.2697766E2,1.4803778E2,1.3909021E2,1.7122345E1,3.163211E1,3.5350845E1,2.0483032E1,1.5902283E1,1.9344661E2,3.1979675E0,1.7482384E1,3.246605E0,2.682076E0,9.908287E0,2.2544106E1,3.0004646E1,0E0,2.5972363E1,3.2921143E0,2.3555008E1,1.34574585E1,9.593613E0,7.8234863E-1,6.141322E0,0E0,5.20916E-1,3.6524363E0,0E0,0E0,0E0,2.3533344E0,3.1650085E0,7.759678E0,1.9565506E0,4.240316E0,0E0,5.4806356E0,1.018483E1,1.6628113E0,1.0129547E-1,2.676222E1,1.526527E1,8.355713E-1,0E0,4.77085E0,2.6672363E-2,0E0,2.1185472E0,1.7167265E0,0E0,0E0,0E0,0E0,0E0,3.187873E0,1.2201424E0,0E0,4.8475776E0,2.3928962E0,0E0,1.3768482E0,4.5193534E0,8.2483435E-1,0E0,7.202749E-1,0E0,3.746562E0,0E0,7.0914173E-1,4.7269773E-1,0E0,1.1879244E1,2.488102E0,2.3591232E-1,6.072727E0,0E0,0E0,0E0,2.9248672E0,0E0,0E0,0E0,2.1216235E0,0E0,9.940934E-1,0E0,0E0,0E0,0E0,0E0,0E0,0E0,0E0,0E0,0E0,0E0,0E0,0E0,0E0,0E0,0E0,0E0,0E0,0E0,0E0,0E0,0E0,0E0,0E0,0E0,0E0,0E0,0E0,0E0,0E0,0E0,0E0,0E0,0E0,0E0,0E0],"parents":[2147483647,0,0,1,1,2,2,3,3,4,4,5,5,6,6,7,7,8,8,9,9,10,10,11,11,12,12,13,13,14,14,15,15,16,16,17,17,19,19,20,20,21,21,22,22,23,23,24,24,25,25,27,27,28,28,32,32,33,33,34,34,35,35,36,36,38,38,39,39,40,40,41,41,42,42,43,43,44,44,46,46,47,47,49,49,50,50,56,56,57,57,59,59,60,60,62,62,63,63,64,64,66,66,68,68,70,70,71,71,73,73,74,74,75,75,76,76,80,80,84,84,86,86],"right_children":[2,4,6,8,10,12,14,16,18,20,22,24,26,28,30,32,34,36,-1,38,40,42,44,46,48,50,-1,52,54,-1,-1,-1,56,58,60,62,64,-1,66,68,70,72,74,76,78,-1,80,82,-1,84,86,-1,-1,-1,-1,-1,88,90,-1,92,94,-1,96,98,100,-1,102,-1,104,-1,106,108,-1,110,112,114,116,-1,-1,-1,118,-1,-1,-1,120,-1,122,-1,-1,-1,-1,-1,-1,-1,-1,-1,-1,-1,-1,-1,-1,-1,-1,-1,-1,-1,-1,-1,-1,-1,-1,-1,-1,-1,-1,-1,-1,-1,-1,-1,-1,-1,-1],"split_conditions":[1.9714771E-1,4.377432E-1,2.1383114E0,3.0362481E-2,7.675025E-2,1.7086401E0,3.8491556E-1,1.4457831E-1,5.6346204E-2,5.1843315E-1,1.116917E0,2.6498723E-1,3.6916223E-1,3.0843383E-1,3.7288192E-1,2.8880246E-3,1.8819995E-2,2.4242425E-1,4.0120196E-2,4.1885205E-2,6.7239445E-1,6.877729E-1,1.677763E0,1.3665943E0,4.034367E-1,1.389425E-1,3.8374826E-2,2.2165883E0,2.9609972E-1,3.3305086E-2,3.840502E-3,-2.5925856E-2,1.02389075E-1,4.636785E-2,3.0405405E-1,1.7769003E-1,1.82E0,-3.7331842E-2,9.5E-1,3.4625065E-2,4.347826E-1,1.2021371E-1,1.3920961E-1,1.18805595E-1,1.8864581E-1,3.7876908E-2,1.5123639E-1,4.732517E-1,1.4625846E-2,1.5060647E-1,3.2E-1,-1.6588425E-2,-3.9202742E-2,8.44893E-3,-2.677277E-2,3.12588E-2,2.55E3,2.1603456E-1,-3.8057005E-3,2.881E3,2.725E3,3.8967557E-2,2.7E3,9.3E-1,3.0405405E-1,-1.1274965E-2,2.084E3,-4.1686155E-2,1.3165489E-1,-4.227787E-2,1.8E0,8.2348454E-1,3.8180232E-2,9.486569E-1,5.3731346E-1,1.1296941E-1,1.11847855E-1,-4.211071E-2,-1.8161364E-2,3.0034214E-2,5.3E-1,4.1485354E-2,2.0208552E-2,8.696474E-3,4.3923867E-1,-1.0973206E-3,1E0,2.315763E-2,-5.269753E-3,-2.217708E-2,-3.8665738E-2,1.0642608E-2,-2.3733372E-2,-2.3963066E-2,4.017948E-3,2.854803E-2,8.830101E-3,1.5171684E-2,-6.9378084E-3,3.068419E-2,8.77095E-3,7.903423E-3,2.8569419E-2,8.315173E-3,-2.169205E-2,-2.79874E-2,-6.58528E-3,8.0649145E-3,2.7873574E-2,7.1358643E-3,-2.0410514E-2,2.4414582E-3,3.2639563E-2,-3.8465295E-2,-1.8727522E-2,1.1863168E-2,-1.579278E-2,-1.3390094E-2,1.4454922E-2,2.1135383E-3,-2.4228642E-2,7.7480907E-3,3.211644E-2],"split_indices":[0,4,4,0,0,4,0,4,0,4,4,0,0,0,5,0,2,4,0,0,4,4,4,4,10,10,0,4,5,0,0,0,4,11,4,4,7,0,7,0,10,10,0,0,0,0,5,5,0,5,7,0,0,0,0,0,12,4,0,12,12,0,12,7,4,0,12,0,5,0,6,3,0,4,9,2,2,0,0,0,7,0,0,0,9,0,13,0,0,0,0,0,0,0,0,0,0,0,0,0,0,0,0,0,0,0,0,0,0,0,0,0,0,0,0,0,0,0,0,0,0,0,0],"split_type":[0,0,0,0,0,0,0,0,0,0,0,0,0,0,0,0,0,0,0,0,0,0,0,0,0,0,0,0,0,0,0,0,0,0,0,0,0,0,0,0,0,0,0,0,0,0,0,0,0,0,0,0,0,0,0,0,0,0,0,0,0,0,0,0,0,0,0,0,0,0,0,0,0,0,0,0,0,0,0,0,0,0,0,0,0,0,0,0,0,0,0,0,0,0,0,0,0,0,0,0,0,0,0,0,0,0,0,0,0,0,0,0,0,0,0,0,0,0,0,0,0,0,0],"sum_hessian":[1.017894E3,7.538684E2,2.6402557E2,2.6605685E2,4.8781155E2,2.2985939E2,3.4166176E1,9.1582695E1,1.7447415E2,2.7314264E2,2.1466891E2,1.9658563E2,3.327376E1,2.536759E1,8.798587E0,2.3117468E1,6.846523E1,8.693519E1,8.753896E1,2.9688263E1,2.4345438E2,9.51981E1,1.19470825E2,4.612881E1,1.5045682E2,1.8926105E1,1.4347655E1,1.8958324E1,6.4092646E0,5.3263125E0,3.4722743E0,2.23193E0,2.0885538E1,3.5109695E1,3.3355534E1,5.187052E1,3.5064667E1,1.8133453E1,1.155481E1,5.5309166E1,1.8814522E2,3.0834639E1,6.436346E1,6.454614E1,5.4924683E1,3.381352E1,1.2315293E1,1.4830075E2,2.156062E0,1.0710023E1,8.216083E0,2.9227774E0,1.6035547E1,2.712175E0,3.69709E0,1.1503862E1,9.381676E0,3.2462345E1,2.6473477E0,2.147394E1,1.1881596E1,3.1832314E1,2.0038206E1,2.9090736E1,5.9739304E0,4.123942E0,7.4308677E0,3.2607937E1,2.2701227E1,1.8258244E2,5.562778E0,6.9604454E0,2.3874195E1,4.1307636E1,2.3055817E1,2.8414415E1,3.6131725E1,5.1760544E1,3.1641395E0,4.063095E0,8.252198E0,1.4543532E2,2.8654265E0,2.167686E0,8.542336E0,2.452057E0,5.7640257E0,5.504701E0,3.8769743E0,9.444318E0,2.3018028E1,1.9279305E1,2.194635E0,9.693201E0,2.1883936E0,1.5960263E1,4.0779433E0,7.444721E0,2.1646015E1,2.618365E0,3.3555653E0,2.6343307E0,4.796537E0,2.6520164E0,2.0049212E1,3.1437716E0,2.4190063E0,2.1730366E0,4.787409E0,2.47773E1,1.6530338E1,2.1631944E0,2.0892622E1,2.5008514E1,3.4059017E0,5.5790606E0,3.0552666E1,4.849679E0,3.4025195E0,2.6752257E0,5.867111E0,2.6645546E0,3.099471E0],"tree_param":{"num_deleted":"0","num_feature":"16","num_nodes":"123","size_leaf_vector":"1"}},{"base_weights":[-7.84881E-3,-3.9908567E-1,1.1168071E0,9.6897537E-1,-9.4883925E-1,1.4842826E0,-1.2247374E-1,-3.8257286E-1,1.5041287E0,-1.5304995E0,-4.1584077E-1,9.8246455E-1,4.1159097E-2,-1.492281E0,1.005006E0,9.8788327E-1,-1.2355303E0,8.775408E-1,4.1282006E-2,-1.0341959E0,-4.2378496E-2,1.1805149E0,-1.0861791E0,4.0465955E-2,-8.631241E-1,-7.47106E-1,-4.1292515E-2,1.4125602E0,-8.7715566E-2,-8.757077E-1,3.8909003E-2,-4.8624977E-1,-4.0871195E-2,1.4625381E0,-3.637559E-2,-4.0941738E-2,1.0771528E0,1.9846773E-1,1.5504192E0,-2.7671787E-1,-1.4726515E0,-3.190254E-2,-7.046385E-3,-3.0258361E-2,-2.4214238E-3,6.0709065E-1,4.019207E-2,-3.1538364E-2,3.1884227E-2,-4.07976E-3,-3.2745253E-2,-3.5532076E-2,3.582407E-2,3.986471E-2,1.4718304E-2,1.9348402E-3,3.5980325E-2,4.0126428E-2,-1.2963384E0,8.8785243E-1,4.097852E-2,-1.5388478E0,1.1938964E0,-1.5604084E0,-4.8983142E-1,2.3403186E-2,3.1629144E-3,-1.0569034E-2,-3.9028447E-2,3.0893413E-2,7.100242E-3,-4.2561818E-2,-2.1666314E-2,1.2777293E-2,4.0587205E-2,-3.0877227E-2,-4.2567085E-2,3.5164665E-2,-3.655645E-2],"categories":[],"categories_nodes":[],"categories_segments":[],"categories_sizes":[],"default_left":[0,0,0,0,0,0,0,0,0,0,0,0,0,0,0,0,0,0,0,0,0,0,0,0,0,0,0,0,0,0,0,0,0,0,0,0,0,0,0,0,0,0,0,0,0,0,0,0,0,0,0,0,0,0,0,0,0,0,0,0,0,0,0,0,0,0,0,0,0,0,0,0,0,0,0,0,0,0,0],"id":10,"left_children":[1,3,5,7,9,11,13,15,17,19,21,23,-1,25,27,29,31,33,-1,35,-1,37,39,-1,41,43,-1,45,47,49,-1,51,-1,53,-1,-1,55,57,59,61,63,-1,-1,-1,-1,65,-1,-1,-1,-1,-1,-1,-1,-1,-1,-1,-1,-1,67,69,-1,71,73,75,77,-1,-1,-1,-1,-1,-1,-1,-1,-1,-1,-1,-1,-1,-1],"loss_changes":[4.439178E2,5.6385583E2,1.1876294E2,1.5612088E2,1.6505142E2,9.689545E0,9.490025E1,7.345665E1,7.9302063E0,1.2576721E1,3.0118436E2,4.3759804E1,0E0,1.0507736E0,1.5162964E1,2.4869623E1,9.313145E0,3.2599617E1,0E0,6.003939E1,0E0,2.9974144E1,6.150116E1,0E0,1.887929E0,1.3946409E0,0E0,1.9509354E0,1.6715038E1,1.4761314E0,0E0,2.4807423E1,0E0,5.0265884E-1,0E0,0E0,3.3889627E0,5.0623806E1,1.3096619E-1,1.2282294E2,1.0768372E1,0E0,0E0,0E0,0E0,6.772038E-1,0E0,0E0,0E0,0E0,0E0,0E0,0E0,0E0,0E0,0E0,0E0,0E0,1.6778259E0,7.309246E-1,0E0,1.3800583E0,7.3572197E0,2.0265503E0,2.3282654E1,0E0,0E0,0E0,0E0,0E0,0E0,0E0,0E0,0E0,0E0,0E0,0E0,0E0,0E0],"parents":[2147483647,0,0,1,1,2,2,3,3,4,4,5,5,6,6,7,7,8,8,9,9,10,10,11,11,13,13,14,14,15,15,16,16,17,17,19,19,21,21,22,22,24,24,25,25,27,27,28,28,29,29,31,31,33,33,36,36,37,37,38,38,39,39,40,40,45,45,58,58,59,59,61,61,62,62,63,63,64,64],"right_children":[2,4,6,8,10,12,14,16,18,20,22,24,-1,26,28,30,32,34,-1,36,-1,38,40,-1,42,44,-1,46,48,50,-1,52,-1,54,-1,-1,56,58,60,62,64,-1,-1,-1,-1,66,-1,-1,-1,-1,-1,-1,-1,-1,-1,-1,-1,-1,68,70,-1,72,74,76,78,-1,-1,-1,-1,-1,-1,-1,-1,-1,-1,-1,-1,-1,-1],"split_conditions":[1.9714771E-1,3.108703E-2,2.3646621E-1,2.4400955E-2,6.0181245E-2,2.4610505E-1,3.249688E-1,1.0027617E-2,3.1174116E-2,4.2627305E-2,7.864506E-2,1.8037507E-1,4.1159097E-2,2.505687E-1,3.2526466E-1,7.14798E-3,1.6918154E-2,2.4191052E-2,4.1282006E-2,4.1185897E-2,-4.2378496E-2,7.675025E-2,1.2107334E-1,4.0465955E-2,2.2283791E-1,2.4951132E-1,-4.1292515E-2,3.6359712E-1,4.5589715E-1,9.796807E-2,3.8909003E-2,1.5831903E-2,-4.0871195E-2,1.2724936E0,-3.637559E-2,-4.0941738E-2,4.384561E-2,5.566479E-2,7.92879E-2,1.10916175E-1,1.8288934E-1,-3.190254E-2,-7.046385E-3,-3.0258361E-2,-2.4214238E-3,1.9501625E0,4.019207E-2,-3.1538364E-2,3.1884227E-2,-4.07976E-3,-3.2745253E-2,-3.5532076E-2,3.582407E-2,3.986471E-2,1.4718304E-2,1.9348402E-3,3.5980325E-2,4.0126428E-2,6.317061E-2,1.26E0,4.097852E-2,9.5323145E-2,1.3518873E-1,1.431805E-1,1.5910126E-1,2.3403186E-2,3.1629144E-3,-1.0569034E-2,-3.9028447E-2,3.0893413E-2,7.100242E-3,-4.2561818E-2,-2.1666314E-2,1.2777293E-2,4.0587205E-2,-3.0877227E-2,-4.2567085E-2,3.5164665E-2,-3.655645E-2],"split_indices":[0,1,1,0,0,0,0,1,0,1,1,1,0,1,1,0,1,1,0,0,0,0,1,0,0,0,0,0,0,4,0,0,0,9,0,0,2,1,0,0,0,0,0,0,0,4,0,0,0,0,0,0,0,0,0,0,0,0,1,7,0,2,0,1,1,0,0,0,0,0,0,0,0,0,0,0,0,0,0],"split_type":[0,0,0,0,0,0,0,0,0,0,0,0,0,0,0,0,0,0,0,0,0,0,0,0,0,0,0,0,0,0,0,0,0,0,0,0,0,0,0,0,0,0,0,0,0,0,0,0,0,0,0,0,0,0,0,0,0,0,0,0,0,0,0,0,0,0,0,0,0,0,0,0,0,0,0,0,0,0,0],"sum_hessian":[1.0068755E3,7.4748956E2,2.593859E2,2.1405397E2,5.3343555E2,1.9991019E2,5.9475716E1,6.0796196E1,1.5325778E2,2.5417902E2,2.7925656E2,3.8169197E1,1.61741E2,2.6706127E1,3.276959E1,2.3262268E1,3.7533928E1,2.181459E1,1.3144319E2,4.8928986E1,2.0525003E2,8.2360565E1,1.96896E2,2.9077158E1,9.092037E0,4.4056664E0,2.230046E1,2.365445E1,9.115141E0,4.9322023E0,1.8330065E1,1.2693483E1,2.4840445E1,1.7660044E1,4.154547E0,3.896547E1,9.963516E0,2.2954895E1,5.940567E1,6.418253E1,1.3271346E2,4.8934436E0,4.1985936E0,2.1844091E0,2.2212572E0,4.418761E0,1.9235687E1,4.9486666E0,4.1664743E0,2.2450755E0,2.6871269E0,8.783332E0,3.9101515E0,1.5482233E1,2.177811E0,2.6976717E0,7.265845E0,1.2008822E1,1.0946074E1,4.5853405E0,5.482033E1,3.451458E1,2.9667955E1,1.2129521E2,1.1418248E1,2.1886098E0,2.2301507E0,2.7203717E0,8.225701E0,2.4099386E0,2.175402E0,2.8590979E1,5.923602E0,1.1263075E1,1.840488E1,2.6958347E1,9.433687E1,3.652016E0,7.7662315E0],"tree_param":{"num_deleted":"0","num_feature":"16","num_nodes":"79","size_leaf_vector":"1"}},{"base_weights":[5.902574E-3,-3.579579E-1,1.0724529E0,8.118419E-1,-9.5976955E-1,1.4690435E0,-1.5771063E-1,-6.026734E-1,1.4054762E0,-1.4722836E0,-2.954952E-1,9.987091E-1,4.051317E-2,-1.0866346E0,1.1163193E0,6.8687046E-1,-1.4744916E0,6.071284E-1,1.5415581E0,-1.0649997E0,-4.167954E-2,1.2646729E0,-1.1644982E0,3.975047E-2,-7.808265E-1,-3.947319E-2,-3.818294E-1,3.8560048E-2,-2.6507428E-1,-9.995019E-1,1.2440869E0,-5.65787E-1,-4.1561075E-2,1.4536787E0,-3.862622E-2,4.0595464E-2,1.1045741E0,-1.5581162E0,1.0412027E0,1.5375521E0,5.736415E-1,-4.1504318E-1,-1.5200498E0,-1.0452143E0,-7.003786E-4,7.826881E-1,-3.7062343E-2,-3.0138783E-2,2.0015532E-2,3.5375976E-3,-3.71444E-2,3.9324492E-2,2.7510187E-1,-3.5088737E-2,2.4012176E-2,3.948023E-2,1.4172002E-2,-1.5836654E-2,3.7952088E-2,-4.1125394E-2,-1.00200875E-2,-2.0462554E-3,1.3456825E0,7.974206E-3,4.080725E-2,-3.6397938E-2,1.4656534E0,-1.3728322E0,1.4260718E0,-1.5918766E0,-8.063796E-1,-3.289339E-2,-9.883299E-3,-2.8384284E-3,3.585807E-2,-3.2587577E-2,3.458098E-2,3.879692E-2,1.8919166E-2,1.43094845E-2,4.0413715E-2,-4.1516878E-2,-6.117398E-3,4.056774E-2,1.227904E-2,-2.3447149E-2,-4.177976E-2,2.5621478E-2,-3.7846956E-2],"categories":[],"categories_nodes":[],"categories_segments":[],"categories_sizes":[],"default_left":[0,0,0,0,0,0,0,0,0,0,0,0,0,0,0,0,0,0,0,0,0,0,0,0,0,0,0,0,0,0,0,0,0,0,0,0,0,0,0,0,0,0,0,0,0,0,0,0,0,0,0,0,0,0,0,0,0,0,0,0,0,0,0,0,0,0,0,0,0,0,0,0,0,0,0,0,0,0,0,0,0,0,0,0,0,0,0,0,0],"id":11,"left_children":[1,3,5,7,9,11,13,15,17,19,21,23,-1,25,27,29,31,33,35,37,-1,39,41,-1,43,-1,45,-1,47,49,51,53,-1,55,-1,-1,57,59,61,63,65,67,69,71,-1,73,-1,-1,-1,-1,-1,-1,75,-1,-1,-1,-1,-1,-1,-1,-1,-1,77,-1,-1,-1,79,81,83,85,87,-1,-1,-1,-1,-1,-1,-1,-1,-1,-1,-1,-1,-1,-1,-1,-1,-1,-1],"loss_changes":[3.9027002E2,5.2867554E2,1.2503497E2,2.1519437E2,1.6828812E2,7.70282E0,7.608935E1,8.663489E1,1.863086E1,1.4652771E1,2.9580075E2,3.7121254E1,0E0,1.1022636E1,1.4616158E1,3.0751383E1,4.7861786E0,5.185337E1,4.3936157E-1,8.043094E1,0E0,1.3852753E1,3.6661392E1,0E0,1.8358212E0,0E0,2.0379313E1,0E0,7.2076054E0,4.3827906E0,6.1220627E0,1.0233535E1,0E0,5.8135986E-1,0E0,0E0,9.714525E0,2.0236816E0,5.2226543E0,2.5571442E0,4.4060997E1,8.379057E1,3.5626678E0,5.6271935E-1,0E0,4.5453644E0,0E0,0E0,0E0,0E0,0E0,0E0,1.2553892E1,0E0,0E0,0E0,0E0,0E0,0E0,0E0,0E0,0E0,4.692459E-2,0E0,0E0,0E0,6.8683624E-1,7.970566E0,1.5361977E0,1.5716553E-1,1.4156669E1,0E0,0E0,0E0,0E0,0E0,0E0,0E0,0E0,0E0,0E0,0E0,0E0,0E0,0E0,0E0,0E0,0E0,0E0],"parents":[2147483647,0,0,1,1,2,2,3,3,4,4,5,5,6,6,7,7,8,8,9,9,10,10,11,11,13,13,14,14,15,15,16,16,17,17,18,18,19,19,21,21,22,22,24,24,26,26,28,28,29,29,30,30,31,31,33,33,36,36,37,37,38,38,39,39,40,40,41,41,42,42,43,43,45,45,52,52,62,62,66,66,67,67,68,68,69,69,70,70],"right_children":[2,4,6,8,10,12,14,16,18,20,22,24,-1,26,28,30,32,34,36,38,-1,40,42,-1,44,-1,46,-1,48,50,52,54,-1,56,-1,-1,58,60,62,64,66,68,70,72,-1,74,-1,-1,-1,-1,-1,-1,76,-1,-1,-1,-1,-1,-1,-1,-1,-1,78,-1,-1,-1,80,82,84,86,88,-1,-1,-1,-1,-1,-1,-1,-1,-1,-1,-1,-1,-1,-1,-1,-1,-1,-1],"split_conditions":[1.9714771E-1,3.687759E-2,2.3206894E-1,2.4400955E-2,7.675025E-2,2.4610505E-1,3.765154E-1,1.320136E-2,3.1628698E-2,5.619999E-2,9.853406E-2,1.8037507E-1,4.051317E-2,2.9660544E-1,3.5692433E-1,7.14798E-3,1.6918154E-2,2.4191052E-2,3.3637267E-2,5.2044608E-2,-4.167954E-2,7.864506E-2,1.3742906E-1,3.975047E-2,2.3710952E0,-3.947319E-2,2.854848E-1,3.8560048E-2,4.5589715E-1,4.146075E-3,9.483898E-3,1.5355938E-2,-4.1561075E-2,1.3010967E0,-3.862622E-2,4.0595464E-2,4.2558342E-2,4.885521E-2,5.7079967E-2,7.846867E-2,9.816791E-2,1.4186743E-1,1.8288934E-1,2.6056919E-1,-7.003786E-4,3.126263E-1,-3.7062343E-2,-3.0138783E-2,2.0015532E-2,3.5375976E-3,-3.71444E-2,3.9324492E-2,1.1895773E-2,-3.5088737E-2,2.4012176E-2,3.948023E-2,1.4172002E-2,-1.5836654E-2,3.7952088E-2,-4.1125394E-2,-1.00200875E-2,-2.0462554E-3,6.17849E-1,7.974206E-3,4.080725E-2,-3.6397938E-2,1.08434826E-1,1.2649892E-1,2.660754E-1,1.431805E-1,1.6200508E-1,-3.289339E-2,-9.883299E-3,-2.8384284E-3,3.585807E-2,-3.2587577E-2,3.458098E-2,3.879692E-2,1.8919166E-2,1.43094845E-2,4.0413715E-2,-4.1516878E-2,-6.117398E-3,4.056774E-2,1.227904E-2,-2.3447149E-2,-4.177976E-2,2.5621478E-2,-3.7846956E-2],"split_indices":[0,1,1,0,0,0,0,1,0,1,1,1,0,0,1,0,1,1,1,0,0,1,1,0,3,0,1,0,0,1,1,0,0,9,0,0,2,0,0,0,0,0,0,5,0,0,0,0,0,0,0,0,0,0,0,0,0,0,0,0,0,0,4,0,0,0,0,0,10,1,1,0,0,0,0,0,0,0,0,0,0,0,0,0,0,0,0,0,0],"split_type":[0,0,0,0,0,0,0,0,0,0,0,0,0,0,0,0,0,0,0,0,0,0,0,0,0,0,0,0,0,0,0,0,0,0,0,0,0,0,0,0,0,0,0,0,0,0,0,0,0,0,0,0,0,0,0,0,0,0,0,0,0,0,0,0,0,0,0,0,0,0,0,0,0,0,0,0,0,0,0,0,0,0,0,0,0,0,0,0,0],"sum_hessian":[1.0036657E3,7.488538E2,2.5481189E2,2.5426508E2,4.9458875E2,1.925438E2,6.226809E1,7.515946E1,1.791056E2,2.7849918E2,2.1608955E2,3.619734E1,1.5634645E2,3.6096443E1,2.6171644E1,3.0402279E1,4.475718E1,2.687869E1,1.5222693E2,7.487944E1,2.0361974E2,7.714023E1,1.3894933E2,2.784174E1,8.355599E0,2.1427969E1,1.4668476E1,2.0474258E1,5.6973844E0,7.35356E0,2.304872E1,6.537189E0,3.821999E1,1.9389729E1,7.4889617E0,1.3925845E2,1.2968477E1,6.0884926E1,1.3994515E1,5.4423927E1,2.2716301E1,4.5406284E1,9.3543045E1,5.89929E0,2.456309E0,7.096043E0,7.572433E0,2.9847434E0,2.712641E0,2.2472017E0,5.106358E0,1.742657E1,5.622148E0,4.329458E0,2.207731E0,1.722643E1,2.1632972E0,2.1636314E0,1.0804846E1,5.8689022E1,2.1959019E0,3.1481416E0,1.0846374E1,2.1909142E0,5.2233013E1,6.8627124E0,1.5853588E1,3.0035498E1,1.5370786E1,8.387133E1,9.671715E0,3.6894925E0,2.2097976E0,3.205668E0,3.8903751E0,2.2246978E0,3.3974502E0,7.455939E0,3.3904345E0,2.236311E0,1.3617277E1,2.4504385E1,5.531111E0,1.2743687E1,2.6270988E0,4.6377263E0,7.9233604E1,2.4632268E0,7.208488E0],"tree_param":{"num_deleted":"0","num_feature":"16","num_nodes":"89","size_leaf_vector":"1"}},{"base_weights":[-3.5523935E-3,-3.730553E-1,1.0597003E0,9.370485E-1,-9.194447E-1,1.4458007E0,-1.7949748E-1,-3.5366908E-1,1.4472375E0,-1.386288E0,-2.7578604E-1,9.79173E-1,3.9938707E-2,-1.1582876E0,1.1283407E0,8.7156963E-1,-1.4188697E0,8.170764E-1,4.00559E-2,-9.1170144E-1,-1.5726312E0,1.1558442E0,-1.224101E0,3.9259523E-2,-8.5613406E-1,-1.4410377E0,-2.2614214E-1,3.807341E-2,-2.1087594E-1,-8.677323E-1,1.2705742E0,-6.699877E-1,-4.0553857E-2,1.4299664E0,-3.618257E-2,-1.438015E0,1.0809132E0,-1.6557176E-2,-4.083477E-2,1.5005846E0,4.6974072E-1,-5.056504E-1,-1.5154943E0,-3.7930137E-4,-1.115695E0,-4.0014487E-2,-1.0003342E-2,3.4517363E-2,-3.3814583E-2,-3.4342866E-2,2.1406254E-2,-3.317901E-2,-4.4123656E-3,3.799794E-2,5.6395675E-3,-3.46094E-2,1.685506E-2,3.887137E-2,1.4137655E-2,-4.061884E-2,-5.3211987E-1,3.854824E-2,2.2448736E-1,1.2033992E-2,3.9754365E-2,-1.061924E0,1.4263527E0,-1.4582556E0,1.4258195E0,-4.0444635E-2,-9.067837E-1,-3.4868304E-2,-1.2357459E-2,2.8857714E-2,-3.7610006E-2,-3.1735867E-2,3.1040583E-2,-3.911514E-2,-1.6984243E-3,1.3628593E-2,3.937661E-2,-4.1828148E-2,-1.497473E-2,3.9578922E-2,1.4877428E-2,1.6436996E-2,-3.6959182E-2],"categories":[],"categories_nodes":[],"categories_segments":[],"categories_sizes":[],"default_left":[0,0,0,0,0,0,0,0,0,0,0,0,0,0,0,0,0,0,0,0,0,0,0,0,0,0,0,0,0,0,0,0,0,0,0,0,0,0,0,0,0,0,0,0,0,0,0,0,0,0,0,0,0,0,0,0,0,0,0,0,0,0,0,0,0,0,0,0,0,0,0,0,0,0,0,0,0,0,0,0,0,0,0,0,0,0,0],"id":12,"left_children":[1,3,5,7,9,11,13,15,17,19,21,23,-1,25,27,29,31,33,-1,35,37,39,41,-1,43,45,47,-1,49,51,53,55,-1,57,-1,59,61,-1,-1,63,65,67,69,-1,71,-1,-1,-1,-1,-1,-1,-1,-1,-1,-1,-1,-1,-1,-1,-1,73,-1,75,-1,-1,77,79,81,83,-1,85,-1,-1,-1,-1,-1,-1,-1,-1,-1,-1,-1,-1,-1,-1,-1,-1],"loss_changes":[3.9086304E2,5.293535E2,1.2301996E2,1.4392543E2,1.5632529E2,7.874817E0,8.046969E1,8.280849E1,9.1631775E0,2.5276123E1,3.007547E2,3.9242603E1,0E0,9.126457E0,1.2882484E1,2.1704641E1,2.8362045E0,3.5478546E1,0E0,9.335333E1,1.1362915E0,2.0196915E1,2.7101883E1,0E0,2.0216036E0,2.5793877E0,1.7937523E1,0E0,8.616791E0,1.5693326E0,4.9154015E0,7.5455313E0,0E0,5.209961E-1,0E0,7.807434E0,6.3482037E0,0E0,0E0,1.7480621E0,4.694883E1,7.5514275E1,1.602478E0,0E0,4.229393E-1,0E0,0E0,0E0,0E0,0E0,0E0,0E0,0E0,0E0,0E0,0E0,0E0,0E0,0E0,0E0,1.7935783E1,0E0,1.1910569E1,0E0,0E0,5.559782E0,9.5363235E-1,2.9676094E0,3.796234E-1,0E0,8.944933E0,0E0,0E0,0E0,0E0,0E0,0E0,0E0,0E0,0E0,0E0,0E0,0E0,0E0,0E0,0E0,0E0],"parents":[2147483647,0,0,1,1,2,2,3,3,4,4,5,5,6,6,7,7,8,8,9,9,10,10,11,11,13,13,14,14,15,15,16,16,17,17,19,19,20,20,21,21,22,22,24,24,25,25,26,26,28,28,29,29,30,30,31,31,33,33,35,35,36,36,39,39,40,40,41,41,42,42,44,44,60,60,62,62,65,65,66,66,67,67,68,68,70,70],"right_children":[2,4,6,8,10,12,14,16,18,20,22,24,-1,26,28,30,32,34,-1,36,38,40,42,-1,44,46,48,-1,50,52,54,56,-1,58,-1,60,62,-1,-1,64,66,68,70,-1,72,-1,-1,-1,-1,-1,-1,-1,-1,-1,-1,-1,-1,-1,-1,-1,74,-1,76,-1,-1,78,80,82,84,-1,86,-1,-1,-1,-1,-1,-1,-1,-1,-1,-1,-1,-1,-1,-1,-1,-1],"split_conditions":[1.9714771E-1,3.180014E-2,2.3646621E-1,2.4400955E-2,7.675025E-2,2.4610505E-1,3.765154E-1,1.2446604E-2,3.1174116E-2,5.2516922E-2,1.0406822E-1,1.8037507E-1,3.9938707E-2,3.170861E-1,3.5692433E-1,5.8897715E-3,1.6918154E-2,2.4191052E-2,4.00559E-2,4.885521E-2,2.7728873E-1,7.864506E-2,1.3742906E-1,3.9259523E-2,1.915977E-1,2.9493085E-1,2.854848E-1,3.807341E-2,4.5589715E-1,1.9622093E-1,1.0027617E-2,1.4118276E-2,-4.0553857E-2,1.3184713E0,-3.618257E-2,4.1266754E-2,4.605213E-2,-1.6557176E-2,-4.083477E-2,7.846867E-2,1.10916175E-1,1.4186743E-1,1.8288934E-1,-3.7930137E-4,2.2757575E-1,-4.0014487E-2,-1.0003342E-2,3.4517363E-2,-3.3814583E-2,-3.4342866E-2,2.1406254E-2,-3.317901E-2,-4.4123656E-3,3.799794E-2,5.6395675E-3,-3.46094E-2,1.685506E-2,3.887137E-2,1.4137655E-2,-4.061884E-2,3.8423773E-2,3.854824E-2,5.8524407E-2,1.2033992E-2,3.9754365E-2,9.679056E-2,1.1733513E-1,1.2649892E-1,2.5395033E-1,-4.0444635E-2,1.6762854E-1,-3.4868304E-2,-1.2357459E-2,2.8857714E-2,-3.7610006E-2,-3.1735867E-2,3.1040583E-2,-3.911514E-2,-1.6984243E-3,1.3628593E-2,3.937661E-2,-4.1828148E-2,-1.497473E-2,3.9578922E-2,1.4877428E-2,1.6436996E-2,-3.6959182E-2],"split_indices":[0,1,1,0,0,0,0,1,0,1,1,1,0,0,1,2,1,1,0,0,4,1,1,0,1,2,1,0,0,10,1,0,0,9,0,2,1,0,0,0,0,0,0,0,0,0,0,0,0,0,0,0,0,0,0,0,0,0,0,0,1,0,0,0,0,0,0,0,10,0,1,0,0,0,0,0,0,0,0,0,0,0,0,0,0,0,0],"split_type":[0,0,0,0,0,0,0,0,0,0,0,0,0,0,0,0,0,0,0,0,0,0,0,0,0,0,0,0,0,0,0,0,0,0,0,0,0,0,0,0,0,0,0,0,0,0,0,0,0,0,0,0,0,0,0,0,0,0,0,0,0,0,0,0,0,0,0,0,0,0,0,0,0,0,0,0,0,0,0,0,0,0,0,0,0,0,0],"sum_hessian":[9.9287274E2,7.3729584E2,2.5557686E2,2.1678505E2,5.205108E2,1.9473576E2,6.08411E1,6.1501175E1,1.5528387E2,3.010248E2,2.1948601E2,3.7061924E1,1.5767384E2,3.48635E1,2.59776E1,2.8686516E1,3.281466E1,2.3600275E1,1.316836E2,8.6532616E1,2.144922E2,8.736938E1,1.3211662E2,2.8730429E1,8.331492E0,2.6330627E1,8.532871E0,2.053886E1,5.438741E0,5.133652E0,2.3552864E1,6.497667E0,2.6316994E1,1.8773392E1,4.826883E0,6.867236E1,1.7860249E1,3.1393514E0,2.1135284E2,5.7360725E1,3.0008652E1,3.891191E1,9.320472E1,2.2132845E0,6.1182084E0,2.3401546E1,2.9290812E0,3.3986354E0,5.1342363E0,2.4844031E0,2.954338E0,2.6774113E0,2.4562411E0,1.9410145E1,4.1427193E0,4.300356E0,2.1973104E0,1.6608688E1,2.1647031E0,5.901085E1,9.661514E0,1.1539508E1,6.320741E0,2.6542292E0,5.4706497E1,1.1494431E1,1.8514221E1,2.622345E1,1.2688461E1,8.432197E1,8.882752E0,3.6420333E0,2.476175E0,3.3973012E0,6.2642136E0,2.4391441E0,3.881597E0,7.5326552E0,3.9617755E0,2.4931505E0,1.602107E1,2.1387697E1,4.8357525E0,1.053052E1,2.157941E0,2.204376E0,6.678376E0],"tree_param":{"num_deleted":"0","num_feature":"16","num_nodes":"87","size_leaf_vector":"1"}},{"base_weights":[-4.3001976E-3,-3.5925066E-1,1.0528709E0,9.207848E-1,-8.8691914E-1,1.4080646E0,-2.7446294E-1,-3.7246695E-1,1.4269034E0,-1.4688575E0,-3.6920023E-1,3.921168E-2,9.3757015E-1,-1.2221222E0,1.0371915E0,1.036718E0,-1.1408868E0,7.4796844E-1,3.950586E-2,-1.0028068E0,-4.0505327E-2,7.55642E-1,-1.2497243E0,-1.0013368E0,3.78629E-2,-1.4537698E0,-4.6325624E-1,3.795679E-2,-2.4937065E-2,-1.8481921E-2,3.8176008E-2,-3.5395658E-1,-3.9013546E-2,3.832923E-2,-3.14336E-2,-1.4707898E0,1.0938246E0,1.4201604E0,9.073466E-2,-1.5313561E0,-7.3694026E-1,-3.7415374E-2,1.737755E-3,-3.9176814E-2,-1.4190529E-2,3.188981E-2,-3.3769265E-2,-2.922166E-2,2.3936143E-2,-3.8256556E-2,1.0126283E0,-3.9348137E-2,-9.65985E-3,9.39596E-3,3.5489812E-2,3.930771E-2,9.325477E-1,-1.1857858E0,1.1919107E0,-9.566234E-1,-4.0589277E-2,1.2895703E0,-1.4110036E0,5.1347706E-3,3.4501635E-2,-2.436673E-2,3.6985654E-2,-3.923951E-2,-4.4534737E-3,9.902784E-3,3.9294012E-2,-3.8264822E-2,1.4220306E-2,3.8625527E-2,1.190987E-2,-1.203251E-2,-3.992895E-2],"categories":[],"categories_nodes":[],"categories_segments":[],"categories_sizes":[],"default_left":[0,0,0,0,0,0,0,0,0,0,0,0,0,0,0,0,0,0,0,0,0,0,0,0,0,0,0,0,0,0,0,0,0,0,0,0,0,0,0,0,0,0,0,0,0,0,0,0,0,0,0,0,0,0,0,0,0,0,0,0,0,0,0,0,0,0,0,0,0,0,0,0,0,0,0,0,0],"id":13,"left_children":[1,3,5,7,9,11,13,15,17,19,21,-1,23,25,27,29,31,33,-1,35,-1,37,39,41,-1,43,45,-1,47,-1,-1,49,-1,-1,-1,51,53,55,57,59,61,-1,-1,-1,-1,-1,-1,-1,-1,-1,63,-1,-1,-1,-1,-1,65,67,69,71,-1,73,75,-1,-1,-1,-1,-1,-1,-1,-1,-1,-1,-1,-1,-1,-1],"loss_changes":[3.701649E2,4.9962442E2,1.1728931E2,1.4195009E2,1.5716019E2,8.924744E0,6.7373856E1,6.784808E1,9.932129E0,1.0093445E1,2.7662683E2,0E0,4.2979645E1,4.8348236E0,1.0583004E1,1.8363716E1,1.1262291E1,3.487268E1,0E0,4.7589066E1,0E0,5.4146286E1,2.1473007E1,4.547449E0,0E0,5.5314636E-1,1.4269764E1,0E0,9.096577E0,0E0,0E0,2.3486074E1,0E0,0E0,0E0,1.7612076E0,1.377696E0,1.6905746E0,8.922479E1,9.387512E-1,8.0241486E1,0E0,0E0,0E0,0E0,0E0,0E0,0E0,0E0,0E0,1.5957794E0,0E0,0E0,0E0,0E0,0E0,1.3938762E1,9.747944E0,8.536839E0,8.321991E0,0E0,1.8671341E0,4.923416E0,0E0,0E0,0E0,0E0,0E0,0E0,0E0,0E0,0E0,0E0,0E0,0E0,0E0,0E0],"parents":[2147483647,0,0,1,1,2,2,3,3,4,4,5,5,6,6,7,7,8,8,9,9,10,10,12,12,13,13,14,14,15,15,16,16,17,17,19,19,21,21,22,22,23,23,25,25,26,26,28,28,31,31,35,35,36,36,37,37,38,38,39,39,40,40,50,50,56,56,57,57,58,58,59,59,61,61,62,62],"right_children":[2,4,6,8,10,12,14,16,18,20,22,-1,24,26,28,30,32,34,-1,36,-1,38,40,42,-1,44,46,-1,48,-1,-1,50,-1,-1,-1,52,54,56,58,60,62,-1,-1,-1,-1,-1,-1,-1,-1,-1,64,-1,-1,-1,-1,-1,66,68,70,72,-1,74,76,-1,-1,-1,-1,-1,-1,-1,-1,-1,-1,-1,-1,-1,-1],"split_conditions":[2.0017539E-1,3.180014E-2,2.4732222E-1,2.4400955E-2,5.9730627E-2,1.915977E-1,3.765154E-1,9.483898E-3,3.1174116E-2,4.2627305E-2,1.0406822E-1,3.921168E-2,2.6102906E-1,3.170861E-1,3.3925873E-1,7.14798E-3,1.6918154E-2,2.1361668E-2,3.950586E-2,4.3638766E-2,-4.0505327E-2,6.8177976E-2,1.4519504E-1,2.4186847E-1,3.78629E-2,1.4123377E0,2.854848E-1,3.795679E-2,4.5589715E-1,-1.8481921E-2,3.8176008E-2,1.1895773E-2,-3.9013546E-2,3.832923E-2,-3.14336E-2,3.890451E-2,4.712736E-2,6.009836E-2,9.5146164E-2,1.1238413E-1,1.468341E-1,-3.7415374E-2,1.737755E-3,-3.9176814E-2,-1.4190529E-2,3.188981E-2,-3.3769265E-2,-2.922166E-2,2.3936143E-2,-3.8256556E-2,1.5355938E-2,-3.9348137E-2,-9.65985E-3,9.39596E-3,3.5489812E-2,3.930771E-2,7.3470525E-2,8.534817E-2,1.15033396E-1,1.18805595E-1,-4.0589277E-2,1.3634051E-1,1.6200508E-1,5.1347706E-3,3.4501635E-2,-2.436673E-2,3.6985654E-2,-3.923951E-2,-4.4534737E-3,9.902784E-3,3.9294012E-2,-3.8264822E-2,1.4220306E-2,3.8625527E-2,1.190987E-2,-1.203251E-2,-3.992895E-2],"split_indices":[0,1,1,0,0,1,0,1,0,1,1,0,0,0,1,0,1,1,0,0,0,1,0,0,0,9,1,0,0,0,0,0,0,0,0,2,0,1,0,1,1,0,0,0,0,0,0,0,0,0,0,0,0,0,0,0,0,0,0,0,0,1,1,0,0,0,0,0,0,0,0,0,0,0,0,0,0],"split_type":[0,0,0,0,0,0,0,0,0,0,0,0,0,0,0,0,0,0,0,0,0,0,0,0,0,0,0,0,0,0,0,0,0,0,0,0,0,0,0,0,0,0,0,0,0,0,0,0,0,0,0,0,0,0,0,0,0,0,0,0,0,0,0,0,0,0,0,0,0,0,0,0,0,0,0,0,0],"sum_hessian":[9.844581E2,7.3749927E2,2.469589E2,2.1505843E2,5.224408E2,1.9477611E2,5.2182785E1,6.056492E1,1.5449352E2,2.4510031E2,2.773405E2,1.5542503E2,3.9351063E1,3.0334572E1,2.1848213E1,2.1248571E1,3.931635E1,2.1769688E1,1.3272383E2,4.5861843E1,1.9923846E2,1.2183802E2,1.5550249E2,8.263882E0,3.1087181E1,2.2538782E1,7.7957897E0,1.5230721E1,6.6174917E0,4.1657743E0,1.7082796E1,1.324315E1,2.6073198E1,1.6006105E1,5.7635827E0,3.773714E1,8.1247E0,6.0368725E1,6.146929E1,9.9092445E1,5.6410034E1,5.565749E0,2.698133E0,2.0384111E1,2.1546702E0,2.4376152E0,5.358175E0,2.9724836E0,3.645008E0,7.2038875E0,6.039263E0,3.5563274E1,2.1738675E0,2.905895E0,5.218805E0,4.800489E1,1.2363838E1,2.8432522E1,3.303677E1,8.440457E0,9.065199E1,1.3852029E1,4.2558006E1,2.185006E0,3.8542566E0,2.42044E0,9.9433975E0,2.0978714E1,7.453807E0,1.0243908E1,2.2792862E1,6.2663183E0,2.1741393E0,1.0422161E1,3.4298675E0,5.957781E0,3.6600224E1],"tree_param":{"num_deleted":"0","num_feature":"16","num_nodes":"77","size_leaf_vector":"1"}},{"base_weights":[2.7627689E-3,-3.3498475E-1,1.0516763E0,9.061327E-1,-8.348738E-1,1.4403678E0,-9.939836E-2,-3.5793626E-1,1.418312E0,-1.3371724E0,-2.0490706E-1,3.8793445E-2,9.0778595E-1,-1.3624841E0,7.8320765E-1,7.4552834E-1,-1.3704662E0,8.319707E-1,3.8774904E-2,-8.7395895E-1,-1.5209365E0,1.0195701E0,-1.1623297E0,-9.458326E-1,3.7155025E-2,-3.8919132E-2,-4.4962126E-3,1.2615497E0,-4.0465608E-1,-8.879634E-1,1.2555933E0,-8.625534E-1,-3.9229497E-2,3.642825E-2,-3.411744E-2,-1.3974912E0,1.0202848E0,-1.7264076E-2,-3.949964E-2,1.4774783E0,3.6483243E-1,-1.3754529E0,-1.9427432E-1,-3.0326081E-2,-1.093882E-2,4.442215E-1,3.795977E-2,-3.2255348E-2,2.4499992E-2,4.949494E-3,-3.5028245E-2,3.757378E-2,5.742732E-1,-3.625865E-2,1.8387523E-2,-3.9359853E-2,-4.8990223E-1,3.75541E-2,1.0893713E-1,1.7693693E-2,3.872316E-2,-1.1879666E0,1.2557191E0,-4.3926907E-1,-1.4586321E0,1.3269397E0,-3.9489895E-2,3.30542E-2,-1.9042451E-2,-1.6985664E-2,3.312522E-2,3.2513414E-2,-3.6169153E-2,-3.136318E-2,2.9339476E-2,-9.202684E-3,-3.9558318E-2,7.904694E-3,3.7548844E-2,-3.6463402E-2,3.199479E-2,-2.7374916E-2,-3.9938614E-2,3.6959436E-2,1.4618103E-2],"categories":[],"categories_nodes":[],"categories_segments":[],"categories_sizes":[],"default_left":[0,0,0,0,0,0,0,0,0,0,0,0,0,0,0,0,0,0,0,0,0,0,0,0,0,0,0,0,0,0,0,0,0,0,0,0,0,0,0,0,0,0,0,0,0,0,0,0,0,0,0,0,0,0,0,0,0,0,0,0,0,0,0,0,0,0,0,0,0,0,0,0,0,0,0,0,0,0,0,0,0,0,0,0,0],"id":14,"left_children":[1,3,5,7,9,11,13,15,17,19,21,-1,23,25,27,29,31,33,-1,35,37,39,41,43,-1,-1,-1,45,47,49,51,53,-1,-1,-1,55,57,-1,-1,59,61,63,65,-1,-1,67,-1,-1,-1,-1,-1,-1,69,-1,-1,-1,71,-1,73,-1,-1,75,77,79,81,83,-1,-1,-1,-1,-1,-1,-1,-1,-1,-1,-1,-1,-1,-1,-1,-1,-1,-1,-1],"loss_changes":[3.4417685E2,4.566983E2,1.0601471E2,1.3743015E2,1.6566415E2,4.651764E0,6.870171E1,7.00483E1,6.2763367E0,2.349115E1,2.7530072E2,0E0,2.2565802E1,4.1474E0,2.1164003E1,2.6285765E1,1.1802025E0,2.8584389E1,0E0,8.589005E1,8.575134E-1,3.038124E1,2.690158E1,1.4894962E-1,0E0,0E0,0E0,3.842842E0,1.4015468E1,4.208639E0,2.3780098E0,9.358379E0,0E0,0E0,0E0,7.0950623E0,7.396946E0,0E0,0E0,1.1682129E-1,6.204475E1,7.7507324E0,5.2723568E1,0E0,0E0,7.666811E0,0E0,0E0,0E0,0E0,0E0,0E0,6.971484E0,0E0,0E0,0E0,1.7442331E1,0E0,1.1244866E1,0E0,0E0,4.1881714E0,4.932701E0,1.8492918E1,1.8778839E0,1.7175102E-1,0E0,0E0,0E0,0E0,0E0,0E0,0E0,0E0,0E0,0E0,0E0,0E0,0E0,0E0,0E0,0E0,0E0,0E0,0E0],"parents":[2147483647,0,0,1,1,2,2,3,3,4,4,5,5,6,6,7,7,8,8,9,9,10,10,12,12,13,13,14,14,15,15,16,16,17,17,19,19,20,20,21,21,22,22,23,23,27,27,28,28,29,29,30,30,31,31,35,35,36,36,39,39,40,40,41,41,42,42,45,45,52,52,56,56,58,58,61,61,62,62,63,63,64,64,65,65],"right_children":[2,4,6,8,10,12,14,16,18,20,22,-1,24,26,28,30,32,34,-1,36,38,40,42,44,-1,-1,-1,46,48,50,52,54,-1,-1,-1,56,58,-1,-1,60,62,64,66,-1,-1,68,-1,-1,-1,-1,-1,-1,70,-1,-1,-1,72,-1,74,-1,-1,76,78,80,82,84,-1,-1,-1,-1,-1,-1,-1,-1,-1,-1,-1,-1,-1,-1,-1,-1,-1,-1,-1],"split_conditions":[2.1155912E-1,3.180014E-2,2.3206894E-1,2.4919031E-2,7.675025E-2,2.017488E-1,3.170861E-1,1.320136E-2,3.1174116E-2,5.2516922E-2,1.1238413E-1,3.8793445E-2,2.5263748E-1,2.9493085E-1,3.2526466E-1,7.14798E-3,1.8254744E-2,2.3150574E-2,3.8774904E-2,4.885521E-2,2.7728873E-1,7.864506E-2,1.8288934E-1,2.2419253E-1,3.7155025E-2,-3.8919132E-2,-4.4962126E-3,3.6359712E-1,4.5589715E-1,1.0638298E-1,9.483898E-3,1.5831903E-2,-3.9229497E-2,3.642825E-2,-3.411744E-2,4.047626E-2,4.605213E-2,-1.7264076E-2,-3.949964E-2,7.846867E-2,1.10916175E-1,1.2107334E-1,1.75008E-1,-3.0326081E-2,-1.093882E-2,2.7934062E-1,3.795977E-2,-3.2255348E-2,2.4499992E-2,4.949494E-3,-3.5028245E-2,3.757378E-2,1.4118276E-2,-3.625865E-2,1.8387523E-2,-3.9359853E-2,3.8423773E-2,3.75541E-2,5.8524407E-2,1.7693693E-2,3.872316E-2,8.733717E-2,1.2026206E-1,1.3518873E-1,1.431805E-1,1.6260802E0,-3.9489895E-2,3.30542E-2,-1.9042451E-2,-1.6985664E-2,3.312522E-2,3.2513414E-2,-3.6169153E-2,-3.136318E-2,2.9339476E-2,-9.202684E-3,-3.9558318E-2,7.904694E-3,3.7548844E-2,-3.6463402E-2,3.199479E-2,-2.7374916E-2,-3.9938614E-2,3.6959436E-2,1.4618103E-2],"split_indices":[0,1,1,0,0,1,0,1,0,1,1,0,0,2,1,0,1,1,0,0,4,1,0,2,0,0,0,0,0,4,1,0,0,0,0,0,1,0,0,0,0,1,1,0,0,1,0,0,0,0,0,0,0,0,0,0,1,0,0,0,0,1,0,0,1,4,0,0,0,0,0,0,0,0,0,0,0,0,0,0,0,0,0,0,0],"split_type":[0,0,0,0,0,0,0,0,0,0,0,0,0,0,0,0,0,0,0,0,0,0,0,0,0,0,0,0,0,0,0,0,0,0,0,0,0,0,0,0,0,0,0,0,0,0,0,0,0,0,0,0,0,0,0,0,0,0,0,0,0,0,0,0,0,0,0,0,0,0,0,0,0,0,0,0,0,0,0,0,0,0,0,0,0],"sum_hessian":[9.6952136E2,7.33891E2,2.356304E2,2.1048619E2,5.234048E2,1.7596106E2,5.966934E1,6.0780304E1,1.4970589E2,2.9058594E2,2.3281883E2,1.554958E2,2.0465252E1,2.432066E1,3.534868E1,2.9210321E1,3.156998E1,2.0355978E1,1.2934991E2,8.417133E1,2.0641461E2,1.0213296E2,1.3068588E2,4.3967676E0,1.6068485E1,2.1408924E1,2.9117355E0,2.5156393E1,1.0192286E1,6.774378E0,2.2435944E1,8.760519E0,2.2809462E1,1.6307238E1,4.048739E0,6.615078E1,1.802055E1,3.3409173E0,2.0307368E2,5.9360806E1,4.2772152E1,1.0676097E2,2.3924906E1,2.1809344E0,2.2158332E0,5.78584E0,1.9370554E1,6.32114E0,3.8711455E0,2.2346597E0,4.539718E0,1.6439686E1,5.996258E0,6.5940037E0,2.1665154E0,5.7339207E1,8.811576E0,1.17858715E1,6.234679E0,2.6187198E0,5.674209E1,1.5471736E1,2.7300415E1,9.224137E0,9.7536835E1,1.1194716E1,1.2730189E1,3.3381448E0,2.4476953E0,2.218069E0,3.7781885E0,2.8886306E0,5.922945E0,2.6452365E0,3.5894425E0,5.1438355E0,1.03279E1,5.1966133E0,2.2103802E1,5.937664E0,3.2864735E0,2.038019E1,7.715664E1,9.045982E0,2.1487336E0],"tree_param":{"num_deleted":"0","num_feature":"16","num_nodes":"85","size_leaf_vector":"1"}},{"base_weights":[1.2530589E-4,-3.371002E-1,1.0227597E0,8.938084E-1,-8.396839E-1,1.3787093E0,-9.4736494E-2,-2.829744E-1,1.3894796E0,-1.3171849E0,-2.3098986E-1,3.84657E-2,9.4846916E-1,-9.2029756E-1,1.0361542E0,9.231443E-1,-1.0465218E0,7.331087E-1,3.8416583E-2,-8.687024E-1,-1.4264667E0,9.941648E-1,-1.0317193E0,-5.884676E-1,3.7089787E-2,-1.2110628E0,-2.7297196E-1,1.3425437E0,-2.730953E-1,-7.3126394E-1,3.6290117E-2,-1.2922665E0,-2.3920554E-1,1.3492146E0,-3.4290873E-2,-1.4309676E0,7.8291523E-1,-2.1362226E-3,-1.4386462E0,3.7189446E-2,3.6227757E-1,-1.4321955E-1,-1.2375386E0,3.208869E-3,-9.7316766E-1,-3.4087386E-2,-5.944189E-1,7.565689E-1,-3.0566815E-2,3.705538E-2,1.933722E-2,-2.039497E-2,9.540759E-3,-3.3329967E-2,5.497287E-3,-1.3718029E0,-1.1341952E-2,3.40239E-2,-3.2346897E-2,3.695314E-2,1.3321389E-2,-3.8189564E-2,-7.655538E-1,1.8627098E-2,3.563617E-2,-1.4500715E0,-1.1250378E-2,-6.7695016E-1,1.4216895E0,-1.1379782E0,3.4837548E-2,-1.3877965E0,-7.219604E-1,-8.873001E-3,-3.2821283E-2,-2.4751804E-3,-2.2730505E-2,9.403787E-3,2.5240537E-2,-1.2080891E-2,-3.718863E-2,-5.7990304E-3,-2.7350169E-2,3.1687837E-2,-2.5884582E-2,-1.5167025E-2,-3.7541408E-2,1.9025031E-3,-2.7899362E-2,1.4612006E-2,3.851089E-2,-3.5775226E-2,-8.163491E-3,-3.7267406E-2,-1.9182222E-2,2.7048033E-2,-3.0719198E-2],"categories":[],"categories_nodes":[],"categories_segments":[],"categories_sizes":[],"default_left":[0,0,0,0,0,0,0,0,0,0,0,0,0,0,0,0,0,0,0,0,0,0,0,0,0,0,0,0,0,0,0,0,0,0,0,0,0,0,0,0,0,0,0,0,0,0,0,0,0,0,0,0,0,0,0,0,0,0,0,0,0,0,0,0,0,0,0,0,0,0,0,0,0,0,0,0,0,0,0,0,0,0,0,0,0,0,0,0,0,0,0,0,0,0,0,0,0],"id":15,"left_children":[1,3,5,7,9,11,13,15,17,19,21,-1,23,25,27,29,31,33,-1,35,37,39,41,43,-1,45,47,49,51,53,-1,55,57,59,-1,61,63,-1,65,-1,67,69,71,-1,73,-1,75,77,-1,-1,-1,-1,-1,-1,-1,79,-1,-1,-1,-1,-1,-1,81,83,-1,85,-1,87,89,91,-1,93,95,-1,-1,-1,-1,-1,-1,-1,-1,-1,-1,-1,-1,-1,-1,-1,-1,-1,-1,-1,-1,-1,-1,-1,-1],"loss_changes":[3.3351462E2,4.5066983E2,9.552762E1,1.23667755E2,1.4994452E2,7.415619E0,5.5918095E1,5.9414352E1,8.691467E0,1.2948273E1,2.2515173E2,0E0,3.1358364E1,6.174244E0,1.0520603E1,2.1155066E1,7.4941597E0,2.9336761E1,0E0,5.6164646E1,3.6643677E0,2.5175934E1,2.5178406E1,3.0022097E0,0E0,8.220024E-1,1.2169905E1,7.839584E-2,2.1672773E0,3.6388109E0,0E0,1.4258232E0,1.8115942E1,4.5671082E-1,0E0,3.4432983E-1,7.160467E0,0E0,1.9908752E0,0E0,4.3901592E1,4.1975346E1,7.709152E0,0E0,8.690653E-1,0E0,6.88043E-1,1.8721414E-1,0E0,0E0,0E0,0E0,0E0,0E0,0E0,1.0300827E0,0E0,0E0,0E0,0E0,0E0,0E0,5.869522E-1,1.1019789E1,0E0,2.3410034E-1,0E0,6.269435E0,3.5562897E-1,3.0156078E0,0E0,2.0951233E0,2.406234E1,0E0,0E0,0E0,0E0,0E0,0E0,0E0,0E0,0E0,0E0,0E0,0E0,0E0,0E0,0E0,0E0,0E0,0E0,0E0,0E0,0E0,0E0,0E0,0E0],"parents":[2147483647,0,0,1,1,2,2,3,3,4,4,5,5,6,6,7,7,8,8,9,9,10,10,12,12,13,13,14,14,15,15,16,16,17,17,19,19,20,20,21,21,22,22,23,23,25,25,26,26,27,27,28,28,29,29,31,31,32,32,33,33,35,35,36,36,38,38,40,40,41,41,42,42,44,44,46,46,47,47,55,55,62,62,63,63,65,65,67,67,68,68,69,69,71,71,72,72],"right_children":[2,4,6,8,10,12,14,16,18,20,22,-1,24,26,28,30,32,34,-1,36,38,40,42,44,-1,46,48,50,52,54,-1,56,58,60,-1,62,64,-1,66,-1,68,70,72,-1,74,-1,76,78,-1,-1,-1,-1,-1,-1,-1,80,-1,-1,-1,-1,-1,-1,82,84,-1,86,-1,88,90,92,-1,94,96,-1,-1,-1,-1,-1,-1,-1,-1,-1,-1,-1,-1,-1,-1,-1,-1,-1,-1,-1,-1,-1,-1,-1,-1],"split_conditions":[1.8356612E-1,3.108703E-2,2.3206894E-1,2.4305541E-2,6.827682E-2,1.8037507E-1,3.3897206E-1,1.0027617E-2,3.1049013E-2,4.605213E-2,9.853406E-2,3.84657E-2,2.4294776E-1,2.7934578E-1,3.5692433E-1,7.12955E-3,1.931461E-2,2.4191052E-2,3.8416583E-2,4.070779E-2,1.7769003E-1,6.97769E-2,1.1879795E-1,1.915977E-1,3.7089787E-2,2.2698613E-1,2.8982496E-1,3.0826098E-1,6.5290177E-1,3.83E0,3.6290117E-2,3.471231E-1,1.8254744E-2,1.2724936E0,-3.4290873E-2,3.6825676E-2,4.8738018E-2,-2.1362226E-3,1.615799E0,3.7189446E-2,9.7895265E-2,1.2464459E-1,1.5270427E-1,3.208869E-3,2.2155945E-1,-3.4087386E-2,3.236767E-1,2.269E3,-3.0566815E-2,3.705538E-2,1.933722E-2,-2.039497E-2,9.540759E-3,-3.3329967E-2,5.497287E-3,1.1945385E-2,-1.1341952E-2,3.40239E-2,-3.2346897E-2,3.695314E-2,1.3321389E-2,-3.8189564E-2,2.084E3,3.762157E-2,3.563617E-2,2.4242425E-1,-1.1250378E-2,7.864506E-2,1.05588675E-1,1.3241576E0,3.4837548E-2,2.1299639E0,1.5142862E-1,-8.873001E-3,-3.2821283E-2,-2.4751804E-3,-2.2730505E-2,9.403787E-3,2.5240537E-2,-1.2080891E-2,-3.718863E-2,-5.7990304E-3,-2.7350169E-2,3.1687837E-2,-2.5884582E-2,-1.5167025E-2,-3.7541408E-2,1.9025031E-3,-2.7899362E-2,1.4612006E-2,3.851089E-2,-3.5775226E-2,-8.163491E-3,-3.7267406E-2,-1.9182222E-2,2.7048033E-2,-3.0719198E-2],"split_indices":[2,1,1,2,2,1,2,1,2,1,1,0,2,2,1,2,2,1,0,2,4,1,1,1,0,10,1,1,9,8,0,5,1,9,0,2,2,0,3,0,2,2,2,0,5,0,5,12,0,0,0,0,0,0,0,1,0,0,0,0,0,0,12,1,0,4,0,1,2,4,0,3,1,0,0,0,0,0,0,0,0,0,0,0,0,0,0,0,0,0,0,0,0,0,0,0,0],"split_type":[0,0,0,0,0,0,0,0,0,0,0,0,0,0,0,0,0,0,0,0,0,0,0,0,0,0,0,0,0,0,0,0,0,0,0,0,0,0,0,0,0,0,0,0,0,0,0,0,0,0,0,0,0,0,0,0,0,0,0,0,0,0,0,0,0,0,0,0,0,0,0,0,0,0,0,0,0,0,0,0,0,0,0,0,0,0,0,0,0,0,0,0,0,0,0,0,0],"sum_hessian":[9.651062E2,7.26278E2,2.388282E2,2.1034085E2,5.1593713E2,1.8095569E2,5.787252E1,6.2466652E1,1.478742E2,2.884743E2,2.2746284E2,1.4141432E2,3.954136E1,3.3559776E1,2.4312744E1,2.413437E1,3.833228E1,2.0672516E1,1.2720168E2,5.8273663E1,2.3020064E2,8.980907E1,1.3765378E2,9.505493E0,3.0035866E1,2.2556843E1,1.1002934E1,1.968147E1,4.6312733E0,5.3468904E0,1.878748E1,2.8926456E1,9.405824E0,1.6184404E1,4.4881115E0,4.3573425E1,1.4700236E1,2.1379979E0,2.2806264E2,5.1807846E1,3.8001217E1,2.6208845E1,1.1144494E2,3.5687604E0,5.9367332E0,1.815499E1,4.4018536E0,5.24935E0,5.7535844E0,1.5752066E1,3.9294055E0,2.4383302E0,2.1929429E0,3.1230094E0,2.223881E0,2.590074E1,3.025718E0,3.5916085E0,5.814215E0,1.4052108E1,2.1322968E0,3.939768E1,4.175749E0,6.911212E0,7.7890244E0,2.2505098E2,3.011659E0,1.9365595E1,1.8635624E1,1.5876402E1,1.0332444E1,8.4985405E1,2.645953E1,2.6076372E0,3.329096E0,2.0958328E0,2.3060207E0,2.854417E0,2.394933E0,2.4204628E0,2.3480276E1,2.0959055E0,2.0798433E0,3.0724964E0,3.8387156E0,2.135627E0,2.2291534E2,7.0711355E0,1.2294459E1,2.1278887E0,1.6507734E1,1.16525755E1,4.223826E0,7.6905525E1,8.079884E0,5.2834606E0,2.117607E1],"tree_param":{"num_deleted":"0","num_feature":"16","num_nodes":"97","size_leaf_vector":"1"}},{"base_weights":[5.50089E-3,-3.4146106E-1,1.0103532E0,8.829638E-1,-8.459536E-1,1.2591758E0,-6.243664E-1,-3.43753E-1,1.3774018E0,-1.4209806E0,-3.670287E-1,1.456397E0,7.298279E-1,-1.018274E0,1.0000914E0,6.3755226E-1,-1.2733423E0,6.951199E-1,3.781053E-2,-8.89776E-1,-3.8332168E-2,1.0139439E0,-1.0246971E0,1.9587228E-2,3.7839867E-2,-1.0998069E0,1.0811023E0,1.4807386E-2,-1.1810683E0,5.132745E-3,3.3919107E-2,-9.252883E-1,1.1783544E0,-5.1845217E-1,-3.727794E-2,3.644615E-2,-2.8200338E-2,-1.3959225E0,3.3512644E-2,3.0514136E-1,1.4338026E0,-4.4407943E-1,-1.4229456E0,-1.6581955E-3,-3.5381187E-2,3.433222E-1,1.3749826E0,-3.76876E-2,-4.6710938E-1,4.017988E-3,-3.501992E-2,3.6595862E-2,3.2752532E-1,-3.2666314E-2,2.2310814E-2,-3.7795432E-2,-1.4207227E-2,1.3393629E0,-1.2363497E0,3.8130455E-2,7.247326E-1,-1.314499E0,1.0115862E0,-3.802589E-2,-7.34597E-1,3.4000583E-2,-1.0567155E0,3.7121955E-2,7.912693E-3,2.1618897E-2,-3.5578545E-2,-2.456557E-2,3.2310374E-2,3.600323E-2,1.4909266E-2,-9.473558E-3,-3.7815686E-2,2.784376E-2,3.9600288E-3,-3.7289254E-2,-8.64419E-3,5.958151E-3,3.7040826E-2,2.3993956E-2,-3.4780424E-2,-9.528909E-3,-3.3341005E-2],"categories":[],"categories_nodes":[],"categories_segments":[],"categories_sizes":[],"default_left":[0,0,0,0,0,0,0,0,0,0,0,0,0,0,0,0,0,0,0,0,0,0,0,0,0,0,0,0,0,0,0,0,0,0,0,0,0,0,0,0,0,0,0,0,0,0,0,0,0,0,0,0,0,0,0,0,0,0,0,0,0,0,0,0,0,0,0,0,0,0,0,0,0,0,0,0,0,0,0,0,0,0,0,0,0,0,0],"id":16,"left_children":[1,3,5,7,9,11,13,15,17,19,21,23,25,27,29,31,33,35,-1,37,-1,39,41,-1,-1,43,45,-1,47,-1,-1,49,51,53,-1,-1,-1,55,-1,57,59,61,63,-1,-1,65,67,-1,69,-1,-1,-1,71,-1,-1,-1,-1,73,75,-1,77,79,81,-1,83,-1,85,-1,-1,-1,-1,-1,-1,-1,-1,-1,-1,-1,-1,-1,-1,-1,-1,-1,-1,-1,-1],"loss_changes":[3.2949213E2,4.3469763E2,9.944966E1,1.2510434E2,1.366337E2,2.0949554E1,2.1950233E1,5.5388226E1,7.8559265E0,6.5213013E0,2.4904712E2,3.8726807E-2,3.9261574E1,7.631735E0,1.4771562E0,2.6252502E1,3.2856865E0,2.5656841E1,0E0,3.200191E1,0E0,2.59282E1,4.2255432E1,0E0,0E0,2.739828E0,1.0412487E1,0E0,4.2523384E0,0E0,0E0,4.052974E0,4.153885E0,8.678743E0,0E0,0E0,0E0,5.2233505E-1,0E0,5.622302E1,6.835251E-1,9.87821E1,2.8012695E0,0E0,0E0,2.2734015E1,2.0058212E0,0E0,1.1187873E1,0E0,0E0,0E0,8.623999E0,0E0,0E0,0E0,0E0,9.72023E-2,2.3116302E0,0E0,8.9750314E-1,5.764679E0,9.395824E0,0E0,1.1089468E1,0E0,6.536455E-1,0E0,0E0,0E0,0E0,0E0,0E0,0E0,0E0,0E0,0E0,0E0,0E0,0E0,0E0,0E0,0E0,0E0,0E0,0E0,0E0],"parents":[2147483647,0,0,1,1,2,2,3,3,4,4,5,5,6,6,7,7,8,8,9,9,10,10,11,11,12,12,13,13,14,14,15,15,16,16,17,17,19,19,21,21,22,22,25,25,26,26,28,28,31,31,32,32,33,33,37,37,39,39,40,40,41,41,42,42,45,45,46,46,48,48,52,52,57,57,58,58,60,60,61,61,62,62,64,64,66,66],"right_children":[2,4,6,8,10,12,14,16,18,20,22,24,26,28,30,32,34,36,-1,38,-1,40,42,-1,-1,44,46,-1,48,-1,-1,50,52,54,-1,-1,-1,56,-1,58,60,62,64,-1,-1,66,68,-1,70,-1,-1,-1,72,-1,-1,-1,-1,74,76,-1,78,80,82,-1,84,-1,86,-1,-1,-1,-1,-1,-1,-1,-1,-1,-1,-1,-1,-1,-1,-1,-1,-1,-1,-1,-1],"split_conditions":[1.9714771E-1,3.108703E-2,2.1383114E0,2.4400955E-2,5.8524407E-2,1.915977E-1,4.3728745E-1,1.320136E-2,3.0362481E-2,3.762157E-2,8.216042E-2,2.0017539E-1,2.6102906E-1,2.1099216E-1,1.23796426E-1,7.14798E-3,1.6918154E-2,2.1361668E-2,3.781053E-2,4.1185897E-2,-3.8332168E-2,8.135845E-2,1.3400735E-1,1.9587228E-2,3.7839867E-2,1.8E3,3.4225845E-1,1.4807386E-2,3.170861E-1,5.132745E-3,3.3919107E-2,4.146075E-3,9.483898E-3,1.5355938E-2,-3.727794E-2,3.644615E-2,-2.8200338E-2,3.6825676E-2,3.3512644E-2,6.009836E-2,7.957484E-2,1.18805595E-1,1.8288934E-1,-1.6581955E-3,-3.5381187E-2,2.505687E-1,4.732517E-1,-3.76876E-2,3.0826098E-1,4.017988E-3,-3.501992E-2,3.6595862E-2,1.2355427E-2,-3.2666314E-2,2.2310814E-2,-3.7795432E-2,-1.4207227E-2,5.494844E-2,6.628851E-2,3.8130455E-2,1.75E0,1.10916175E-1,1.4186743E-1,-3.802589E-2,1.7711367E-1,3.4000583E-2,1.5428572E0,3.7121955E-2,7.912693E-3,2.1618897E-2,-3.5578545E-2,-2.456557E-2,3.2310374E-2,3.600323E-2,1.4909266E-2,-9.473558E-3,-3.7815686E-2,2.784376E-2,3.9600288E-3,-3.7289254E-2,-8.64419E-3,5.958151E-3,3.7040826E-2,2.3993956E-2,-3.4780424E-2,-9.528909E-3,-3.3341005E-2],"split_indices":[0,1,4,0,0,1,0,1,0,1,1,0,0,1,10,0,1,1,0,0,0,0,1,0,0,12,0,0,0,0,0,1,1,0,0,0,0,2,0,1,1,0,0,0,0,1,5,0,1,0,0,0,0,0,0,0,0,1,1,0,6,0,0,0,1,0,4,0,0,0,0,0,0,0,0,0,0,0,0,0,0,0,0,0,0,0,0],"split_type":[0,0,0,0,0,0,0,0,0,0,0,0,0,0,0,0,0,0,0,0,0,0,0,0,0,0,0,0,0,0,0,0,0,0,0,0,0,0,0,0,0,0,0,0,0,0,0,0,0,0,0,0,0,0,0,0,0,0,0,0,0,0,0,0,0,0,0,0,0,0,0,0,0,0,0,0,0,0,0,0,0,0,0,0,0,0,0],"sum_hessian":[9.4307385E2,7.0151154E2,2.415623E2,2.044799E2,4.9703165E2,2.0985045E2,3.1711853E1,5.882872E1,1.4565118E2,2.2496167E2,2.7206998E2,1.5161232E2,5.8238132E1,2.5823248E1,5.888604E0,2.8771122E1,3.0057596E1,1.7773445E1,1.2787774E2,2.6243753E1,1.9871791E2,8.759538E1,1.8447461E2,3.4109578E0,1.4820137E2,9.037071E0,4.920106E1,2.1607027E0,2.3662546E1,2.1230803E0,3.765524E0,7.2136774E0,2.1557446E1,6.325485E0,2.3732111E1,1.2831689E1,4.9417567E0,2.1609932E1,4.633822E0,3.3227585E1,5.43678E1,7.591343E1,1.0856117E2,2.1377609E0,6.89931E0,1.4633139E1,3.4567924E1,1.6240492E1,7.4220524E0,2.2445104E0,4.969167E0,1.628392E1,5.273525E0,4.1602545E0,2.1652308E0,1.9287266E1,2.322667E0,1.9964243E1,1.3263341E1,5.0122654E1,4.245147E0,4.7567364E1,2.8346067E1,9.9940994E1,8.620179E0,8.660154E0,5.9729853E0,3.2273994E1,2.293929E0,3.0869863E0,4.3350663E0,2.2002797E0,3.0732455E0,1.7805164E1,2.1590798E0,3.3187728E0,9.944568E0,2.069233E0,2.1759145E0,4.152039E1,6.0469713E0,1.0531957E1,1.7814112E1,2.183677E0,6.4365025E0,2.1830819E0,3.7899032E0],"tree_param":{"num_deleted":"0",