{"learner":{"attributes":{"best_iteration":"221","best_score":"0.02125475903043419","scikit_learn":"{\"_estimator_type\": \"classifier\"}"},"feature_names":["xg_p90","xa_p90","npxg_p90","shots_p90","key_passes_p90","xg_buildup_p90","tackles_per_90","interceptions_per_90","clearances_per_90","fouls_p90","yellow_cards_p90","red_cards_p90","minutes","pos_FWD","pos_MID","pos_DEF"],"feature_types":["float","float","float","float","float","float","float","float","float","float","float","float","int","i","i","i"],"gradient_booster":{"model":{"cats":{"enc":[],"feature_segments":[],"sorted_idx":[]},"gbtree_model_param":{"num_parallel_tree":"1","num_trees":"272"},"iteration_indptr":[0,1,2,3,4,5,6,7,8,9,10,11,12,13,14,15,16,17,18,19,20,21,22,23,24,25,26,27,28,29,30,31,32,33,34,35,36,37,38,39,40,41,42,43,44,45,46,47,48,49,50,51,52,53,54,55,56,57,58,59,60,61,62,63,64,65,66,67,68,69,70,71,72,73,74,75,76,77,78,79,80,81,82,83,84,85,86,87,88,89,90,91,92,93,94,95,96,97,98,99,100,101,102,103,104,105,106,107,108,109,110,111,112,113,114,115,116,117,118,119,120,121,122,123,124,125,126,127,128,129,130,131,132,133,134,135,136,137,138,139,140,141,142,143,144,145,146,147,148,149,150,151,152,153,154,155,156,157,158,159,160,161,162,163,164,165,166,167,168,169,170,171,172,173,174,175,176,177,178,179,180,181,182,183,184,185,186,187,188,189,190,191,192,193,194,195,196,197,198,199,200,201,202,203,204,205,206,207,208,209,210,211,212,213,214,215,216,217,218,219,220,221,222,223,224,225,226,227,228,229,230,231,232,233,234,235,236,237,238,239,240,241,242,243,244,245,246,247,248,249,250,251,252,253,254,255,256,257,258,259,260,261,262,263,264,265,266,267,268,269,270,271,272],"tree_info":[0,0,0,0,0,0,0,0,0,0,0,0,0,0,0,0,0,0,0,0,0,0,0,0,0,0,0,0,0,0,0,0,0,0,0,0,0,0,0,0,0,0,0,0,0,0,0,0,0,0,0,0,0,0,0,0,0,0,0,0,0,0,0,0,0,0,0,0,0,0,0,0,0,0,0,0,0,0,0,0,0,0,0,0,0,0,0,0,0,0,0,0,0,0,0,0,0,0,0,0,0,0,0,0,0,0,0,0,0,0,0,0,0,0,0,0,0,0,0,0,0,0,0,0,0,0,0,0,0,0,0,0,0,0,0,0,0,0,0,0,0,0,0,0,0,0,0,0,0,0,0,0,0,0,0,0,0,0,0,0,0,0,0,0,0,0,0,0,0,0,0,0,0,0,0,0,0,0,0,0,0,0,0,0,0,0,0,0,0,0,0,0,0,0,0,0,0,0,0,0,0,0,0,0,0,0,0,0,0,0,0,0,0,0,0,0,0,0,0,0,0,0,0,0,0,0,0,0,0,0,0,0,0,0,0,0,0,0,0,0,0,0,0,0,0,0,0,0,0,0,0,0,0,0,0,0,0,0,0,0,0,0,0,0,0,0,0,0,0,0,0,0],"trees":[{"base_weights":[2.6302962E-3,-1.3641768E0,1.6232982E0,-1.8701302E0,1.0544672E0,-8.170402E-1,1.9208268E0,-2.0773584E-1,-9.901967E-1,-8.331209E-1,1.65241E0,-1.7699971E0,1.5258248E0,1.1237586E0,2.1608764E-1,-1.9818464E-1,1.7519145E-1,-1.8549825E-1,1.7193323E-1,3.613743E-2,1.997524E-1,-2.0207384E-1,-1.1607472E-1,8.617278E-2,1.9656025E-1,-1.5806897E-1,2.0718467E-1],"categories":[],"categories_nodes":[],"categories_segments":[],"categories_sizes":[],"default_left":[0,0,0,0,0,0,0,0,0,0,0,0,0,0,0,0,0,0,0,0,0,0,0,0,0,0,0],"id":0,"left_children":[1,3,5,7,9,11,13,-1,15,17,19,21,23,25,-1,-1,-1,-1,-1,-1,-1,-1,-1,-1,-1,-1,-1],"loss_changes":[2.2732908E3,6.832538E2,3.4247534E2,2.8488281E1,1.1080491E2,1.1818521E2,3.194812E1,0E0,9.009157E1,5.576371E1,2.0553024E1,1.0498123E0,2.0199547E0,1.0908665E2,0E0,0E0,0E0,0E0,0E0,0E0,0E0,0E0,0E0,0E0,0E0,0E0,0E0],"parents":[2147483647,0,0,1,1,2,2,3,3,4,4,5,5,6,6,8,8,9,9,10,10,11,11,12,12,13,13],"right_children":[2,4,6,8,10,12,14,-1,16,18,20,22,24,26,-1,-1,-1,-1,-1,-1,-1,-1,-1,-1,-1,-1,-1],"split_conditions":[1.43E0,1.11E0,6.3E-1,9.7E-1,9.6E-1,1.84E0,7.9E-1,-2.0773584E-1,1.3E0,1.53E0,1.18E0,1.72E0,4.7E-1,1.62E0,2.1608764E-1,-1.9818464E-1,1.7519145E-1,-1.8549825E-1,1.7193323E-1,3.613743E-2,1.997524E-1,-2.0207384E-1,-1.1607472E-1,8.617278E-2,1.9656025E-1,-1.5806897E-1,2.0718467E-1],"split_indices":[6,7,7,7,6,6,7,0,6,7,7,6,7,6,0,0,0,0,0,0,0,0,0,0,0,0,0],"split_type":[0,0,0,0,0,0,0,0,0,0,0,0,0,0,0,0,0,0,0,0,0,0,0,0,0,0,0],"sum_hessian":[1.0242516E3,5.5572955E2,4.68522E2,4.5977628E2,9.595331E1,5.0725315E1,4.177967E2,4.2254437E2,3.7231884E1,2.2988813E1,7.296449E1,3.623237E1,1.4492948E1,4.8976166E1,3.6882053E2,2.823626E1,8.995623E0,1.6991732E1,5.9970818E0,1.0744772E1,6.2219723E1,2.9235773E1,6.9965954E0,5.497325E0,8.995623E0,1.1494407E1,3.7481762E1],"tree_param":{"num_deleted":"0","num_feature":"16","num_nodes":"27","size_leaf_vector":"1"}},{"base_weights":[1.4972643E-4,-1.2353382E0,1.4600854E0,-1.7041272E0,9.795831E-1,-7.573725E-1,1.7271773E0,-1.8910581E-1,-1.014517E0,-6.992348E-1,1.4919449E0,-1.6120788E0,1.3743557E0,1.0327361E0,1.9501597E-1,-1.7846023E-1,1.3267922E-1,-1.6247472E-1,1.5668635E-1,1.0483253E-2,1.8203548E-1,-1.8405998E-1,-1.00376636E-1,7.902532E-2,1.7949042E-1,-1.4248051E-1,1.8774928E-1],"categories":[],"categories_nodes":[],"categories_segments":[],"categories_sizes":[],"default_left":[0,0,0,0,0,0,0,0,0,0,0,0,0,0,0,0,0,0,0,0,0,0,0,0,0,0,0],"id":1,"left_children":[1,3,5,7,9,11,13,-1,15,17,19,21,23,25,-1,-1,-1,-1,-1,-1,-1,-1,-1,-1,-1,-1,-1],"loss_changes":[1.848916E3,5.781535E2,2.7958203E2,1.9256958E1,8.5010124E1,9.550972E1,2.692456E1,0E0,6.536372E1,4.4097126E1,2.2084381E1,1.15094E0,1.708971E0,9.606871E1,0E0,0E0,0E0,0E0,0E0,0E0,0E0,0E0,0E0,0E0,0E0,0E0,0E0],"parents":[2147483647,0,0,1,1,2,2,3,3,4,4,5,5,6,6,8,8,9,9,10,10,11,11,12,12,13,13],"right_children":[2,4,6,8,10,12,14,-1,16,18,20,22,24,26,-1,-1,-1,-1,-1,-1,-1,-1,-1,-1,-1,-1,-1],"split_conditions":[1.43E0,1.11E0,6.2E-1,9.5E-1,9.6E-1,1.85E0,8E-1,-1.8910581E-1,1.3E0,1.53E0,1.18E0,1.72E0,2E0,1.62E0,1.9501597E-1,-1.7846023E-1,1.3267922E-1,-1.6247472E-1,1.5668635E-1,1.0483253E-2,1.8203548E-1,-1.8405998E-1,-1.00376636E-1,7.902532E-2,1.7949042E-1,-1.4248051E-1,1.8774928E-1],"split_indices":[6,7,7,7,6,6,7,0,6,7,7,6,6,6,0,0,0,0,0,0,0,0,0,0,0,0,0],"split_type":[0,0,0,0,0,0,0,0,0,0,0,0,0,0,0,0,0,0,0,0,0,0,0,0,0,0,0],"sum_hessian":[1.0230498E3,5.542029E2,4.6884692E2,4.5758536E2,9.6617516E1,5.0204216E1,4.186427E2,4.1587067E2,4.1714706E1,2.2506716E1,7.41108E1,3.6009964E1,1.4194253E1,5.3598454E1,3.6504425E2,3.2515736E1,9.198973E0,1.6531155E1,5.975559E0,9.999841E0,6.411096E1,2.9549997E1,6.4599667E0,5.7340937E0,8.460159E0,1.2374704E1,4.122375E1],"tree_param":{"num_deleted":"0","num_feature":"16","num_nodes":"27","size_leaf_vector":"1"}},{"base_weights":[-1.7897049E-2,-1.2077647E0,1.2779721E0,-1.5771941E0,1.022122E0,-8.5728776E-1,1.5593891E0,-1.74151E-1,-8.987459E-1,-5.1269084E-1,1.5404747E0,-1.5137792E0,1.2359378E0,9.02967E-1,1.7855984E-1,-1.6035114E-1,1.6501729E-1,-1.5041266E-1,1.444262E-1,9.780765E-2,1.789213E-1,-1.7135134E-1,-9.126284E-2,6.3317284E-2,1.6537277E-1,-1.0803842E-1,1.7337331E-1],"categories":[],"categories_nodes":[],"categories_segments":[],"categories_sizes":[],"default_left":[0,0,0,0,0,0,0,0,0,0,0,0,0,0,0,0,0,0,0,0,0,0,0,0,0,0,0],"id":2,"left_children":[1,3,5,7,9,11,13,-1,15,17,19,21,23,25,-1,-1,-1,-1,-1,-1,-1,-1,-1,-1,-1,-1,-1],"loss_changes":[1.5439396E3,4.316278E2,2.893559E2,1.4795654E1,6.0295776E1,7.945792E1,2.9808472E1,0E0,5.3836227E1,3.4703133E1,3.1969147E0,1.2250443E0,1.9017925E0,9.021827E1,0E0,0E0,0E0,0E0,0E0,0E0,0E0,0E0,0E0,0E0,0E0,0E0,0E0],"parents":[2147483647,0,0,1,1,2,2,3,3,4,4,5,5,6,6,8,8,9,9,10,10,11,11,12,12,13,13],"right_children":[2,4,6,8,10,12,14,-1,16,18,20,22,24,26,-1,-1,-1,-1,-1,-1,-1,-1,-1,-1,-1,-1,-1],"split_conditions":[1.4E0,1.18E0,6.2E-1,1.01E0,9.6E-1,1.84E0,8.2E-1,-1.74151E-1,1.25E0,1.53E0,1.06E0,1.72E0,4.9E-1,1.62E0,1.7855984E-1,-1.6035114E-1,1.6501729E-1,-1.5041266E-1,1.444262E-1,9.780765E-2,1.789213E-1,-1.7135134E-1,-9.126284E-2,6.3317284E-2,1.6537277E-1,-1.0803842E-1,1.7337331E-1],"split_indices":[6,7,7,7,6,6,7,0,6,7,6,6,7,6,0,0,0,0,0,0,0,0,0,0,0,0,0],"split_type":[0,0,0,0,0,0,0,0,0,0,0,0,0,0,0,0,0,0,0,0,0,0,0,0,0,0,0],"sum_hessian":[9.993135E2,5.209995E2,4.7831396E2,4.4720322E2,7.3796265E1,5.546037E1,4.228536E2,4.1322845E2,3.397476E1,1.8633738E1,5.5162525E1,4.2430008E1,1.3030362E1,6.3217575E1,3.5963602E2,2.7562876E1,6.411882E0,1.2753535E1,5.880203E0,1.1178309E1,4.3984215E1,3.6039097E1,6.39091E0,5.2091656E0,7.821197E0,1.71734E1,4.6044174E1],"tree_param":{"num_deleted":"0","num_feature":"16","num_nodes":"27","size_leaf_vector":"1"}},{"base_weights":[7.1867215E-3,-1.1406946E0,1.1987619E0,-1.4969131E0,7.884361E-1,-7.0784605E-1,1.4391571E0,-1.5267786E0,-9.493727E-1,-4.243141E-1,1.3211734E0,-1.3280765E0,1.4165324E-1,8.100374E-1,1.5526395E0,-1.6427319E-1,-1.1807631E-1,-1.5954527E-1,9.925181E-2,-1.5726408E-1,1.1617229E-1,2.9945096E-2,1.5834358E-1,-1.621966E-1,-5.705086E-2,-1.12309486E-1,1.6192529E-1,1.3627225E-1,1.6845712E-1],"categories":[],"categories_nodes":[],"categories_segments":[],"categories_sizes":[],"default_left":[0,0,0,0,0,0,0,0,0,0,0,0,0,0,0,0,0,0,0,0,0,0,0,0,0,0,0,0,0],"id":3,"left_children":[1,3,5,7,9,11,13,15,17,19,21,23,-1,25,27,-1,-1,-1,-1,-1,-1,-1,-1,-1,-1,-1,-1,-1,-1],"loss_changes":[1.3152822E3,3.377599E2,2.1727417E2,5.3170166E0,5.0307747E1,6.926097E1,2.8679565E1,1.7559814E-1,2.5989183E1,4.005089E1,8.6165085E0,5.469902E0,0E0,8.8583725E1,4.088745E-1,0E0,0E0,0E0,0E0,0E0,0E0,0E0,0E0,0E0,0E0,0E0,0E0,0E0,0E0],"parents":[2147483647,0,0,1,1,2,2,3,3,4,4,5,5,6,6,7,7,8,8,9,9,10,10,11,11,13,13,14,14],"right_children":[2,4,6,8,10,12,14,16,18,20,22,24,-1,26,28,-1,-1,-1,-1,-1,-1,-1,-1,-1,-1,-1,-1,-1,-1],"split_conditions":[1.39E0,1.12E0,6.2E-1,1.01E0,1E0,1.91E0,8.2E-1,1.35E0,1.24E0,1.44E0,1.18E0,5.6E-1,1.4165324E-1,1.62E0,9.1E-1,-1.6427319E-1,-1.1807631E-1,-1.5954527E-1,9.925181E-2,-1.5726408E-1,1.1617229E-1,2.9945096E-2,1.5834358E-1,-1.621966E-1,-5.705086E-2,-1.12309486E-1,1.6192529E-1,1.3627225E-1,1.6845712E-1],"split_indices":[6,7,7,7,6,6,7,6,6,7,7,7,0,6,7,0,0,0,0,0,0,0,0,0,0,0,0,0,0],"split_type":[0,0,0,0,0,0,0,0,0,0,0,0,0,0,0,0,0,0,0,0,0,0,0,0,0,0,0,0,0],"sum_hessian":[9.5961365E2,4.887899E2,4.7082376E2,4.127911E2,7.599877E1,5.2499382E1,4.1832437E2,3.8974414E2,2.3046978E1,2.3257572E1,5.2741203E1,4.0498577E1,1.2000806E1,6.5170746E1,3.5315363E2,3.7689008E2,1.2854055E1,1.8026834E1,5.0201435E0,1.3751056E1,9.5065155E0,7.4515276E0,4.5289677E1,3.191967E1,8.578906E0,1.778766E1,4.7383083E1,3.3279358E1,3.1987427E2],"tree_param":{"num_deleted":"0","num_feature":"16","num_nodes":"29","size_leaf_vector":"1"}},{"base_weights":[2.5355888E-3,-9.483239E-1,1.2406799E0,-1.3661926E0,8.478147E-1,-5.865523E-1,1.4296905E0,-1.5471686E-1,-6.8910635E-1,-2.3382725E-1,1.414839E0,-1.4345363E-1,1.1007177E0,9.7749895E-1,1.586292E-1,-1.5288118E-1,1.0147136E-1,-1.611061E-1,1.052985E-1,9.0371504E-2,1.6240902E-1,6.690122E-2,1.4402534E-1,-8.7942936E-2,1.584655E-1],"categories":[],"categories_nodes":[],"categories_segments":[],"categories_sizes":[],"default_left":[0,0,0,0,0,0,0,0,0,0,0,0,0,0,0,0,0,0,0,0,0,0,0,0,0],"id":4,"left_children":[1,3,5,7,9,11,13,-1,15,17,19,-1,21,23,-1,-1,-1,-1,-1,-1,-1,-1,-1,-1,-1],"loss_changes":[1.0746525E3,3.886711E2,1.3777814E2,2.2421875E1,6.047503E1,4.983976E1,7.5963745E0,0E0,5.9098793E1,5.5262684E1,2.595459E0,0E0,5.985565E-1,3.9816944E1,0E0,0E0,0E0,0E0,0E0,0E0,0E0,0E0,0E0,0E0,0E0],"parents":[2147483647,0,0,1,1,2,2,3,3,4,4,5,5,6,6,8,8,9,9,10,10,12,12,13,13],"right_children":[2,4,6,8,10,12,14,-1,16,18,20,-1,22,24,-1,-1,-1,-1,-1,-1,-1,-1,-1,-1,-1],"split_conditions":[1.48E0,1.11E0,6.1E-1,9.2E-1,1.07E0,1.85E0,7.8E-1,-1.5471686E-1,1.28E0,1.35E0,1.15E0,-1.4345363E-1,4.9E-1,1.64E0,1.586292E-1,-1.5288118E-1,1.0147136E-1,-1.611061E-1,1.052985E-1,9.0371504E-2,1.6240902E-1,6.690122E-2,1.4402534E-1,-8.7942936E-2,1.584655E-1],"split_indices":[6,7,7,7,6,6,7,0,6,7,6,0,7,6,0,0,0,0,0,0,0,0,0,0,0],"split_type":[0,0,0,0,0,0,0,0,0,0,0,0,0,0,0,0,0,0,0,0,0,0,0,0,0],"sum_hessian":[9.1081067E2,5.153051E2,3.9550555E2,4.1824133E2,9.706378E1,3.6879086E1,3.5862646E2,3.7179694E2,4.644442E1,3.358516E1,6.347862E1,2.5601572E1,1.1277513E1,4.1327385E1,3.1729907E2,3.2054024E1,1.4390394E1,1.6307238E1,1.727792E1,1.1376127E1,5.2102493E1,5.0815344E0,6.1959786E0,8.931335E0,3.239605E1],"tree_param":{"num_deleted":"0","num_feature":"16","num_nodes":"25","size_leaf_vector":"1"}},{"base_weights":[-3.3595266E-3,-9.753604E-1,1.1109432E0,-1.3308768E0,7.443597E-1,-6.69244E-1,1.3236938E0,-1.4841563E-1,-6.986031E-1,-7.5208485E-1,1.0700266E0,-1.2963184E0,9.232434E-1,7.9543674E-1,1.5031803E-1,-1.4182188E-1,1.3859622E-1,-1.382227E-1,1.9376593E-2,5.6335934E-2,1.5302068E-1,-1.4694844E-1,-8.1848495E-2,2.9417004E-2,1.3953663E-1,-8.523735E-2,1.5066904E-1],"categories":[],"categories_nodes":[],"categories_segments":[],"categories_sizes":[],"default_left":[0,0,0,0,0,0,0,0,0,0,0,0,0,0,0,0,0,0,0,0,0,0,0,0,0,0,0],"id":5,"left_children":[1,3,5,7,9,11,13,-1,15,17,19,21,23,25,-1,-1,-1,-1,-1,-1,-1,-1,-1,-1,-1,-1,-1],"loss_changes":[9.344158E2,2.8270673E2,1.5311493E2,1.3243225E1,3.958716E1,4.470834E1,1.4791809E1,0E0,4.512E1,7.7307854E0,1.2188881E1,2.823906E-1,2.8418407E0,5.163766E1,0E0,0E0,0E0,0E0,0E0,0E0,0E0,0E0,0E0,0E0,0E0,0E0,0E0],"parents":[2147483647,0,0,1,1,2,2,3,3,4,4,5,5,6,6,8,8,9,9,10,10,11,11,12,12,13,13],"right_children":[2,4,6,8,10,12,14,-1,16,18,20,22,24,26,-1,-1,-1,-1,-1,-1,-1,-1,-1,-1,-1,-1,-1],"split_conditions":[1.43E0,1.12E0,6.1E-1,9.7E-1,9E-1,1.85E0,8E-1,-1.4841563E-1,1.31E0,1.43E0,1.15E0,5.6E-1,4.5E-1,1.64E0,1.5031803E-1,-1.4182188E-1,1.3859622E-1,-1.382227E-1,1.9376593E-2,5.6335934E-2,1.5302068E-1,-1.4694844E-1,-8.1848495E-2,2.9417004E-2,1.3953663E-1,-8.523735E-2,1.5066904E-1],"split_indices":[6,7,7,7,6,6,7,0,6,7,6,7,7,6,0,0,0,0,0,0,0,0,0,0,0,0,0],"split_type":[0,0,0,0,0,0,0,0,0,0,0,0,0,0,0,0,0,0,0,0,0,0,0,0,0,0,0],"sum_hessian":[8.607205E2,4.597807E2,4.009398E2,3.8120135E2,7.857935E1,4.2572174E1,3.583676E2,3.4766116E2,3.35402E1,1.3810506E1,6.4768845E1,3.0678045E1,1.1894127E1,5.0510353E1,3.0785727E2,2.5755554E1,7.784644E0,8.492059E0,5.3184466E0,2.6938473E1,3.7830376E1,2.5282047E1,5.395998E0,5.060512E0,6.8336153E0,1.3988399E1,3.6521954E1],"tree_param":{"num_deleted":"0","num_feature":"16","num_nodes":"27","size_leaf_vector":"1"}},{"base_weights":[-9.523363E-3,-8.8946E-1,1.1188635E0,-1.2506491E0,7.304774E-1,-5.293769E-1,1.2988E0,-1.3232446E0,-5.942918E-1,-1.7567354E-1,1.2484673E0,-1.1769195E0,1.2392695E-1,7.8407323E-1,1.3488383E0,-1.4324513E-1,-1.0406738E-1,-1.342734E-1,1.2688652E-1,-1.4470904E-1,8.275777E-2,3.3298824E-2,1.4526859E-1,-1.3963184E-1,-5.6360774E-2,-1.144384E-1,1.430194E-1,1.0013341E-1,1.4557189E-1],"categories":[],"categories_nodes":[],"categories_segments":[],"categories_sizes":[],"default_left":[0,0,0,0,0,0,0,0,0,0,0,0,0,0,0,0,0,0,0,0,0,0,0,0,0,0,0,0,0],"id":6,"left_children":[1,3,5,7,9,11,13,15,17,19,21,23,-1,25,27,-1,-1,-1,-1,-1,-1,-1,-1,-1,-1,-1,-1,-1,-1],"loss_changes":[8.027032E2,2.6667804E2,1.0574042E2,1.6928223E1,3.9385075E1,4.0290516E1,7.175171E0,7.939453E-1,4.7390995E1,3.6055645E1,5.1467133E0,1.5313721E0,0E0,3.3066345E1,4.1864014E-1,0E0,0E0,0E0,0E0,0E0,0E0,0E0,0E0,0E0,0E0,0E0,0E0,0E0,0E0],"parents":[2147483647,0,0,1,1,2,2,3,3,4,4,5,5,6,6,7,7,8,8,9,9,10,10,11,11,13,13,14,14],"right_children":[2,4,6,8,10,12,14,16,18,20,22,24,-1,26,28,-1,-1,-1,-1,-1,-1,-1,-1,-1,-1,-1,-1,-1,-1],"split_conditions":[1.48E0,1.12E0,6.1E-1,9.5E-1,1.08E0,1.91E0,7.4E-1,8.8E-1,1.3E0,1.34E0,1.15E0,5.6E-1,1.2392695E-1,1.64E0,1.52E0,-1.4324513E-1,-1.0406738E-1,-1.342734E-1,1.2688652E-1,-1.4470904E-1,8.275777E-2,3.3298824E-2,1.4526859E-1,-1.3963184E-1,-5.6360774E-2,-1.144384E-1,1.430194E-1,1.0013341E-1,1.4557189E-1],"split_indices":[6,7,7,7,6,6,7,7,6,7,7,7,0,6,6,0,0,0,0,0,0,0,0,0,0,0,0,0,0],"split_type":[0,0,0,0,0,0,0,0,0,0,0,0,0,0,0,0,0,0,0,0,0,0,0,0,0,0,0,0,0],"sum_hessian":[8.064336E2,4.532178E2,3.532158E2,3.7077582E2,8.2441986E1,3.457379E1,3.18642E2,3.3293582E2,3.7839993E1,3.0226246E1,5.2215736E1,2.5214697E1,9.359094E0,2.9708673E1,2.8893332E2,3.1386023E2,1.9075579E1,2.7795696E1,1.0044296E1,1.3300204E1,1.6926043E1,5.9701037E0,4.6245632E1,2.0149343E1,5.065353E0,6.626527E0,2.3082146E1,1.1900911E1,2.770324E2],"tree_param":{"num_deleted":"0","num_feature":"16","num_nodes":"29","size_leaf_vector":"1"}},{"base_weights":[-1.1769905E-2,-9.457857E-1,9.518764E-1,-1.2230515E0,6.9486105E-1,-6.541462E-1,1.1839639E0,-1.2763927E0,-5.803693E-1,-2.9244825E-1,1.1778902E0,-1.1946039E0,8.597244E-1,7.0104825E-1,1.2920194E0,-1.3741894E-1,-5.963973E-2,-1.4237435E-1,1.17513716E-1,-1.3225444E-1,8.926397E-2,6.299965E-2,1.4070733E-1,-1.3610342E-1,-6.7133665E-2,2.5080865E-2,1.304593E-1,-1.4608498E-1,1.15452215E-1,8.2810394E-2,1.3909721E-1],"categories":[],"categories_nodes":[],"categories_segments":[],"categories_sizes":[],"default_left":[0,0,0,0,0,0,0,0,0,0,0,0,0,0,0,0,0,0,0,0,0,0,0,0,0,0,0,0,0,0,0],"id":7,"left_children":[1,3,5,7,9,11,13,15,17,19,21,23,25,27,29,-1,-1,-1,-1,-1,-1,-1,-1,-1,-1,-1,-1,-1,-1,-1,-1],"loss_changes":[6.877146E2,1.7734775E2,1.4095322E2,1.064978E1,2.7398487E1,4.0405678E1,1.6259338E1,1.5518494E0,3.6003357E1,2.1779898E1,2.3665466E0,8.1986237E-1,2.707529E0,5.048319E1,4.3115234E-1,0E0,0E0,0E0,0E0,0E0,0E0,0E0,0E0,0E0,0E0,0E0,0E0,0E0,0E0,0E0,0E0],"parents":[2147483647,0,0,1,1,2,2,3,3,4,4,5,5,6,6,7,7,8,8,9,9,10,10,11,11,12,12,13,13,14,14],"right_children":[2,4,6,8,10,12,14,16,18,20,22,24,26,28,30,-1,-1,-1,-1,-1,-1,-1,-1,-1,-1,-1,-1,-1,-1,-1,-1],"split_conditions":[1.39E0,1.18E0,6.2E-1,1.02E0,1E0,1.84E0,8.5E-1,1.37E0,1.21E0,1.44E0,1.27E0,1.72E0,4.9E-1,1.52E0,1.41E0,-1.3741894E-1,-5.963973E-2,-1.4237435E-1,1.17513716E-1,-1.3225444E-1,8.926397E-2,6.299965E-2,1.4070733E-1,-1.3610342E-1,-6.7133665E-2,2.5080865E-2,1.304593E-1,-1.4608498E-1,1.15452215E-1,8.2810394E-2,1.3909721E-1],"split_indices":[6,7,7,7,6,6,7,6,6,7,7,6,7,6,6,0,0,0,0,0,0,0,0,0,0,0,0,0,0,0,0],"split_type":[0,0,0,0,0,0,0,0,0,0,0,0,0,0,0,0,0,0,0,0,0,0,0,0,0,0,0,0,0,0,0],"sum_hessian":[7.620754E2,3.869967E2,3.7507867E2,3.312677E2,5.572901E1,4.7129387E1,3.2794928E2,3.0496988E2,2.6297821E1,1.8437468E1,3.7291546E1,3.4885883E1,1.2243502E1,6.1332657E1,2.6661664E2,2.99861E2,5.10889E0,1.8305813E1,7.992008E0,9.976122E0,8.461346E0,8.158812E0,2.9132734E1,2.9477829E1,5.4080534E0,5.094509E0,7.1489925E0,9.113477E0,5.221918E1,6.763831E0,2.598528E2],"tree_param":{"num_deleted":"0","num_feature":"16","num_nodes":"31","size_leaf_vector":"1"}},{"base_weights":[-2.512587E-3,-8.458439E-1,9.8470354E-1,-1.1595218E0,7.4543047E-1,-5.762928E-1,1.1793284E0,-1.3374169E-1,-5.027654E-1,-3.650271E-1,1.1216207E0,-1.2541832E-1,7.8040946E-1,5.352266E-1,1.2359352E0,-1.3267715E-1,8.756862E-2,-1.2758428E-1,7.1457446E-2,4.942165E-2,1.3493304E-1,2.3584472E-2,1.2530535E-1,-1.1419407E-1,1.3328734E-1,7.0544325E-2,1.3521376E-1],"categories":[],"categories_nodes":[],"categories_segments":[],"categories_sizes":[],"default_left":[0,0,0,0,0,0,0,0,0,0,0,0,0,0,0,0,0,0,0,0,0,0,0,0,0,0,0],"id":8,"left_children":[1,3,5,7,9,11,13,-1,15,17,19,-1,21,23,25,-1,-1,-1,-1,-1,-1,-1,-1,-1,-1,-1,-1],"loss_changes":[5.944092E2,1.9305554E2,1.0060922E2,1.8991547E1,2.7149536E1,3.1048187E1,1.0013672E1,0E0,4.1644875E1,1.5342953E1,3.9062347E0,0E0,2.3708816E0,3.0403568E1,3.818573E0,0E0,0E0,0E0,0E0,0E0,0E0,0E0,0E0,0E0,0E0,0E0,0E0],"parents":[2147483647,0,0,1,1,2,2,3,3,4,4,5,5,6,6,8,8,9,9,10,10,12,12,13,13,14,14],"right_children":[2,4,6,8,10,12,14,-1,16,18,20,-1,22,24,26,-1,-1,-1,-1,-1,-1,-1,-1,-1,-1,-1,-1],"split_conditions":[1.43E0,1.18E0,6.1E-1,9.5E-1,9.6E-1,1.85E0,7.3E-1,-1.3374169E-1,1.23E0,1.44E0,1.06E0,-1.2541832E-1,2E0,1.64E0,1.49E0,-1.3267715E-1,8.756862E-2,-1.2758428E-1,7.1457446E-2,4.942165E-2,1.3493304E-1,2.3584472E-2,1.2530535E-1,-1.1419407E-1,1.3328734E-1,7.0544325E-2,1.3521376E-1],"split_indices":[6,7,7,7,6,6,7,0,6,7,6,0,6,6,6,0,0,0,0,0,0,0,0,0,0,0,0],"split_type":[0,0,0,0,0,0,0,0,0,0,0,0,0,0,0,0,0,0,0,0,0,0,0,0,0,0,0],"sum_hessian":[7.1196155E2,3.8403882E2,3.279227E2,3.2102792E2,6.3010887E1,3.6135506E1,2.917872E2,2.804977E2,4.0530216E1,1.5952159E1,4.7058727E1,2.517303E1,1.0962476E1,2.4416643E1,2.6737054E2,2.6034494E1,1.4495723E1,8.765169E0,7.1869893E0,9.090862E0,3.7967865E1,5.166371E0,5.796105E0,7.356874E0,1.705977E1,1.4450802E1,2.5291975E2],"tree_param":{"num_deleted":"0","num_feature":"16","num_nodes":"27","size_leaf_vector":"1"}},{"base_weights":[-9.595569E-6,-7.757947E-1,1.007884E0,-1.1389639E0,6.503656E-1,-4.06935E-1,1.1687806E0,-1.2074678E0,-4.433804E-1,-9.558535E-2,9.148768E-1,-1.2678617E-1,6.138067E-1,5.220548E-1,1.2122669E0,-1.3093811E-1,-9.640938E-2,-1.2675801E-1,9.737363E-2,4.250211E-2,1.341107E-1,1.28288735E-2,1.2344692E-1,-1.040352E-1,1.2749651E-1,9.367188E-2,1.316503E-1],"categories":[],"categories_nodes":[],"categories_segments":[],"categories_sizes":[],"default_left":[0,0,0,0,0,0,0,0,0,0,0,0,0,0,0,0,0,0,0,0,0,0,0,0,0,0,0],"id":9,"left_children":[1,3,5,7,9,11,13,15,17,-1,19,-1,21,23,25,-1,-1,-1,-1,-1,-1,-1,-1,-1,-1,-1,-1],"loss_changes":[5.149894E2,1.9350107E2,6.56857E1,1.3616547E1,3.1956314E1,2.461514E1,6.608124E0,4.204712E-1,2.9503298E1,0E0,1.1047596E1,0E0,3.5149302E0,1.9232489E1,5.668335E-1,0E0,0E0,0E0,0E0,0E0,0E0,0E0,0E0,0E0,0E0,0E0,0E0],"parents":[2147483647,0,0,1,1,2,2,3,3,4,4,5,5,6,6,7,7,8,8,10,10,12,12,13,13,14,14],"right_children":[2,4,6,8,10,12,14,16,18,-1,20,-1,22,24,26,-1,-1,-1,-1,-1,-1,-1,-1,-1,-1,-1,-1],"split_conditions":[1.48E0,1.11E0,6.1E-1,9.7E-1,8.3E-1,1.78E0,7.1E-1,8.8E-1,1.28E0,-9.558535E-2,1.15E0,-1.2678617E-1,5.1E-1,1.7E0,1.54E0,-1.3093811E-1,-9.640938E-2,-1.2675801E-1,9.737363E-2,4.250211E-2,1.341107E-1,1.28288735E-2,1.2344692E-1,-1.040352E-1,1.2749651E-1,9.367188E-2,1.316503E-1],"split_indices":[6,7,7,7,6,6,7,7,6,0,6,0,7,6,6,0,0,0,0,0,0,0,0,0,0,0,0],"split_type":[0,0,0,0,0,0,0,0,0,0,0,0,0,0,0,0,0,0,0,0,0,0,0,0,0,0,0],"sum_hessian":[6.56631E2,3.7116904E2,2.8546198E2,2.9599564E2,7.517339E1,2.8992428E1,2.5646954E2,2.6878833E2,2.7207296E1,1.0638025E1,6.453537E1,1.6339685E1,1.2652741E1,1.6978062E1,2.3949149E2,2.5049475E2,1.8293583E1,1.7648354E1,9.558943E0,2.6507118E1,3.802825E1,7.2614E0,5.391341E0,5.1213565E0,1.1856706E1,1.6293661E1,2.2319781E2],"tree_param":{"num_deleted":"0","num_feature":"16","num_nodes":"27","size_leaf_vector":"1"}},{"base_weights":[-1.3764498E-3,-8.4028715E-1,8.6059874E-1,-1.143197E0,5.242197E-1,-4.6612817E-1,1.0938191E0,-1.273825E-1,-6.681687E-1,-1.2177042E-1,1.0743637E0,-1.0606451E0,6.534965E-1,6.040589E-1,1.1893116E0,-1.2412855E-1,5.9935182E-2,-1.377794E-1,7.730462E-2,4.559827E-2,1.2682348E-1,-1.269672E-1,-3.882485E-2,5.2480854E-4,1.3312487E-1,-8.07704E-2,1.2328106E-1,7.594596E-2,1.2799025E-1],"categories":[],"categories_nodes":[],"categories_segments":[],"categories_sizes":[],"default_left":[0,0,0,0,0,0,0,0,0,0,0,0,0,0,0,0,0,0,0,0,0,0,0,0,0,0,0,0,0],"id":10,"left_children":[1,3,5,7,9,11,13,-1,15,17,19,21,23,25,27,-1,-1,-1,-1,-1,-1,-1,-1,-1,-1,-1,-1,-1,-1],"loss_changes":[4.3785602E2,1.2743112E2,9.291815E1,5.1216125E0,2.018568E1,3.0880356E1,1.1174744E1,0E0,1.6461086E1,2.7463295E1,1.7330055E0,2.2495232E0,6.281673E0,3.3455093E1,7.235718E-2,0E0,0E0,0E0,0E0,0E0,0E0,0E0,0E0,0E0,0E0,0E0,0E0,0E0,0E0],"parents":[2147483647,0,0,1,1,2,2,3,3,4,4,5,5,6,6,8,8,9,9,10,10,11,11,12,12,13,13,14,14],"right_children":[2,4,6,8,10,12,14,-1,16,18,20,22,24,26,28,-1,-1,-1,-1,-1,-1,-1,-1,-1,-1,-1,-1,-1,-1],"split_conditions":[1.39E0,1.12E0,6.6E-1,9.5E-1,1.07E0,1.78E0,8.5E-1,-1.273825E-1,1.28E0,1.35E0,1.19E0,1.69E0,5.3E-1,1.58E0,1.41E0,-1.2412855E-1,5.9935182E-2,-1.377794E-1,7.730462E-2,4.559827E-2,1.2682348E-1,-1.269672E-1,-3.882485E-2,5.2480854E-4,1.3312487E-1,-8.07704E-2,1.2328106E-1,7.594596E-2,1.2799025E-1],"split_indices":[6,7,7,7,6,6,7,0,6,7,7,6,7,6,6,0,0,0,0,0,0,0,0,0,0,0,0,0,0],"split_type":[0,0,0,0,0,0,0,0,0,0,0,0,0,0,0,0,0,0,0,0,0,0,0,0,0,0,0,0,0],"sum_hessian":[6.035093E2,3.0585928E2,2.9765002E2,2.5042834E2,5.5430927E1,4.4350967E1,2.5329906E2,2.2540353E2,2.5024807E1,2.585276E1,2.9578169E1,2.9003098E1,1.5347869E1,4.2524673E1,2.1077438E2,1.7889265E1,7.1355405E0,1.0634337E1,1.5218422E1,5.110713E0,2.4467455E1,2.3901512E1,5.101587E0,7.812131E0,7.5357385E0,1.2139794E1,3.038488E1,5.4270988E0,2.0534729E2],"tree_param":{"num_deleted":"0","num_feature":"16","num_nodes":"29","size_leaf_vector":"1"}},{"base_weights":[-4.6413513E-3,-7.3052585E-1,9.49202E-1,-1.0796969E0,6.0055614E-1,-4.0519938E-1,1.1098033E0,-1.2513998E-1,-5.8694327E-1,3.9059862E-2,1.2623158E-1,-9.788893E-1,1.02517836E-1,5.4674697E-1,1.1688937E0,-1.174684E-1,8.6662024E-2,-1.2827311E-1,7.011839E-2,-1.1951265E-1,-5.2510202E-2,-9.943883E-2,1.2241774E-1,8.2697384E-2,1.2626156E-1],"categories":[],"categories_nodes":[],"categories_segments":[],"categories_sizes":[],"default_left":[0,0,0,0,0,0,0,0,0,0,0,0,0,0,0,0,0,0,0,0,0,0,0,0,0],"id":11,"left_children":[1,3,5,7,9,11,13,-1,15,17,-1,19,-1,21,23,-1,-1,-1,-1,-1,-1,-1,-1,-1,-1],"loss_changes":[3.9147025E2,1.498696E2,5.359723E1,1.0865723E1,2.194506E1,2.1798286E1,6.6373596E0,0E0,3.1090546E1,2.782259E1,0E0,7.6429176E-1,0E0,2.1135653E1,1.23413086E-1,0E0,0E0,0E0,0E0,0E0,0E0,0E0,0E0,0E0,0E0],"parents":[2147483647,0,0,1,1,2,2,3,3,4,4,5,5,6,6,8,8,9,9,11,11,13,13,14,14],"right_children":[2,4,6,8,10,12,14,-1,16,18,-1,20,-1,22,24,-1,-1,-1,-1,-1,-1,-1,-1,-1,-1],"split_conditions":[1.48E0,1.12E0,6.1E-1,1.31E0,1.15E0,1.91E0,7.4E-1,-1.2513998E-1,9.1E-1,1.3E0,1.2623158E-1,1.75E0,1.02517836E-1,1.64E0,1.52E0,-1.174684E-1,8.6662024E-2,-1.2827311E-1,7.011839E-2,-1.1951265E-1,-5.2510202E-2,-9.943883E-2,1.2241774E-1,8.2697384E-2,1.2626156E-1],"split_indices":[6,7,7,6,6,6,7,0,7,7,0,6,0,6,6,0,0,0,0,0,0,0,0,0,0],"split_type":[0,0,0,0,0,0,0,0,0,0,0,0,0,0,0,0,0,0,0,0,0,0,0,0,0],"sum_hessian":[5.6339636E2,3.2006088E2,2.4333546E2,2.536991E2,6.636179E1,2.5633886E1,2.1770158E2,2.1260254E2,4.109656E1,3.430217E1,3.2059624E1,1.8248123E1,7.3857636E0,2.1650686E1,1.960509E2,3.0223232E1,1.087333E1,1.1088157E1,2.3214016E1,1.3163903E1,5.0842195E0,6.088663E0,1.5562022E1,8.352948E0,1.8769795E2],"tree_param":{"num_deleted":"0","num_feature":"16","num_nodes":"25","size_leaf_vector":"1"}},{"base_weights":[-6.048061E-3,-8.048152E-1,7.8687376E-1,-1.0491625E0,-2.6917753E-1,2.662789E-1,1.0303254E0,-1.0788096E0,-3.392304E-2,-8.0720997E-1,7.9275835E-3,-4.4459373E-1,5.769036E-1,1.4841707E-3,1.0639591E0,-1.1995154E-1,-9.00252E-2,-1.01024054E-1,-2.0544762E-2,3.9466556E-2,-1.50745595E-2,-6.503239E-2,-1.913067E-2,9.114031E-2,2.864577E-2,1.1748895E-1,5.7207342E-2],"categories":[],"categories_nodes":[],"categories_segments":[],"categories_sizes":[],"default_left":[0,0,0,0,0,0,0,0,0,0,0,0,0,0,0,0,0,0,0,0,0,0,0,0,0,0,0],"id":12,"left_children":[1,3,5,7,9,11,13,15,-1,17,19,21,23,-1,25,-1,-1,-1,-1,-1,-1,-1,-1,-1,-1,-1,-1],"loss_changes":[3.3127606E2,3.381993E1,3.2993164E1,3.5304718E0,1.2376642E1,1.902263E1,6.087494E0,8.4461975E-1,0E0,2.2247677E0,3.0579145E0,1.0429978E0,4.8559074E0,0E0,2.710617E0,0E0,0E0,0E0,0E0,0E0,0E0,0E0,0E0,0E0,0E0,0E0,0E0],"parents":[2147483647,0,0,1,1,2,2,3,3,4,4,5,5,6,6,7,7,9,9,10,10,11,11,12,12,14,14],"right_children":[2,4,6,8,10,12,14,16,-1,18,20,22,24,-1,26,-1,-1,-1,-1,-1,-1,-1,-1,-1,-1,-1,-1],"split_conditions":[1.37E0,1.77E0,1.63E0,1.33E0,9.6E-1,8.5E-1,3.3E-1,1.15E0,-3.392304E-2,4.84E0,1.4883168E-1,1.52E0,5.438067E-1,1.4841707E-3,1.7992869E-1,-1.1995154E-1,-9.00252E-2,-1.01024054E-1,-2.0544762E-2,3.9466556E-2,-1.50745595E-2,-6.503239E-2,-1.913067E-2,9.114031E-2,2.864577E-2,1.1748895E-1,5.7207342E-2],"split_indices":[6,8,6,6,6,8,8,6,0,8,5,6,4,0,0,0,0,0,0,0,0,0,0,0,0,0,0],"split_type":[0,0,0,0,0,0,0,0,0,0,0,0,0,0,0,0,0,0,0,0,0,0,0,0,0,0,0],"sum_hessian":[5.210457E2,2.5955865E2,2.6148706E2,1.7758784E2,8.1970795E1,8.398597E1,1.7750108E2,1.7021465E2,7.3732047E0,2.7215557E1,5.475524E1,2.5407946E1,5.857803E1,5.7306514E0,1.7177043E2,1.4010104E2,3.0113602E1,2.1765772E1,5.449785E0,1.555201E1,3.920323E1,1.4893799E1,1.0514146E1,2.9969076E1,2.8608952E1,1.5975528E2,1.2015148E1],"tree_param":{"num_deleted":"0","num_feature":"16","num_nodes":"27","size_leaf_vector":"1"}},{"base_weights":[4.015024E-3,-7.5315005E-1,7.886171E-1,-1.064581E0,6.012832E-1,-3.4871742E-1,1.0291296E0,-1.1232953E0,-4.8762015E-1,-2.6541924E-1,9.904646E-1,-1.0054348E0,6.879567E-1,6.262667E-1,1.222426E-1,-1.2173926E-1,-7.00673E-2,-1.2761122E-1,8.26494E-2,-1.0487117E-1,1.0600286E-1,3.890901E-2,1.2589145E-1,-1.2299571E-1,-3.514601E-2,-3.0877842E-3,1.254706E-1,-6.625914E-2,1.11530975E-1],"categories":[],"categories_nodes":[],"categories_segments":[],"categories_sizes":[],"default_left":[0,0,0,0,0,0,0,0,0,0,0,0,0,0,0,0,0,0,0,0,0,0,0,0,0,0,0,0,0],"id":13,"left_children":[1,3,5,7,9,11,13,15,17,19,21,23,25,27,-1,-1,-1,-1,-1,-1,-1,-1,-1,-1,-1,-1,-1,-1,-1],"loss_changes":[2.9423325E2,1.0695802E2,6.689308E1,6.4066467E0,1.6372377E1,3.0105427E1,8.636566E0,6.926575E-1,1.9419636E1,1.5026331E1,3.4819603E0,2.277254E0,6.089424E0,2.5142967E1,0E0,0E0,0E0,0E0,0E0,0E0,0E0,0E0,0E0,0E0,0E0,0E0,0E0,0E0,0E0],"parents":[2147483647,0,0,1,1,2,2,3,3,4,4,5,5,6,6,7,7,8,8,9,9,10,10,11,11,12,12,13,13],"right_children":[2,4,6,8,10,12,14,16,18,20,22,24,26,28,-1,-1,-1,-1,-1,-1,-1,-1,-1,-1,-1,-1,-1,-1,-1],"split_conditions":[1.39E0,1.18E0,6.8E-1,1.01E0,9.6E-1,1.78E0,9.1E-1,1.35E0,1.21E0,1.53E0,1.3E0,1.69E0,5.1E-1,1.54E0,1.222426E-1,-1.2173926E-1,-7.00673E-2,-1.2761122E-1,8.26494E-2,-1.0487117E-1,1.0600286E-1,3.890901E-2,1.2589145E-1,-1.2299571E-1,-3.514601E-2,-3.0877842E-3,1.254706E-1,-6.625914E-2,1.11530975E-1],"split_indices":[6,7,7,7,6,6,7,6,6,7,7,6,7,6,0,0,0,0,0,0,0,0,0,0,0,0,0,0,0],"split_type":[0,0,0,0,0,0,0,0,0,0,0,0,0,0,0,0,0,0,0,0,0,0,0,0,0,0,0,0,0],"sum_hessian":[4.9328122E2,2.5105019E2,2.4223105E2,2.0429071E2,4.675948E1,4.220454E1,2.000265E2,1.8456189E2,1.972881E1,1.4588676E1,3.2170803E1,2.5855566E1,1.6348974E1,4.599851E1,1.54028E2,1.7683345E2,7.728441E0,1.2675201E1,7.053608E0,9.434306E0,5.1543703E0,8.117273E0,2.4053528E1,2.0681055E1,5.1745095E0,6.993222E0,9.355753E0,1.1429793E1,3.4568714E1],"tree_param":{"num_deleted":"0","num_feature":"16","num_nodes":"29","size_leaf_vector":"1"}},{"base_weights":[5.19582E-3,-7.0367897E-1,8.025391E-1,-1.070619E0,4.6027836E-1,-2.1543242E-1,1.0472301E0,-1.1924734E-1,-5.005378E-1,-3.41791E-2,1.2258147E-1,-9.0313715E-1,6.8068206E-1,4.6835142E-1,1.1058E0,-1.1184599E-1,5.603149E-2,-1.1683914E-1,6.5275505E-2,-1.2074273E-1,-3.4497682E-2,-1.5511138E-2,1.08577125E-1,-1.0037535E-1,1.1986097E-1,1.1983822E-1,7.5161755E-2],"categories":[],"categories_nodes":[],"categories_segments":[],"categories_sizes":[],"default_left":[0,0,0,0,0,0,0,0,0,0,0,0,0,0,0,0,0,0,0,0,0,0,0,0,0,0,0],"id":14,"left_children":[1,3,5,7,9,11,13,-1,15,17,-1,19,21,23,25,-1,-1,-1,-1,-1,-1,-1,-1,-1,-1,-1,-1],"loss_changes":[2.5748367E2,1.0349143E2,5.3628403E1,4.252884E0,1.9926926E1,2.6729792E1,5.3481903E0,0E0,9.245044E0,2.4609144E1,0E0,2.8550243E0,5.4118824E0,1.7292582E1,2.3568726E-1,0E0,0E0,0E0,0E0,0E0,0E0,0E0,0E0,0E0,0E0,0E0,0E0],"parents":[2147483647,0,0,1,1,2,2,3,3,4,4,5,5,6,6,8,8,9,9,11,11,12,12,13,13,14,14],"right_children":[2,4,6,8,10,12,14,-1,16,18,-1,20,22,24,26,-1,-1,-1,-1,-1,-1,-1,-1,-1,-1,-1,-1],"split_conditions":[1.42E0,1.08E0,7.1E-1,9.7E-1,1.15E0,1.78E0,8E-1,-1.1924734E-1,1.27E0,1.3E0,1.2258147E-1,1.66E0,4.5E-1,1.59E0,1.903503E0,-1.1184599E-1,5.603149E-2,-1.1683914E-1,6.5275505E-2,-1.2074273E-1,-3.4497682E-2,-1.5511138E-2,1.08577125E-1,-1.0037535E-1,1.1986097E-1,1.1983822E-1,7.5161755E-2],"split_indices":[6,7,7,7,6,6,7,0,6,7,0,6,7,6,4,0,0,0,0,0,0,0,0,0,0,0,0],"split_type":[0,0,0,0,0,0,0,0,0,0,0,0,0,0,0,0,0,0,0,0,0,0,0,0,0,0,0],"sum_hessian":[4.5354956E2,2.4015671E2,2.1339285E2,1.8265463E2,5.7502075E1,4.1376514E1,1.7201634E2,1.6814091E2,1.4513713E1,3.3999912E1,2.3502165E1,2.3406126E1,1.7970388E1,1.6631777E1,1.5538457E2,9.451607E0,5.062106E0,1.2605001E1,2.1394909E1,1.613234E1,7.2737856E0,5.3606052E0,1.2609784E1,5.1357083E0,1.1496068E1,1.4760495E2,7.77962E0],"tree_param":{"num_deleted":"0","num_feature":"16","num_nodes":"27","size_leaf_vector":"1"}},{"base_weights":[9.559629E-3,-6.263266E-1,8.559761E-1,-1.0536019E0,4.2088947E-1,-3.6016384E-1,1.0371588E0,-1.1856371E-1,-6.454713E-1,-1.4928658E-1,9.9881256E-1,-8.660741E-1,8.186053E-2,5.7454807E-1,1.18607685E-1,-1.1893558E-1,4.9429413E-2,-1.0606038E-1,7.4229196E-2,3.2517824E-2,1.2076485E-1,-1.13377646E-1,-3.8563784E-2,-7.581287E-2,1.1043259E-1],"categories":[],"categories_nodes":[],"categories_segments":[],"categories_sizes":[],"default_left":[0,0,0,0,0,0,0,0,0,0,0,0,0,0,0,0,0,0,0,0,0,0,0,0,0],"id":15,"left_children":[1,3,5,7,9,11,13,-1,15,17,19,21,-1,23,-1,-1,-1,-1,-1,-1,-1,-1,-1,-1,-1],"loss_changes":[2.271148E2,1.082608E2,4.0258896E1,3.2414703E0,2.3393114E1,1.446528E1,4.72229E0,0E0,1.2583984E1,2.6607954E1,2.877697E0,1.3130484E0,0E0,1.4714394E1,0E0,0E0,0E0,0E0,0E0,0E0,0E0,0E0,0E0,0E0,0E0],"parents":[2147483647,0,0,1,1,2,2,3,3,4,4,5,5,6,6,8,8,9,9,10,10,11,11,13,13],"right_children":[2,4,6,8,10,12,14,-1,16,18,20,22,-1,24,-1,-1,-1,-1,-1,-1,-1,-1,-1,-1,-1],"split_conditions":[1.49E0,1.01E0,6.1E-1,8.7E-1,1.15E0,1.91E0,7.8E-1,-1.1856371E-1,1.35E0,1.34E0,1.08E0,1.75E0,8.186053E-2,1.62E0,1.18607685E-1,-1.1893558E-1,4.9429413E-2,-1.0606038E-1,7.4229196E-2,3.2517824E-2,1.2076485E-1,-1.13377646E-1,-3.8563784E-2,-7.581287E-2,1.1043259E-1],"split_indices":[6,7,7,7,6,6,7,0,6,7,7,6,0,6,0,0,0,0,0,0,0,0,0,0,0],"split_type":[0,0,0,0,0,0,0,0,0,0,0,0,0,0,0,0,0,0,0,0,0,0,0,0,0],"sum_hessian":[4.199742E2,2.3995987E2,1.8001434E2,1.7042044E2,6.953943E1,2.321333E1,1.5680101E2,1.4816226E2,2.2258192E1,3.5377674E1,3.4161755E1,1.6179508E1,7.033822E0,2.268816E1,1.3411285E2,1.5644556E1,6.6136365E0,1.7606169E1,1.7771507E1,5.9843874E0,2.8177368E1,1.0868597E1,5.310911E0,5.8343625E0,1.6853798E1],"tree_param":{"num_deleted":"0","num_feature":"16","num_nodes":"25","size_leaf_vector":"1"}},{"base_weights":[-5.15143E-3,-6.4812756E-1,7.8875536E-1,-9.501219E-1,-1.9881345E-1,1.4110707E-1,9.1904145E-1,-1.0335021E0,-5.0169736E-1,-6.1725694E-1,1.7234148E-1,-2.0751382E-1,1.0841926E-1,6.586478E-1,1.1450617E-1,-8.387159E-2,-1.1430157E-1,-8.378035E-2,-2.750632E-2,-1.025455E-1,-3.9892633E-2,2.8946816E-3,6.8307064E-2,1.5545809E-2,-4.6425857E-2,9.699438E-2,4.4134375E-2],"categories":[],"categories_nodes":[],"categories_segments":[],"categories_sizes":[],"default_left":[0,0,0,0,0,0,0,0,0,0,0,0,0,0,0,0,0,0,0,0,0,0,0,0,0,0,0],"id":16,"left_children":[1,3,5,7,9,11,13,15,17,19,21,23,-1,25,-1,-1,-1,-1,-1,-1,-1,-1,-1,-1,-1,-1,-1],"loss_changes":[1.947209E2,2.8409142E1,1.4273766E1,4.1843185E0,1.3459875E1,9.282094E0,4.9535294E0,1.1854553E-1,1.2936015E0,3.0375195E0,3.1278923E0,1.8370402E0,0E0,3.0022736E0,0E0,0E0,0E0,0E0,0E0,0E0,0E0,0E0,0E0,0E0,0E0,0E0,0E0],"parents":[2147483647,0,0,1,1,2,2,3,3,4,4,5,5,6,6,7,7,8,8,9,9,10,10,11,11,13,13],"right_children":[2,4,6,8,10,12,14,16,18,20,22,24,-1,26,-1,-1,-1,-1,-1,-1,-1,-1,-1,-1,-1,-1,-1],"split_conditions":[1.45E0,1.4E0,7.1E-1,1.28E0,1.09E0,2E0,1.78E0,9.973495E-2,5.5E-1,8.3E-1,4.44E0,1.06401645E-1,1.0841926E-1,5.020454E-2,1.1450617E-1,-8.387159E-2,-1.1430157E-1,-8.378035E-2,-2.750632E-2,-1.025455E-1,-3.9892633E-2,2.8946816E-3,6.8307064E-2,1.5545809E-2,-4.6425857E-2,9.699438E-2,4.4134375E-2],"split_indices":[6,8,8,6,6,6,6,0,8,6,8,0,0,1,0,0,0,0,0,0,0,0,0,0,0,0,0],"split_type":[0,0,0,0,0,0,0,0,0,0,0,0,0,0,0,0,0,0,0,0,0,0,0,0,0,0,0],"sum_hessian":[3.7945786E2,2.0975957E2,1.6969827E2,1.2477848E2,8.498108E1,2.8769424E1,1.4092885E2,1.0411464E2,2.0663845E1,3.963413E1,4.5346954E1,2.111175E1,7.657675E0,5.4152298E1,8.677656E1,1.631941E1,8.779523E1,8.548756E0,1.2115089E1,1.5244428E1,2.43897E1,3.540119E1,9.945764E0,8.4066305E0,1.270512E1,2.5508917E1,2.8643381E1],"tree_param":{"num_deleted":"0","num_feature":"16","num_nodes":"27","size_leaf_vector":"1"}},{"base_weights":[-3.7691523E-3,-8.4023696E-1,5.789815E-1,-1.0359879E0,5.7454425E-1,-2.2913913E-1,9.507602E-1,-1.1627536E-1,-3.7541747E-2,-1.47674605E-2,1.1704548E-1,-8.4061164E-1,7.4259555E-1,5.072696E-1,1.1598797E-1,-1.1209427E-1,-4.1030083E-2,-5.006652E-2,1.147962E-1,-1.0411859E-1,9.729042E-2],"categories":[],"categories_nodes":[],"categories_segments":[],"categories_sizes":[],"default_left":[0,0,0,0,0,0,0,0,0,0,0,0,0,0,0,0,0,0,0,0,0],"id":17,"left_children":[1,3,5,7,9,11,13,-1,-1,-1,-1,15,17,19,-1,-1,-1,-1,-1,-1,-1],"loss_changes":[1.770447E2,4.189731E1,6.453391E1,4.361313E0,7.1278014E0,4.1182575E1,8.258362E0,0E0,0E0,0E0,0E0,3.6377792E0,1.1330098E1,2.2546808E1,0E0,0E0,0E0,0E0,0E0,0E0,0E0],"parents":[2147483647,0,0,1,1,2,2,3,3,4,4,5,5,6,6,11,11,12,12,13,13],"right_children":[2,4,6,8,10,12,14,-1,-1,-1,-1,16,18,20,-1,-1,-1,-1,-1,-1,-1],"split_conditions":[7.4E-1,1.78E0,1.31E0,1.62E0,5.3E-1,1.3E0,1.52E0,-1.1627536E-1,-3.7541747E-2,-1.47674605E-2,1.1704548E-1,1.16E0,8.3E-1,8.9E-1,1.1598797E-1,-1.1209427E-1,-4.1030083E-2,-5.006652E-2,1.147962E-1,-1.0411859E-1,9.729042E-2],"split_indices":[7,6,6,6,7,7,6,0,0,0,0,6,6,7,0,0,0,0,0,0,0],"split_type":[0,0,0,0,0,0,0,0,0,0,0,0,0,0,0,0,0,0,0,0,0],"sum_hessian":[3.612062E2,1.4813481E2,2.1307138E2,1.3036508E2,1.7769737E1,6.725831E1,1.4581306E2,1.20486786E2,9.878285E0,7.8174396E0,9.952297E0,4.1364365E1,2.5893948E1,3.519556E1,1.1061751E2,2.7481516E1,1.3882847E1,5.4856243E0,2.0408323E1,7.231401E0,2.7964159E1],"tree_param":{"num_deleted":"0","num_feature":"16","num_nodes":"21","size_leaf_vector":"1"}},{"base_weights":[-5.0924015E-3,-8.2401663E-1,5.599321E-1,-1.14115514E-1,3.203817E-1,-1.981657E-1,9.766105E-1,-9.743894E-2,7.655911E-1,-8.4907985E-1,5.125403E-1,5.113745E-1,1.1514641E-1,2.0979412E-2,1.12028636E-1,-1.08088605E-1,-2.997707E-2,-1.7370379E-2,1.0026866E-1,-6.870821E-2,1.1475747E-1],"categories":[],"categories_nodes":[],"categories_segments":[],"categories_sizes":[],"default_left":[0,0,0,0,0,0,0,0,0,0,0,0,0,0,0,0,0,0,0,0,0],"id":18,"left_children":[1,3,5,-1,7,9,11,-1,13,15,17,19,-1,-1,-1,-1,-1,-1,-1,-1,-1],"loss_changes":[1.5687213E2,3.9072197E1,6.3565372E1,0E0,1.449398E1,3.3737473E1,5.574051E0,0E0,2.860197E0,3.2322407E0,1.0238213E1,1.7034023E1,0E0,0E0,0E0,0E0,0E0,0E0,0E0,0E0,0E0],"parents":[2147483647,0,0,1,1,2,2,4,4,5,5,6,6,8,8,9,9,10,10,11,11],"right_children":[2,4,6,-1,8,10,12,-1,14,16,18,20,-1,-1,-1,-1,-1,-1,-1,-1,-1],"split_conditions":[7.4E-1,1.64E0,1.35E0,-1.14115514E-1,4.3E-1,1.18E0,1.5E0,-9.743894E-2,1.8E0,1.08E0,1E0,9.1E-1,1.1514641E-1,2.0979412E-2,1.12028636E-1,-1.08088605E-1,-2.997707E-2,-1.7370379E-2,1.0026866E-1,-6.870821E-2,1.1475747E-1],"split_indices":[7,6,6,0,7,7,6,0,6,7,6,7,0,0,0,0,0,0,0,0,0],"split_type":[0,0,0,0,0,0,0,0,0,0,0,0,0,0,0,0,0,0,0,0,0],"sum_hessian":[3.370302E2,1.3741212E2,1.9961809E2,1.1327617E2,2.4135962E1,7.0988045E1,1.2863005E2,6.1255107E0,1.801045E1,3.695102E1,3.403702E1,2.4131113E1,1.0449894E2,6.5496807E0,1.1460769E1,2.8108835E1,8.842185E0,1.3413006E1,2.0624016E1,7.8640337E0,1.6267078E1],"tree_param":{"num_deleted":"0","num_feature":"16","num_nodes":"21","size_leaf_vector":"1"}},{"base_weights":[1.6145604E-2,-7.1991235E-1,6.1320645E-1,-9.7413844E-1,-2.843353E-1,2.8164074E-1,8.758581E-1,-8.036351E-2,-1.11391135E-1,-7.082247E-1,-3.7184726E-2,-1.9328664E-1,5.419602E-1,3.138226E-2,9.245297E-1,-8.8588394E-2,-3.2743078E-2,-3.7581265E-2,7.54865E-3,-6.2801406E-2,1.6634915E-3,-2.6164213E-2,6.897256E-2,7.404834E-2,1.0849255E-1],"categories":[],"categories_nodes":[],"categories_segments":[],"categories_sizes":[],"default_left":[0,0,0,0,0,0,0,0,0,0,0,0,0,0,0,0,0,0,0,0,0,0,0,0,0],"id":19,"left_children":[1,3,5,7,9,11,13,-1,-1,15,17,19,21,-1,23,-1,-1,-1,-1,-1,-1,-1,-1,-1,-1],"loss_changes":[1.3578758E2,1.5047859E1,1.4608757E1,5.429764E-1,5.4650407E0,9.608875E0,2.411171E0,0E0,0E0,6.833277E-1,1.1847055E0,2.3140364E0,4.238516E0,0E0,1.1313934E0,0E0,0E0,0E0,0E0,0E0,0E0,0E0,0E0,0E0,0E0],"parents":[2147483647,0,0,1,1,2,2,3,3,4,4,5,5,6,6,9,9,10,10,11,11,12,12,14,14],"right_children":[2,4,6,8,10,12,14,-1,-1,16,18,20,22,-1,24,-1,-1,-1,-1,-1,-1,-1,-1,-1,-1],"split_conditions":[8.1E-1,5.6E-1,1.18E0,1.4359981E-1,8.0207944E-1,8.122744E-1,1.02389075E-1,-8.036351E-2,-1.11391135E-1,3.530703E-1,5.660377E-1,2.4860727E-2,2.112676E-1,3.138226E-2,1.34E0,-8.8588394E-2,-3.2743078E-2,-3.7581265E-2,7.54865E-3,-6.2801406E-2,1.6634915E-3,-2.6164213E-2,6.897256E-2,7.404834E-2,1.0849255E-1],"split_indices":[7,7,7,0,9,9,4,0,0,5,4,1,4,0,7,0,0,0,0,0,0,0,0,0,0],"split_type":[0,0,0,0,0,0,0,0,0,0,0,0,0,0,0,0,0,0,0,0,0,0,0,0,0],"sum_hessian":[3.0697482E2,1.3739195E2,1.6958287E2,8.597558E1,5.1416378E1,7.587377E1,9.370909E1,2.3209845E1,6.276573E1,1.8250048E1,3.316633E1,2.6954826E1,4.8918945E1,7.7749066E0,8.593419E1,1.3199142E1,5.050905E0,7.8885703E0,2.5277758E1,8.698654E0,1.8256172E1,5.5454206E0,4.3373524E1,2.6771538E1,5.9162647E1],"tree_param":{"num_deleted":"0","num_feature":"16","num_nodes":"25","size_leaf_vector":"1"}},{"base_weights":[6.151214E-3,-5.4801506E-1,7.8416413E-1,-9.8838896E-1,3.3247462E-1,-6.3879095E-2,1.0187575E0,-1.1342305E-1,-5.471902E-1,-2.0494318E-1,9.355885E-1,-9.4126366E-2,4.7089043E-1,6.2098682E-2,1.1326742E-1,-1.1459698E-1,4.4779506E-2,-1.14925355E-1,4.1361127E-2,3.1056562E-2,1.1419373E-1,-5.6530377E-3,1.1966598E-1],"categories":[],"categories_nodes":[],"categories_segments":[],"categories_sizes":[],"default_left":[0,0,0,0,0,0,0,0,0,0,0,0,0,0,0,0,0,0,0,0,0,0,0],"id":20,"left_children":[1,3,5,7,9,11,13,-1,15,17,19,-1,21,-1,-1,-1,-1,-1,-1,-1,-1,-1,-1],"loss_changes":[1.274088E2,6.724908E1,2.4520317E1,3.1655807E0,1.9084679E1,1.2470697E1,1.1455688E0,0E0,9.881023E0,1.6742687E1,2.0717888E0,0E0,5.9539814E0,0E0,0E0,0E0,0E0,0E0,0E0,0E0,0E0,0E0,0E0],"parents":[2147483647,0,0,1,1,2,2,3,3,4,4,5,5,6,6,8,8,9,9,10,10,12,12],"right_children":[2,4,6,8,10,12,14,-1,16,18,20,-1,22,-1,-1,-1,-1,-1,-1,-1,-1,-1,-1],"split_conditions":[1.5E0,1.01E0,7E-1,8.7E-1,1.15E0,1.72E0,7.8E-1,-1.1342305E-1,1.35E0,1.29E0,1.08E0,-9.4126366E-2,5.6E-1,6.2098682E-2,1.1326742E-1,-1.1459698E-1,4.4779506E-2,-1.14925355E-1,4.1361127E-2,3.1056562E-2,1.1419373E-1,-5.6530377E-3,1.1966598E-1],"split_indices":[6,7,7,7,6,6,7,0,6,7,7,0,7,0,0,0,0,0,0,0,0,0,0],"split_type":[0,0,0,0,0,0,0,0,0,0,0,0,0,0,0,0,0,0,0,0,0,0,0],"sum_hessian":[2.9351352E2,1.71589E2,1.219245E2,1.14299805E2,5.72892E1,2.6577143E1,9.534736E1,9.674267E1,1.7557138E1,3.0643675E1,2.6645527E1,1.025409E1,1.6323051E1,9.6246395E0,8.572272E1,1.129923E1,6.2579093E0,1.2070711E1,1.8572964E1,5.1205816E0,2.1524944E1,9.544877E0,6.7781754E0],"tree_param":{"num_deleted":"0","num_feature":"16","num_nodes":"23","size_leaf_vector":"1"}},{"base_weights":[1.3229046E-3,-5.3471375E-1,7.3933136E-1,-9.846105E-1,3.233518E-1,-1.3929969E-1,1.010807E0,-1.12576865E-1,-5.6142914E-1,-3.0150867E-1,7.6930004E-1,-6.953497E-1,7.45883E-1,5.6956563E-2,1.12360604E-1,-1.1150057E-1,3.297881E-2,-1.0141558E-1,6.851917E-2,2.8045645E-2,1.1129514E-1,-1.1123263E-1,-1.9939391E-2,1.0669752E-1,3.8554538E-2],"categories":[],"categories_nodes":[],"categories_segments":[],"categories_sizes":[],"default_left":[0,0,0,0,0,0,0,0,0,0,0,0,0,0,0,0,0,0,0,0,0,0,0,0,0],"id":21,"left_children":[1,3,5,7,9,11,13,-1,15,17,19,21,23,-1,-1,-1,-1,-1,-1,-1,-1,-1,-1,-1,-1],"loss_changes":[1.0757745E2,6.1128975E1,2.7431187E1,2.4551697E0,1.5540123E1,1.4243898E1,1.1644058E0,0E0,7.3585734E0,1.5032137E1,4.196682E0,2.9124012E0,7.347026E-1,0E0,0E0,0E0,0E0,0E0,0E0,0E0,0E0,0E0,0E0,0E0,0E0],"parents":[2147483647,0,0,1,1,2,2,3,3,4,4,5,5,6,6,8,8,9,9,10,10,11,11,12,12],"right_children":[2,4,6,8,10,12,14,-1,16,18,20,22,24,-1,-1,-1,-1,-1,-1,-1,-1,-1,-1,-1,-1],"split_conditions":[1.49E0,1.01E0,7.1E-1,8.7E-1,1.07E0,1.85E0,7.8E-1,-1.12576865E-1,1.35E0,1.44E0,1.15E0,5.7E-1,1.367208E0,5.6956563E-2,1.12360604E-1,-1.1150057E-1,3.297881E-2,-1.0141558E-1,6.851917E-2,2.8045645E-2,1.1129514E-1,-1.1123263E-1,-1.9939391E-2,1.0669752E-1,3.8554538E-2],"split_indices":[6,7,7,7,6,6,7,0,6,7,7,7,3,0,0,0,0,0,0,0,0,0,0,0,0],"split_type":[0,0,0,0,0,0,0,0,0,0,0,0,0,0,0,0,0,0,0,0,0,0,0,0,0],"sum_hessian":[2.699359E2,1.5652371E2,1.13412186E2,1.0258787E2,5.3935852E1,2.6885183E1,8.652701E1,8.6834335E1,1.5753533E1,2.2596975E1,3.1338877E1,1.6644176E1,1.0241007E1,7.993736E0,7.853327E1,1.0005144E1,5.7483892E0,1.3389013E1,9.207962E0,1.1655004E1,1.9683874E1,9.280363E0,7.3638134E0,5.214756E0,5.0262504E0],"tree_param":{"num_deleted":"0","num_feature":"16","num_nodes":"25","size_leaf_vector":"1"}},{"base_weights":[8.178956E-3,-5.6746674E-1,6.753438E-1,-1.0068598E0,2.4760656E-1,-7.594301E-2,1.0158383E0,-1.1185669E-1,-4.5716636E-2,-1.05806366E-1,8.6046207E-1,-8.902205E-1,4.2683002E-1,6.689549E-2,1.11509115E-1,-8.3223134E-2,6.3365765E-2,4.8703082E-2,1.1287995E-1,-1.1051326E-1,-6.1519623E-2,-8.3708E-2,8.565925E-2],"categories":[],"categories_nodes":[],"categories_segments":[],"categories_sizes":[],"default_left":[0,0,0,0,0,0,0,0,0,0,0,0,0,0,0,0,0,0,0,0,0,0,0],"id":22,"left_children":[1,3,5,7,9,11,13,-1,-1,15,17,19,21,-1,-1,-1,-1,-1,-1,-1,-1,-1,-1],"loss_changes":[9.6873024E1,4.874658E1,2.99626E1,1.619484E0,1.0537998E1,1.567725E1,2.3223877E-1,0E0,0E0,1.5285537E1,9.2862034E-1,6.65369E-2,1.1430334E1,0E0,0E0,0E0,0E0,0E0,0E0,0E0,0E0,0E0,0E0],"parents":[2147483647,0,0,1,1,2,2,3,3,4,4,5,5,6,6,9,9,10,10,11,11,12,12],"right_children":[2,4,6,8,10,12,14,-1,-1,16,18,20,22,-1,-1,-1,-1,-1,-1,-1,-1,-1,-1],"split_conditions":[1.42E0,1.01E0,7.8E-1,9.5E-1,1.19E0,1.64E0,8.5E-1,-1.1185669E-1,-4.5716636E-2,1.35E0,1.27E0,1.57E0,4.3E-1,6.689549E-2,1.11509115E-1,-8.3223134E-2,6.3365765E-2,4.8703082E-2,1.1287995E-1,-1.1051326E-1,-6.1519623E-2,-8.3708E-2,8.565925E-2],"split_indices":[6,7,7,7,6,6,7,0,0,7,6,6,7,0,0,0,0,0,0,0,0,0,0],"split_type":[0,0,0,0,0,0,0,0,0,0,0,0,0,0,0,0,0,0,0,0,0,0,0],"sum_hessian":[2.502424E2,1.344152E2,1.15827194E2,8.7181656E1,4.7233547E1,3.6365406E1,7.9461784E1,8.0721596E1,6.460063E0,3.0482615E1,1.675093E1,1.3588011E1,2.2777395E1,6.946872E0,7.2514915E1,1.5468052E1,1.5014564E1,6.5632157E0,1.0187716E1,7.734974E0,5.853037E0,5.1318727E0,1.7645523E1],"tree_param":{"num_deleted":"0","num_feature":"16","num_nodes":"23","size_leaf_vector":"1"}},{"base_weights":[-8.301142E-3,-5.319899E-1,7.271973E-1,-9.988048E-1,1.7831895E-1,-1.0309607E-1,9.9672043E-1,-1.1112836E-1,-4.59205E-2,-1.1778158E-1,1.1087997E-1,-5.476939E-1,8.904961E-2,6.011224E-2,1.1189866E-1,-6.330556E-2,5.960759E-2,-1.0306156E-1,-2.2159086E-3],"categories":[],"categories_nodes":[],"categories_segments":[],"categories_sizes":[],"default_left":[0,0,0,0,0,0,0,0,0,0,0,0,0,0,0,0,0,0,0],"id":23,"left_children":[1,3,5,7,9,11,13,-1,-1,15,-1,17,-1,-1,-1,-1,-1,-1,-1],"loss_changes":[9.021843E1,4.554036E1,2.1903553E1,1.5166855E0,1.4152274E1,1.0778803E1,1.041153E0,0E0,0E0,1.3778375E1,0E0,3.8083372E0,0E0,0E0,0E0,0E0,0E0,0E0,0E0],"parents":[2147483647,0,0,1,1,2,2,3,3,4,4,5,5,6,6,9,9,11,11],"right_children":[2,4,6,8,10,12,14,-1,-1,16,-1,18,-1,-1,-1,-1,-1,-1,-1],"split_conditions":[1.5E0,9.5E-1,7.1E-1,1.44E0,1.32E0,1.91E0,1.58E0,-1.1112836E-1,-4.59205E-2,1.34E0,1.1087997E-1,5.6E-1,8.904961E-2,6.011224E-2,1.1189866E-1,-6.330556E-2,5.960759E-2,-1.0306156E-1,-2.2159086E-3],"split_indices":[6,7,7,6,6,6,6,0,0,7,0,7,0,0,0,0,0,0,0],"split_type":[0,0,0,0,0,0,0,0,0,0,0,0,0,0,0,0,0,0,0],"sum_hessian":[2.3222441E2,1.3580522E2,9.641919E1,8.170352E1,5.41017E1,2.3779995E1,7.263919E1,7.534416E1,6.35936E0,4.088607E1,1.3215631E1,1.6408867E1,7.371127E0,8.9130125E0,6.372618E1,2.4084455E1,1.6801615E1,8.692933E0,7.7159343E0],"tree_param":{"num_deleted":"0","num_feature":"16","num_nodes":"19","size_leaf_vector":"1"}},{"base_weights":[7.034398E-3,-5.034996E-1,7.309392E-1,-9.4948083E-1,2.743982E-1,-6.503694E-2,9.8705226E-1,-1.1099588E-1,-5.2261955E-1,-8.535696E-2,4.9539277E-1,-9.710943E-2,3.9714646E-1,6.156467E-2,1.10808976E-1,-1.083459E-1,3.0542444E-2,1.286512E-2,1.0519516E-1,-1.6479444E-2,1.0268074E-1],"categories":[],"categories_nodes":[],"categories_segments":[],"categories_sizes":[],"default_left":[0,0,0,0,0,0,0,0,0,0,0,0,0,0,0,0,0,0,0,0,0],"id":24,"left_children":[1,3,5,7,9,11,13,-1,15,-1,17,-1,19,-1,-1,-1,-1,-1,-1,-1,-1],"loss_changes":[7.989311E1,4.4243267E1,1.8289349E1,2.5554047E0,1.1541313E1,9.21909E0,8.059387E-1,0E0,6.6779156E0,0E0,7.1455965E0,0E0,4.9301205E0,0E0,0E0,0E0,0E0,0E0,0E0,0E0,0E0],"parents":[2147483647,0,0,1,1,2,2,3,3,4,4,5,5,6,6,8,8,10,10,12,12],"right_children":[2,4,6,8,10,12,14,-1,16,-1,18,-1,20,-1,-1,-1,-1,-1,-1,-1,-1],"split_conditions":[1.49E0,1.01E0,7E-1,8.5E-1,8.3E-1,1.69E0,1.57E0,-1.1099588E-1,1.35E0,-8.535696E-2,1.34E0,-9.710943E-2,5.3E-1,6.156467E-2,1.10808976E-1,-1.083459E-1,3.0542444E-2,1.286512E-2,1.0519516E-1,-1.6479444E-2,1.0268074E-1],"split_indices":[6,7,7,7,6,6,6,0,6,0,7,0,7,0,0,0,0,0,0,0,0],"split_type":[0,0,0,0,0,0,0,0,0,0,0,0,0,0,0,0,0,0,0,0,0],"sum_hessian":[2.1417809E2,1.2577776E2,8.840033E1,7.9804184E1,4.597358E1,2.170116E1,6.6699165E1,6.4743904E1,1.5060273E1,7.4010453E0,3.8572536E1,7.3350863E0,1.4366075E1,8.66643E0,5.8032738E1,9.205719E0,5.8545547E0,2.2550165E1,1.602237E1,7.63327E0,6.732805E0],"tree_param":{"num_deleted":"0","num_feature":"16","num_nodes":"21","size_leaf_vector":"1"}},{"base_weights":[-1.3072995E-3,-6.354586E-1,5.165233E-1,-8.211508E-1,-6.386634E-2,1.406866E-1,8.030763E-1,-1.0721508E-1,-5.3871936E-1,-6.323299E-2,1.3967425E-1,-1.4863646E-1,4.465404E-1,-3.8942557E-3,8.890173E-1,-1.3300896E-2,-7.878404E-2,-8.441527E-3,3.1735603E-2,-4.0840436E-2,3.4425943E-3,3.0615743E-2,8.334024E-2,1.0209651E-1,2.1064833E-2],"categories":[],"categories_nodes":[],"categories_segments":[],"categories_sizes":[],"default_left":[0,0,0,0,0,0,0,0,0,0,0,0,0,0,0,0,0,0,0,0,0,0,0,0,0],"id":25,"left_children":[1,3,5,7,9,11,13,-1,15,-1,17,19,21,-1,23,-1,-1,-1,-1,-1,-1,-1,-1,-1,-1],"loss_changes":[6.637654E1,9.591438E0,1.1870718E1,2.9947739E0,2.5946403E0,4.433318E0,4.572361E0,0E0,2.3037014E0,0E0,6.322659E-1,1.1163497E0,1.0698643E0,0E0,2.4575806E0,0E0,0E0,0E0,0E0,0E0,0E0,0E0,0E0,0E0,0E0],"parents":[2147483647,0,0,1,1,2,2,3,3,4,4,5,5,6,6,8,8,10,10,11,11,12,12,14,14],"right_children":[2,4,6,8,10,12,14,-1,16,-1,18,20,22,-1,24,-1,-1,-1,-1,-1,-1,-1,-1,-1,-1],"split_conditions":[1.31E0,3.36E0,1.64E0,1.01E0,8.3E-1,1.53E0,4.4E-1,-1.0721508E-1,4.770071E-2,-6.323299E-2,4.047626E-2,6.7E-1,3.68E0,-3.8942557E-3,1.8037507E-1,-1.3300896E-2,-7.878404E-2,-8.441527E-3,3.1735603E-2,-4.0840436E-2,3.4425943E-3,3.0615743E-2,8.334024E-2,1.0209651E-1,2.1064833E-2],"split_indices":[6,8,6,6,6,8,8,0,0,0,0,8,8,0,1,0,0,0,0,0,0,0,0,0,0],"split_type":[0,0,0,0,0,0,0,0,0,0,0,0,0,0,0,0,0,0,0,0,0,0,0,0,0],"sum_hessian":[2.00132E2,8.985979E1,1.1027221E2,6.74959E1,2.236388E1,4.8349293E1,6.192292E1,3.942763E1,2.8068275E1,5.689596E0,1.6674284E1,2.5110237E1,2.3239056E1,5.803674E0,5.6119244E1,9.636239E0,1.8432035E1,7.1886287E0,9.485656E0,1.0467198E1,1.464304E1,1.6970516E1,6.268539E0,5.0817863E1,5.3013825E0],"tree_param":{"num_deleted":"0","num_feature":"16","num_nodes":"25","size_leaf_vector":"1"}},{"base_weights":[-1.4350723E-2,-6.387482E-1,4.6384907E-1,-1.0813046E-1,3.2681206E-1,-2.0519084E-1,8.915902E-1,-3.787032E-1,9.457665E-2,-9.79826E-2,2.077223E-1,4.1609538E-1,1.0822189E-1,-9.246853E-2,1.6959509E-2,-6.3697286E-2,6.7710176E-2,-4.997977E-2,1.01458415E-1],"categories":[],"categories_nodes":[],"categories_segments":[],"categories_sizes":[],"default_left":[0,0,0,0,0,0,0,0,0,0,0,0,0,0,0,0,0,0,0],"id":26,"left_children":[1,3,5,-1,7,9,11,13,-1,-1,15,17,-1,-1,-1,-1,-1,-1,-1],"loss_changes":[5.7616894E1,3.0528038E1,3.1459984E1,0E0,9.83877E0,1.2965666E1,3.448761E0,3.1105995E0,0E0,0E0,1.0083495E1,7.678619E0,0E0,0E0,0E0,0E0,0E0,0E0,0E0],"parents":[2147483647,0,0,1,1,2,2,4,4,5,5,6,6,7,7,10,10,11,11],"right_children":[2,4,6,-1,8,10,12,14,-1,-1,16,18,-1,-1,-1,-1,-1,-1,-1],"split_conditions":[8.1E-1,1.62E0,1.31E0,-1.0813046E-1,5.6E-1,1.13E0,9.4E-1,1.89E0,9.457665E-2,-9.79826E-2,9.6E-1,1.48E0,1.0822189E-1,-9.246853E-2,1.6959509E-2,-6.3697286E-2,6.7710176E-2,-4.997977E-2,1.01458415E-1],"split_indices":[7,6,6,0,7,7,7,6,0,0,6,6,0,0,0,0,0,0,0],"split_type":[0,0,0,0,0,0,0,0,0,0,0,0,0,0,0,0,0,0,0],"sum_hessian":[1.9097305E2,8.2679985E1,1.0829307E2,5.9572765E1,2.3107216E1,4.2436863E1,6.585621E1,1.0354905E1,1.2752311E1,1.512477E1,2.7312094E1,1.4325514E1,5.1530693E1,5.1115584E0,5.2433467E0,9.323973E0,1.7988121E1,5.4404387E0,8.885075E0],"tree_param":{"num_deleted":"0","num_feature":"16","num_nodes":"19","size_leaf_vector":"1"}},{"base_weights":[1.0207305E-2,-4.2577428E-1,6.921654E-1,-1.0680049E-1,1.550452E-1,3.9318856E-2,1.0943427E-1,-2.4282499E-1,5.886698E-1,-5.28201E-1,6.252346E-1,-1.0111304E-1,3.8344063E-2,-1.4329704E-3,1.08937226E-1,-9.987226E-2,-9.168011E-3,2.0584714E-2,1.04441345E-1],"categories":[],"categories_nodes":[],"categories_segments":[],"categories_sizes":[],"default_left":[0,0,0,0,0,0,0,0,0,0,0,0,0,0,0,0,0,0,0],"id":27,"left_children":[1,3,5,-1,7,9,-1,11,13,15,17,-1,-1,-1,-1,-1,-1,-1,-1],"loss_changes":[5.3490906E1,3.67649E1,1.5189949E1,0E0,9.706905E0,8.548506E0,0E0,1.2888178E1,6.978792E0,2.2773945E0,1.7363405E0,0E0,0E0,0E0,0E0,0E0,0E0,0E0,0E0],"parents":[2147483647,0,0,1,1,2,2,4,4,5,5,7,7,8,8,9,9,10,10],"right_children":[2,4,6,-1,8,10,-1,12,14,16,18,-1,-1,-1,-1,-1,-1,-1,-1],"split_conditions":[1.52E0,8.9E-1,7.4E-1,-1.0680049E-1,1.18E0,1.78E0,1.0943427E-1,1.29E0,1.06E0,6.1E-1,5.3E-1,-1.0111304E-1,3.8344063E-2,-1.4329704E-3,1.08937226E-1,-9.987226E-2,-9.168011E-3,2.0584714E-2,1.04441345E-1],"split_indices":[6,7,7,0,6,6,0,7,7,7,7,0,0,0,0,0,0,0,0],"split_type":[0,0,0,0,0,0,0,0,0,0,0,0,0,0,0,0,0,0,0],"sum_hessian":[1.7791832E2,1.08761696E2,6.915662E1,5.43269E1,5.44348E1,2.3715162E1,4.5441456E1,2.8617218E1,2.5817581E1,1.2096733E1,1.1618429E1,1.2925807E1,1.5691411E1,1.118078E1,1.4636801E1,5.7202215E0,6.376511E0,5.9136205E0,5.7048087E0],"tree_param":{"num_deleted":"0","num_feature":"16","num_nodes":"19","size_leaf_vector":"1"}},{"base_weights":[6.281074E-3,-5.62462E-1,4.7892588E-1,-8.339068E-1,-2.098883E-1,3.321744E-1,1.0024025E-1,-1.1293272E-1,-6.183644E-1,-4.9029654E-1,6.492959E-2,-7.8051105E-2,5.735701E-1,-4.2922236E-2,-8.497049E-2,-6.4556845E-2,-1.9504346E-2,-5.515127E-3,3.219892E-2,-4.7044046E-2,8.976982E-3,4.422829E-2,9.6051216E-2],"categories":[],"categories_nodes":[],"categories_segments":[],"categories_sizes":[],"default_left":[0,0,0,0,0,0,0,0,0,0,0,0,0,0,0,0,0,0,0,0,0,0,0],"id":28,"left_children":[1,3,5,7,9,11,-1,-1,13,15,17,19,21,-1,-1,-1,-1,-1,-1,-1,-1,-1,-1],"loss_changes":[4.501893E1,7.0998726E0,5.8577194E0,1.3992958E0,2.6829095E0,7.063017E0,0E0,0E0,6.050482E-1,4.919138E-1,5.1904714E-1,1.6313658E0,1.9514513E0,0E0,0E0,0E0,0E0,0E0,0E0,0E0,0E0,0E0,0E0],"parents":[2147483647,0,0,1,1,2,2,3,3,4,4,5,5,8,8,9,9,10,10,11,11,12,12],"right_children":[2,4,6,8,10,12,-1,-1,14,16,18,20,22,-1,-1,-1,-1,-1,-1,-1,-1,-1,-1],"split_conditions":[8.5E-1,5.6E-1,1.52E0,3.2E-1,9.0625E-1,3.0405405E-1,1.0024025E-1,-1.1293272E-1,1.497157E-1,3.4967518E-1,2.451E3,1.06E0,1.21E0,-4.2922236E-2,-8.497049E-2,-6.4556845E-2,-1.9504346E-2,-5.515127E-3,3.219892E-2,-4.7044046E-2,8.976982E-3,4.422829E-2,9.6051216E-2],"split_indices":[7,7,7,7,9,4,0,0,2,5,12,7,7,0,0,0,0,0,0,0,0,0,0],"split_type":[0,0,0,0,0,0,0,0,0,0,0,0,0,0,0,0,0,0,0,0,0,0,0],"sum_hessian":[1.6547064E2,7.501434E1,9.045631E1,4.161215E1,3.3402195E1,6.987231E1,2.0584E1,1.8509537E1,2.3102612E1,1.6144848E1,1.7257345E1,2.6135149E1,4.3737156E1,1.18722315E1,1.1230379E1,1.1071255E1,5.0735936E0,1.20843525E1,5.1729937E0,7.5460324E0,1.8589117E1,3.0891388E1,1.2845769E1],"tree_param":{"num_deleted":"0","num_feature":"16","num_nodes":"23","size_leaf_vector":"1"}},{"base_weights":[1.0525751E-2,-6.2766427E-1,3.9405546E-1,-1.08481646E-1,-4.1401884E-1,1.6737898E-1,7.720198E-1,-8.630084E-2,-2.5368422E-1,4.153876E-1,-2.0045327E-1,3.4125887E-2,8.5489964E-1,-4.229143E-2,-5.132459E-3,-1.4647094E-2,5.968859E-2,-3.6372885E-2,6.2734503E-3,6.546911E-2,1.0053351E-1],"categories":[],"categories_nodes":[],"categories_segments":[],"categories_sizes":[],"default_left":[0,0,0,0,0,0,0,0,0,0,0,0,0,0,0,0,0,0,0,0,0],"id":29,"left_children":[1,3,5,-1,7,9,11,-1,13,15,17,-1,19,-1,-1,-1,-1,-1,-1,-1,-1],"loss_changes":[3.9521183E1,4.6056557E0,8.510186E0,0E0,2.371788E0,5.950124E0,1.1341438E0,0E0,8.719319E-1,3.148325E0,9.85163E-1,0E0,7.366943E-2,0E0,0E0,0E0,0E0,0E0,0E0,0E0,0E0],"parents":[2147483647,0,0,1,1,2,2,4,4,5,5,6,6,8,8,9,9,10,10,12,12],"right_children":[2,4,6,-1,8,10,12,-1,14,16,18,-1,20,-1,-1,-1,-1,-1,-1,-1,-1],"split_conditions":[7.4E-1,3.5E-1,1.29E0,-1.08481646E-1,7.254164E-1,2.29E0,1.4011417E-1,-8.630084E-2,6.1E-1,6.949807E-1,9.183673E-1,3.4125887E-2,2.645947E-1,-4.229143E-2,-5.132459E-3,-1.4647094E-2,5.968859E-2,-3.6372885E-2,6.2734503E-3,6.546911E-2,1.0053351E-1],"split_indices":[7,7,7,0,9,8,4,0,7,9,9,0,4,0,0,0,0,0,0,0,0],"split_type":[0,0,0,0,0,0,0,0,0,0,0,0,0,0,0,0,0,0,0,0,0],"sum_hessian":[1.5945544E2,5.9616898E1,9.983854E1,1.9833286E1,3.978361E1,6.3311558E1,3.652698E1,1.0337247E1,2.9446363E1,3.7737797E1,2.5573763E1,6.4064693E0,3.0120512E1,1.685515E1,1.2591214E1,7.78983E0,2.9947966E1,1.6395857E1,9.177905E0,1.0061294E1,2.005922E1],"tree_param":{"num_deleted":"0","num_feature":"16","num_nodes":"21","size_leaf_vector":"1"}},{"base_weights":[-1.5718307E-2,-4.2008814E-1,6.262309E-1,-1.08638264E-1,6.465702E-2,-1.0037575E-1,9.646655E-1,-3.3305869E-1,5.0583696E-1,-5.822024E-1,8.4040835E-2,5.8717307E-2,1.0822008E-1,-6.93622E-2,7.675305E-2,3.7452246E-3,1.0507314E-1,-9.686707E-2,-1.461779E-2],"categories":[],"categories_nodes":[],"categories_segments":[],"categories_sizes":[],"default_left":[0,0,0,0,0,0,0,0,0,0,0,0,0,0,0,0,0,0,0],"id":30,"left_children":[1,3,5,-1,7,9,11,13,15,17,-1,-1,-1,-1,-1,-1,-1,-1,-1],"loss_changes":[4.0449566E1,2.773282E1,1.4908159E1,0E0,9.590069E0,9.027903E0,2.7426147E-1,1.0064922E1,5.7835145E0,1.8381081E0,0E0,0E0,0E0,0E0,0E0,0E0,0E0,0E0,0E0],"parents":[2147483647,0,0,1,1,2,2,4,4,5,5,6,6,7,7,8,8,9,9],"right_children":[2,4,6,-1,8,10,12,14,16,18,-1,-1,-1,-1,-1,-1,-1,-1,-1],"split_conditions":[1.52E0,8.7E-1,7.1E-1,-1.08638264E-1,1.19E0,1.91E0,1.59E0,1.53E0,1.06E0,5.7E-1,8.4040835E-2,5.8717307E-2,1.0822008E-1,-6.93622E-2,7.675305E-2,3.7452246E-3,1.0507314E-1,-9.686707E-2,-1.461779E-2],"split_indices":[6,7,7,0,6,6,6,7,7,7,0,0,0,0,0,0,0,0,0],"split_type":[0,0,0,0,0,0,0,0,0,0,0,0,0,0,0,0,0,0,0],"sum_hessian":[1.5381061E2,9.457962E1,5.9230984E1,4.1884357E1,5.2695263E1,1.904515E1,4.0185833E1,2.784162E1,2.4853642E1,1.2565548E1,6.479602E0,5.5095954E0,3.467624E1,2.169663E1,6.1449885E0,1.306258E1,1.1791061E1,6.6664114E0,5.899137E0],"tree_param":{"num_deleted":"0","num_feature":"16","num_nodes":"19","size_leaf_vector":"1"}},{"base_weights":[6.2570977E-3,-4.621885E-1,5.8328724E-1,-1.06862605E-1,9.156117E-2,4.0747933E-2,1.03523E-1,-3.6940178E-1,5.019094E-1,-8.7856986E-2,4.3185413E-1,-8.4950946E-2,7.102572E-2,-1.3840635E-3,1.08042836E-1,-6.8133757E-3,8.768266E-2],"categories":[],"categories_nodes":[],"categories_segments":[],"categories_sizes":[],"default_left":[0,0,0,0,0,0,0,0,0,0,0,0,0,0,0,0,0],"id":31,"left_children":[1,3,5,-1,7,9,-1,11,13,-1,15,-1,-1,-1,-1,-1,-1],"loss_changes":[3.902225E1,2.3850046E1,1.350765E1,0E0,7.7894263E0,9.788014E0,0E0,9.126715E0,5.706194E0,0E0,3.8872283E0,0E0,0E0,0E0,0E0,0E0,0E0],"parents":[2147483647,0,0,1,1,2,2,4,4,5,5,7,7,8,8,10,10],"right_children":[2,4,6,-1,8,10,-1,12,14,-1,16,-1,-1,-1,-1,-1,-1],"split_conditions":[1.43E0,9.7E-1,8E-1,-1.06862605E-1,1.09E0,1.62E0,1.03523E-1,1.53E0,1.15E0,-8.7856986E-2,5.5E-1,-8.4950946E-2,7.102572E-2,-1.3840635E-3,1.08042836E-1,-6.8133757E-3,8.768266E-2],"split_indices":[6,7,7,0,6,6,0,7,7,0,7,0,0,0,0,0,0],"split_type":[0,0,0,0,0,0,0,0,0,0,0,0,0,0,0,0,0],"sum_hessian":[1.4236525E2,7.868559E1,6.3679653E1,3.9485714E1,3.9199875E1,2.6933876E1,3.6745777E1,1.8508366E1,2.0691511E1,8.052934E0,1.8880943E1,1.3272951E1,5.2354145E0,1.0778966E1,9.912544E0,8.67206E0,1.0208882E1],"tree_param":{"num_deleted":"0","num_feature":"16","num_nodes":"17","size_leaf_vector":"1"}},{"base_weights":[4.785141E-3,-5.134628E-1,4.3542266E-1,-9.497582E-1,1.2934598E-1,-8.968192E-2,9.43735E-1,-1.06176615E-1,-5.941101E-2,-7.854452E-2,3.9176705E-1,-6.8851006E-1,3.5967723E-1,6.238843E-2,1.0738506E-1,-8.959021E-3,9.577154E-2,-1.0376756E-1,-2.5770426E-2,-2.2357088E-2,8.276729E-2],"categories":[],"categories_nodes":[],"categories_segments":[],"categories_sizes":[],"default_left":[0,0,0,0,0,0,0,0,0,0,0,0,0,0,0,0,0,0,0,0,0],"id":32,"left_children":[1,3,5,7,9,11,13,-1,-1,-1,15,17,19,-1,-1,-1,-1,-1,-1,-1,-1],"loss_changes":[3.0407473E1,1.7465727E1,1.9945404E1,9.2998505E-2,6.1618867E0,1.03418865E1,2.542534E-1,0E0,0E0,0E0,5.0015965E0,1.8451662E0,5.3821096E0,0E0,0E0,0E0,0E0,0E0,0E0,0E0,0E0],"parents":[2147483647,0,0,1,1,2,2,3,3,4,4,5,5,6,6,10,10,11,11,12,12],"right_children":[2,4,6,8,10,12,14,-1,-1,-1,16,18,20,-1,-1,-1,-1,-1,-1,-1,-1],"split_conditions":[1.31E0,1.12E0,8.9E-1,1.24E0,8.3E-1,1.62E0,9.7E-1,-1.06176615E-1,-5.941101E-2,-7.854452E-2,1.34E0,7.4E-1,5.6E-1,6.238843E-2,1.0738506E-1,-8.959021E-3,9.577154E-2,-1.0376756E-1,-2.5770426E-2,-2.2357088E-2,8.276729E-2],"split_indices":[6,7,7,6,6,6,7,0,0,0,7,7,7,0,0,0,0,0,0,0,0],"split_type":[0,0,0,0,0,0,0,0,0,0,0,0,0,0,0,0,0,0,0,0,0],"sum_hessian":[1.3424648E2,6.0838474E1,7.3408E1,3.5956264E1,2.488221E1,3.651268E1,3.6895317E1,3.0936064E1,5.0202E0,5.373017E0,1.9509193E1,1.5424872E1,2.1087807E1,6.942236E0,2.9953083E1,1.0475845E1,9.033348E0,8.727151E0,6.697721E0,9.106761E0,1.1981045E1],"tree_param":{"num_deleted":"0","num_feature":"16","num_nodes":"21","size_leaf_vector":"1"}},{"base_weights":[4.033978E-3,-3.4595072E-1,5.9664726E-1,-1.04178764E-1,1.2463505E-1,-2.7982285E-2,1.01695E-1,-1.5619837E-1,6.2650114E-1,-3.9806432E-1,6.758043E-2,-1.0053409E-1,1.3152557E-2,6.7675817E-3,1.0676073E-1,-8.419863E-2,3.0800519E-3],"categories":[],"categories_nodes":[],"categories_segments":[],"categories_sizes":[],"default_left":[0,0,0,0,0,0,0,0,0,0,0,0,0,0,0,0,0],"id":33,"left_children":[1,3,5,-1,7,9,-1,11,13,15,-1,-1,-1,-1,-1,-1,-1],"loss_changes":[2.6806822E1,2.419651E1,1.0684813E1,0E0,6.777095E0,4.7463484E0,0E0,6.956381E0,3.5517015E0,2.0881472E0,0E0,0E0,0E0,0E0,0E0,0E0,0E0],"parents":[2147483647,0,0,1,1,2,2,4,4,5,5,7,7,8,8,9,9],"right_children":[2,4,6,-1,8,10,-1,12,14,16,-1,-1,-1,-1,-1,-1,-1],"split_conditions":[1.54E0,8.9E-1,7E-1,-1.04178764E-1,1.28E0,1.91E0,1.01695E-1,1.12E0,1.01E0,5.6E-1,6.758043E-2,-1.0053409E-1,1.3152557E-2,6.7675817E-3,1.0676073E-1,-8.419863E-2,3.0800519E-3],"split_indices":[6,7,7,0,6,6,0,7,7,7,0,0,0,0,0,0,0],"split_type":[0,0,0,0,0,0,0,0,0,0,0,0,0,0,0,0,0],"sum_hessian":[1.2725311E2,8.0265976E1,4.6987137E1,3.3875595E1,4.639038E1,1.737917E1,2.9607965E1,3.01871E1,1.6203283E1,1.1394817E1,5.9843516E0,7.299935E0,2.2887163E1,6.9240313E0,9.279251E0,5.510033E0,5.8847847E0],"tree_param":{"num_deleted":"0","num_feature":"16","num_nodes":"17","size_leaf_vector":"1"}},{"base_weights":[-9.186635E-3,-4.093702E-1,4.913526E-1,-1.0234697E-1,9.811482E-2,-2.2641432E-2,1.02813445E-1,-6.374703E-2,3.7295777E-1,-4.4321063E-1,4.9219072E-1,-1.2585506E-3,1.0535542E-1,-9.649631E-2,-1.3367847E-2,2.3983656E-3,1.0086386E-1],"categories":[],"categories_nodes":[],"categories_segments":[],"categories_sizes":[],"default_left":[0,0,0,0,0,0,0,0,0,0,0,0,0,0,0,0,0],"id":34,"left_children":[1,3,5,-1,7,9,-1,-1,11,13,15,-1,-1,-1,-1,-1,-1],"loss_changes":[2.416215E1,1.8765045E1,1.3007673E1,0E0,7.0482492E0,5.981448E0,0E0,0E0,6.2014756E0,2.1087728E0,2.621827E0,0E0,0E0,0E0,0E0,0E0,0E0],"parents":[2147483647,0,0,1,1,2,2,4,4,5,5,8,8,9,9,10,10],"right_children":[2,4,6,-1,8,10,-1,-1,12,14,16,-1,-1,-1,-1,-1,-1],"split_conditions":[1.45E0,9.7E-1,8E-1,-1.0234697E-1,9.6E-1,1.78E0,1.02813445E-1,-6.374703E-2,1.27E0,6.1E-1,5.3E-1,-1.2585506E-3,1.0535542E-1,-9.649631E-2,-1.3367847E-2,2.3983656E-3,1.0086386E-1],"split_indices":[6,7,7,0,6,6,0,0,7,7,7,0,0,0,0,0,0],"split_type":[0,0,0,0,0,0,0,0,0,0,0,0,0,0,0,0,0],"sum_hessian":[1.1862106E2,6.6019936E1,5.2601124E1,3.1287273E1,3.4732662E1,2.561757E1,2.6983553E1,9.510664E0,2.5221998E1,1.4176128E1,1.1441442E1,1.6104145E1,9.117854E0,5.040068E0,9.136061E0,6.1271315E0,5.31431E0],"tree_param":{"num_deleted":"0","num_feature":"16","num_nodes":"17","size_leaf_vector":"1"}},{"base_weights":[-4.560873E-3,-3.6567262E-1,5.735152E-1,-1.0529618E-1,2.7694046E-2,2.099279E-2,1.0629885E-1,-1.353121E-1,8.913325E-2,-3.0810446E-1,7.667824E-2,-8.3882384E-2,2.296412E-2,-8.139976E-2,1.0194941E-2],"categories":[],"categories_nodes":[],"categories_segments":[],"categories_sizes":[],"default_left":[0,0,0,0,0,0,0,0,0,0,0,0,0,0,0],"id":35,"left_children":[1,3,5,-1,7,9,-1,11,-1,13,-1,-1,-1,-1,-1],"loss_changes":[2.365558E1,1.7043861E1,1.013463E1,0E0,5.854181E0,4.782568E0,0E0,8.635758E0,0E0,2.6763449E0,0E0,0E0,0E0,0E0,0E0],"parents":[2147483647,0,0,1,1,2,2,4,4,5,5,7,7,9,9],"right_children":[2,4,6,-1,8,10,-1,12,-1,14,-1,-1,-1,-1,-1],"split_conditions":[1.52E0,8.7E-1,7.4E-1,-1.0529618E-1,1.53E0,1.91E0,1.0629885E-1,1.07E0,8.913325E-2,5.7E-1,7.667824E-2,-8.3882384E-2,2.296412E-2,-8.139976E-2,1.0194941E-2],"split_indices":[6,7,7,0,7,6,0,6,0,7,0,0,0,0,0],"split_type":[0,0,0,0,0,0,0,0,0,0,0,0,0,0,0],"sum_hessian":[1.11315475E2,6.874154E1,4.2573936E1,2.6092173E1,4.2649364E1,1.8885881E1,2.3688053E1,3.617404E1,6.4753213E0,1.3207588E1,5.6782937E0,1.2232381E1,2.3941664E1,5.796646E0,7.410942E0],"tree_param":{"num_deleted":"0","num_feature":"16","num_nodes":"15","size_leaf_vector":"1"}},{"base_weights":[1.5265803E-3,-2.6354703E-1,6.5974957E-1,-8.079126E-1,1.7609811E-1,-1.775456E-2,1.038565E-1,-1.073609E-1,-3.0577734E-1,-8.01042E-2,1.00566566E-1,-4.83301E-2,-1.2015511E-2,-3.1222036E-2,8.6457625E-2],"categories":[],"categories_nodes":[],"categories_segments":[],"categories_sizes":[],"default_left":[0,0,0,0,0,0,0,0,0,0,0,0,0,0,0],"id":36,"left_children":[1,3,5,7,9,-1,-1,-1,11,13,-1,-1,-1,-1,-1],"loss_changes":[1.8871668E1,1.8597466E1,8.182383E0,3.124794E0,8.603657E0,0E0,0E0,0E0,2.670182E-1,6.56222E0,0E0,0E0,0E0,0E0,0E0],"parents":[2147483647,0,0,1,1,2,2,3,3,4,4,8,8,9,9],"right_children":[2,4,6,8,10,-1,-1,-1,12,14,-1,-1,-1,-1,-1],"split_conditions":[1.64E0,9.1E-1,5.6E-1,1.45E0,1.35E0,-1.775456E-2,1.038565E-1,-1.073609E-1,1.8230926E-1,1.53E0,1.00566566E-1,-4.83301E-2,-1.2015511E-2,-3.1222036E-2,8.6457625E-2],"split_indices":[6,7,7,6,6,0,0,0,10,7,0,0,0,0,0],"split_type":[0,0,0,0,0,0,0,0,0,0,0,0,0,0,0],"sum_hessian":[1.0616446E2,7.611266E1,3.0051794E1,3.363205E1,4.2480618E1,8.381516E0,2.1670279E1,2.3423405E1,1.0208644E1,3.249966E1,9.980954E0,5.039946E0,5.168698E0,2.6781736E1,5.7179265E0],"tree_param":{"num_deleted":"0","num_feature":"16","num_nodes":"15","size_leaf_vector":"1"}},{"base_weights":[-1.1573823E-3,-4.5419037E-1,4.1302577E-1,-9.860204E-2,7.027785E-2,-2.203593E-2,8.8432044E-1,-2.2219247E-1,9.6937425E-2,-5.8533186E-1,4.0329307E-1,4.22281E-2,1.05373085E-1,-5.6578666E-2,4.7711506E-2,-1.0184551E-1,-1.7244691E-2,-3.5785283E-3,8.845215E-2],"categories":[],"categories_nodes":[],"categories_segments":[],"categories_sizes":[],"default_left":[0,0,0,0,0,0,0,0,0,0,0,0,0,0,0,0,0,0,0],"id":37,"left_children":[1,3,5,-1,7,9,11,13,-1,15,17,-1,-1,-1,-1,-1,-1,-1,-1],"loss_changes":[1.8964249E1,1.1939733E1,1.0845568E1,0E0,6.010594E0,7.047658E0,8.792629E-1,4.0188723E0,0E0,1.819149E0,3.1443841E0,0E0,0E0,0E0,0E0,0E0,0E0,0E0,0E0],"parents":[2147483647,0,0,1,1,2,2,4,4,5,5,6,6,7,7,9,9,10,10],"right_children":[2,4,6,-1,8,10,12,14,-1,16,18,-1,-1,-1,-1,-1,-1,-1,-1],"split_conditions":[1.35E0,1.08E0,8.5E-1,-9.860204E-2,1.15E0,1.64E0,1.43E0,1.51E0,9.6937425E-2,7.1E-1,5.6E-1,4.22281E-2,1.05373085E-1,-5.6578666E-2,4.7711506E-2,-1.0184551E-1,-1.7244691E-2,-3.5785283E-3,8.845215E-2],"split_indices":[6,7,7,0,6,6,6,7,0,7,7,0,0,0,0,0,0,0,0],"split_type":[0,0,0,0,0,0,0,0,0,0,0,0,0,0,0,0,0,0,0],"sum_hessian":[9.9068184E1,4.7268913E1,5.179927E1,2.455079E1,2.2718124E1,2.7430689E1,2.4368582E1,1.7381962E1,5.3361616E0,1.1639463E1,1.57912245E1,5.05995E0,1.9308632E1,1.2049532E1,5.332431E0,5.559124E0,6.08034E0,8.241098E0,7.5501256E0],"tree_param":{"num_deleted":"0","num_feature":"16","num_nodes":"19","size_leaf_vector":"1"}},{"base_weights":[1.6068604E-2,-3.2425433E-1,4.5035103E-1,-8.6106193E-1,1.8462645E-1,1.38420295E-2,1.0640222E-1,-1.0671267E-1,-3.493176E-2,-5.3592686E-2,9.122423E-2,-4.3218675E-1,4.2618084E-1,-4.5091756E-2,5.3642135E-2,-1.0012496E-1,8.060482E-3,-1.2339808E-2,1.0147535E-1],"categories":[],"categories_nodes":[],"categories_segments":[],"categories_sizes":[],"default_left":[0,0,0,0,0,0,0,0,0,0,0,0,0,0,0,0,0,0,0],"id":38,"left_children":[1,3,5,7,9,11,-1,-1,-1,13,-1,15,17,-1,-1,-1,-1,-1,-1],"loss_changes":[1.4165157E1,1.4845064E1,1.0017468E1,1.6161594E0,4.5791283E0,4.672639E0,0E0,0E0,0E0,4.700506E0,0E0,3.2057033E0,3.852431E0,0E0,0E0,0E0,0E0,0E0,0E0],"parents":[2147483647,0,0,1,1,2,2,3,3,4,4,5,5,9,9,11,11,12,12],"right_children":[2,4,6,8,10,12,-1,-1,-1,14,-1,16,18,-1,-1,-1,-1,-1,-1],"split_conditions":[1.01E0,1.45E0,1.27E0,9.2E-1,8E-1,1.3E0,1.0640222E-1,-1.0671267E-1,-3.493176E-2,1.81E0,9.122423E-2,1.11E0,9.6E-1,-4.5091756E-2,5.3642135E-2,-1.0012496E-1,8.060482E-3,-1.2339808E-2,1.0147535E-1],"split_indices":[7,6,6,7,7,7,0,0,0,6,0,6,6,0,0,0,0,0,0],"split_type":[0,0,0,0,0,0,0,0,0,0,0,0,0,0,0,0,0,0,0],"sum_hessian":[9.3854416E1,5.2761513E1,4.1092903E1,2.5339422E1,2.7422092E1,2.3405022E1,1.7687881E1,1.9439037E1,5.900384E0,2.0904501E1,6.517592E0,1.12200775E1,1.2184944E1,1.271381E1,8.190691E0,5.198561E0,6.0215163E0,6.37433E0,5.810614E0],"tree_param":{"num_deleted":"0","num_feature":"16","num_nodes":"19","size_leaf_vector":"1"}},{"base_weights":[1.3527408E-2,-2.1038257E-1,6.097073E-1,-7.9007286E-1,1.459547E-1,-2.2351447E-2,1.00741364E-1,-1.031057E-1,-1.508594E-2,-4.4176027E-2,8.997876E-2,-4.1651502E-2,5.0069854E-2],"categories":[],"categories_nodes":[],"categories_segments":[],"categories_sizes":[],"default_left":[0,0,0,0,0,0,0,0,0,0,0,0,0],"id":39,"left_children":[1,3,5,7,9,-1,-1,-1,-1,11,-1,-1,-1],"loss_changes":[1.1825246E1,1.3427071E1,6.803747E0,2.6726665E0,5.434671E0,0E0,0E0,0E0,0E0,6.031409E0,0E0,0E0,0E0],"parents":[2147483647,0,0,1,1,2,2,3,3,4,4,9,9],"right_children":[2,4,6,8,10,-1,-1,-1,-1,12,-1,-1,-1],"split_conditions":[1.64E0,8.5E-1,5.6E-1,1.54E0,1.4E0,-2.2351447E-2,1.00741364E-1,-1.031057E-1,-1.508594E-2,1.29E0,8.997876E-2,-4.1651502E-2,5.0069854E-2],"split_indices":[6,7,7,6,6,0,0,0,0,7,0,0,0],"split_type":[0,0,0,0,0,0,0,0,0,0,0,0,0],"sum_hessian":[8.662394E1,6.344335E1,2.3180592E1,2.3688932E1,3.9754417E1,6.8169255E0,1.6363667E1,1.8264425E1,5.424506E0,3.1965788E1,7.7886305E0,1.9237276E1,1.2728511E1],"tree_param":{"num_deleted":"0","num_feature":"16","num_nodes":"13","size_leaf_vector":"1"}},{"base_weights":[-1.2208174E-3,-8.3227795E-1,1.4301208E-1,-1.1392441E-1,-5.240407E-2,-1.0049967E-1,7.463954E-1,-7.4071586E-1,1.554072E-1,1.9616209E-2,1.0539872E-1,-9.9335715E-2,-3.7158437E-2,-6.2135938E-3,7.661044E-2],"categories":[],"categories_nodes":[],"categories_segments":[],"categories_sizes":[],"default_left":[0,0,0,0,0,0,0,0,0,0,0,0,0,0,0],"id":40,"left_children":[1,3,5,-1,-1,7,9,11,13,-1,-1,-1,-1,-1,-1],"loss_changes":[1.0513064E1,5.15357E-1,1.1057139E1,0E0,0E0,8.984106E0,2.743412E0,8.394222E-1,4.782791E0,0E0,0E0,0E0,0E0,0E0,0E0],"parents":[2147483647,0,0,1,1,2,2,5,5,6,6,7,7,8,8],"right_children":[2,4,6,-1,-1,8,10,12,14,-1,-1,-1,-1,-1,-1],"split_conditions":[8.5E-1,7E-1,1.18E0,-1.1392441E-1,-5.240407E-2,1.31E0,1.06E0,1.02E0,9.1E-1,1.9616209E-2,1.0539872E-1,-9.9335715E-2,-3.7158437E-2,-6.2135938E-3,7.661044E-2],"split_indices":[6,6,7,0,0,6,6,7,7,0,0,0,0,0,0],"split_type":[0,0,0,0,0,0,0,0,0,0,0,0,0,0,0],"sum_hessian":[8.571398E1,1.1970523E1,7.374346E1,5.8395596E0,6.1309633E0,5.3133453E1,2.061001E1,1.4632373E1,3.850108E1,6.6993413E0,1.3910668E1,8.948768E0,5.6836042E0,2.8547028E1,9.954053E0],"tree_param":{"num_deleted":"0","num_feature":"16","num_nodes":"15","size_leaf_vector":"1"}},{"base_weights":[-2.2759017E-2,-5.666137E-1,2.075943E-1,-8.6618876E-1,3.0570475E-2,-1.0739023E-1,7.713981E-1,-1.03123456E-1,-5.3487528E-2,-5.355651E-1,2.8111264E-1,3.5164632E-2,1.04519695E-1,-9.686866E-2,-2.2514965E-2,-6.173822E-3,1.0045153E-1],"categories":[],"categories_nodes":[],"categories_segments":[],"categories_sizes":[],"default_left":[0,0,0,0,0,0,0,0,0,0,0,0,0,0,0,0,0],"id":41,"left_children":[1,3,5,7,-1,9,11,-1,-1,13,15,-1,-1,-1,-1,-1,-1],"loss_changes":[1.041344E1,6.563929E0,1.04652195E1,1.8988323E-1,0E0,6.5359144E0,1.609334E0,0E0,0E0,2.0531201E0,4.6991014E0,0E0,0E0,0E0,0E0,0E0,0E0],"parents":[2147483647,0,0,1,1,2,2,3,3,5,5,6,6,9,9,10,10],"right_children":[2,4,6,8,-1,10,12,-1,-1,14,16,-1,-1,-1,-1,-1,-1],"split_conditions":[1.1E0,1.44E0,1.02E0,1.24E0,3.0570475E-2,1.58E0,1.27E0,-1.03123456E-1,-5.3487528E-2,8.1E-1,7.1E-1,3.5164632E-2,1.04519695E-1,-9.686866E-2,-2.2514965E-2,-6.173822E-3,1.0045153E-1],"split_indices":[6,7,7,7,0,6,6,0,0,7,7,0,0,0,0,0,0],"split_type":[0,0,0,0,0,0,0,0,0,0,0,0,0,0,0,0,0],"sum_hessian":[8.1183266E1,2.3720469E1,5.7462803E1,1.7542784E1,6.177683E0,3.738575E1,2.0077053E1,1.2498959E1,5.043826E0,1.760475E1,1.9780998E1,7.2343354E0,1.2842718E1,7.3752775E0,1.0229473E1,1.3668619E1,6.1123786E0],"tree_param":{"num_deleted":"0","num_feature":"16","num_nodes":"17","size_leaf_vector":"1"}},{"base_weights":[1.2730097E-2,-1.0868907E-1,1.0124006E-1,-5.88186E-1,1.4542502E-1,-1.00533165E-1,-1.5507855E-3,-1.4229264E-2,1.0032756E-1,-6.60903E-2,1.2499301E-2],"categories":[],"categories_nodes":[],"categories_segments":[],"categories_sizes":[],"default_left":[0,0,0,0,0,0,0,0,0,0,0],"id":42,"left_children":[1,3,-1,5,7,-1,-1,9,-1,-1,-1],"loss_changes":[9.227121E0,8.860152E0,0E0,5.080165E0,6.081681E0,0E0,0E0,3.3138263E0,0E0,0E0,0E0],"parents":[2147483647,0,0,1,1,3,3,4,4,7,7],"right_children":[2,4,-1,6,8,-1,-1,10,-1,-1,-1],"split_conditions":[2E0,7.4E-1,1.0124006E-1,1.64E0,1.54E0,-1.00533165E-1,-1.5507855E-3,8.9E-1,1.0032756E-1,-6.60903E-2,1.2499301E-2],"split_indices":[6,7,0,6,6,0,0,6,0,0,0],"split_type":[0,0,0,0,0,0,0,0,0,0,0],"sum_hessian":[7.934914E1,7.1013435E1,8.335703E0,2.4142824E1,4.687061E1,1.4546658E1,9.596167E0,3.9841488E1,7.029122E0,6.444419E0,3.3397068E1],"tree_param":{"num_deleted":"0","num_feature":"16","num_nodes":"11","size_leaf_vector":"1"}},{"base_weights":[1.4204983E-2,-1.4263509E-1,7.656576E-1,-1.008024E-1,3.3715956E-2,1.0246999E-1,4.0430307E-2,-7.901907E-2,1.4488618E-1,-5.3879665E-3,9.224874E-2],"categories":[],"categories_nodes":[],"categories_segments":[],"categories_sizes":[],"default_left":[0,0,0,0,0,0,0,0,0,0,0],"id":43,"left_children":[1,3,5,-1,7,-1,-1,-1,9,-1,-1],"loss_changes":[8.951099E0,8.920917E0,6.204796E-1,0E0,4.6246753E0,0E0,0E0,0E0,6.6103454E0,0E0,0E0],"parents":[2147483647,0,0,1,1,2,2,4,4,8,8],"right_children":[2,4,6,-1,8,-1,-1,-1,10,-1,-1],"split_conditions":[1.85E0,5.6E-1,1.0858765E0,-1.008024E-1,8.5E-1,1.0246999E-1,4.0430307E-2,-7.901907E-2,1.3E0,-5.3879665E-3,9.224874E-2],"split_indices":[6,7,3,0,6,0,0,0,7,0,0],"split_type":[0,0,0,0,0,0,0,0,0,0,0],"sum_hessian":[7.402162E1,6.1910175E1,1.2111448E1,1.03831625E1,5.1527016E1,7.0850506E0,5.026397E0,5.7635965E0,4.576342E1,3.67166E1,9.046821E0],"tree_param":{"num_deleted":"0","num_feature":"16","num_nodes":"11","size_leaf_vector":"1"}},{"base_weights":[-4.514755E-2,-1.5456793E-1,9.755558E-2,-1.0674728E-1,-2.3059461E-2,-1.3638096E-1,7.481031E-2,-4.9077366E-2,1.566342E-2],"categories":[],"categories_nodes":[],"categories_segments":[],"categories_sizes":[],"default_left":[0,0,0,0,0,0,0,0,0],"id":44,"left_children":[1,3,-1,-1,5,7,-1,-1,-1],"loss_changes":[7.88301E0,7.4332485E0,0E0,0E0,4.9403663E0,4.816779E0,0E0,0E0,0E0],"parents":[2147483647,0,0,1,1,4,4,5,5],"right_children":[2,4,-1,-1,6,8,-1,-1,-1],"split_conditions":[2E0,4.4E-1,9.755558E-2,-1.0674728E-1,1.72E0,1.01E0,7.481031E-2,-4.9077366E-2,1.566342E-2],"split_indices":[6,7,0,0,6,7,0,0,0],"split_type":[0,0,0,0,0,0,0,0,0],"sum_hessian":[7.2807625E1,6.610129E1,6.706335E0,8.013384E0,5.8087902E1,5.0923782E1,7.1641197E0,2.3485998E1,2.7437784E1],"tree_param":{"num_deleted":"0","num_feature":"16","num_nodes":"9","size_leaf_vector":"1"}},{"base_weights":[2.5201628E-2,-3.929875E-1,2.801189E-1,-7.032577E-1,5.1987346E-2,6.8086884E-3,9.780163E-2,-1.02508776E-1,-3.2361742E-2,-1.5567292E-1,7.238152E-2,-8.943618E-2,5.4379203E-3],"categories":[],"categories_nodes":[],"categories_segments":[],"categories_sizes":[],"default_left":[0,0,0,0,0,0,0,0,0,0,0,0,0],"id":45,"left_children":[1,3,5,7,-1,9,-1,-1,-1,11,-1,-1,-1],"loss_changes":[7.71362E0,7.8293715E0,7.7937126E0,1.8335352E0,0E0,3.6381083E0,0E0,0E0,0E0,3.831471E0,0E0,0E0,0E0],"parents":[2147483647,0,0,1,1,2,2,3,3,5,5,9,9],"right_children":[2,4,6,8,-1,10,-1,-1,-1,12,-1,-1,-1],"split_conditions":[1.21E0,1.44E0,1.02E0,1.16E0,5.1987346E-2,1.91E0,9.780163E-2,-1.02508776E-1,-3.2361742E-2,5.7E-1,7.238152E-2,-8.943618E-2,5.4379203E-3],"split_indices":[6,7,7,7,0,6,0,0,0,7,0,0,0],"split_type":[0,0,0,0,0,0,0,0,0,0,0,0,0],"sum_hessian":[7.03253E1,2.6428312E1,4.389699E1,1.9686203E1,6.742108E0,3.1404667E1,1.2492327E1,1.1143827E1,8.5423765E0,2.5900343E1,5.5043235E0,5.3130994E0,2.0587244E1],"tree_param":{"num_deleted":"0","num_feature":"16","num_nodes":"13","size_leaf_vector":"1"}},{"base_weights":[1.9950252E-3,-3.1915212E-1,3.0700928E-1,-1.0266729E-1,1.6634466E-2,3.2681163E-2,1.0330475E-1,-2.0631102E-1,5.841964E-2,-4.0134314E-2,2.7814016E-1,-7.935443E-2,1.6521296E-2,-4.9139936E-3,8.55732E-2],"categories":[],"categories_nodes":[],"categories_segments":[],"categories_sizes":[],"default_left":[0,0,0,0,0,0,0,0,0,0,0,0,0,0,0],"id":46,"left_children":[1,3,5,-1,7,9,-1,11,-1,-1,13,-1,-1,-1,-1],"loss_changes":[6.971192E0,7.492058E0,6.579361E0,0E0,2.9210773E0,2.7936E0,0E0,3.4954705E0,0E0,0E0,2.9751377E0,0E0,0E0,0E0,0E0],"parents":[2147483647,0,0,1,1,2,2,4,4,5,5,7,7,10,10],"right_children":[2,4,6,-1,8,10,-1,12,-1,-1,14,-1,-1,-1,-1],"split_conditions":[1.35E0,1.01E0,9.4E-1,-1.0266729E-1,1.15E0,1.58E0,1.0330475E-1,1.29E0,5.841964E-2,-4.0134314E-2,6.6E-1,-7.935443E-2,1.6521296E-2,-4.9139936E-3,8.55732E-2],"split_indices":[6,7,7,0,6,6,0,7,0,0,7,0,0,0,0],"split_type":[0,0,0,0,0,0,0,0,0,0,0,0,0,0,0],"sum_hessian":[6.91674E1,3.367008E1,3.549732E1,1.0921076E1,2.2749004E1,2.5819622E1,9.677696E0,1.644666E1,6.3023443E0,9.49219E0,1.632743E1,6.1881866E0,1.0258473E1,1.0643998E1,5.6834335E0],"tree_param":{"num_deleted":"0","num_feature":"16","num_nodes":"15","size_leaf_vector":"1"}},{"base_weights":[5.00853E-2,-4.6271232E-1,2.582101E-1,-1.0315971E-1,7.2859554E-3,6.3682824E-2,1.0361354E-1,-6.559859E-2,1.8907003E-1,-6.5394826E-3,6.80319E-2],"categories":[],"categories_nodes":[],"categories_segments":[],"categories_sizes":[],"default_left":[0,0,0,0,0,0,0,0,0,0,0],"id":47,"left_children":[1,3,5,-1,-1,7,-1,-1,9,-1,-1],"loss_changes":[7.1763344E0,5.2617416E0,6.5410995E0,0E0,0E0,3.3899293E0,0E0,0E0,3.769026E0,0E0,0E0],"parents":[2147483647,0,0,1,1,2,2,5,5,8,8],"right_children":[2,4,6,-1,-1,8,-1,-1,10,-1,-1],"split_conditions":[1.1E0,1.29E0,1.15E0,-1.0315971E-1,7.2859554E-3,1.28E0,1.0361354E-1,-6.559859E-2,8.5E-1,-6.5394826E-3,6.80319E-2],"split_indices":[6,7,7,0,0,6,0,0,7,0,0],"split_type":[0,0,0,0,0,0,0,0,0,0,0],"sum_hessian":[6.5121315E1,1.8446886E1,4.667443E1,9.049916E0,9.39697E0,3.751423E1,9.160202E0,5.247017E0,3.2267212E1,2.1254208E1,1.1013003E1],"tree_param":{"num_deleted":"0","num_feature":"16","num_nodes":"11","size_leaf_vector":"1"}},{"base_weights":[6.120497E-3,-1.23194225E-1,7.37613E-2,-9.665411E-2,6.877313E-3,-4.1789666E-1,1.3362852E-1,-8.928088E-2,1.0022758E-2,-7.400504E-3,8.313016E-2],"categories":[],"categories_nodes":[],"categories_segments":[],"categories_sizes":[],"default_left":[0,0,0,0,0,0,0,0,0,0,0],"id":48,"left_children":[1,3,-1,-1,5,7,9,-1,-1,-1,-1],"loss_changes":[5.845784E0,5.65889E0,0E0,0E0,2.6751368E0,2.5224154E0,5.055377E0,0E0,0E0,0E0,0E0],"parents":[2147483647,0,0,1,1,4,4,5,5,6,6],"right_children":[2,4,-1,-1,6,8,10,-1,-1,-1,-1],"split_conditions":[1.85E0,5.6E-1,7.37613E-2,-9.665411E-2,1.01E0,1.43E0,1.18E0,-8.928088E-2,1.0022758E-2,-7.400504E-3,8.313016E-2],"split_indices":[6,7,0,0,6,7,7,0,0,0,0],"split_type":[0,0,0,0,0,0,0,0,0,0,0],"sum_hessian":[6.40765E1,5.45851E1,9.4914E0,6.936066E0,4.7649033E1,1.0422782E1,3.722625E1,5.3875957E0,5.0351863E0,2.8993725E1,8.232524E0],"tree_param":{"num_deleted":"0","num_feature":"16","num_nodes":"11","size_leaf_vector":"1"}},{"base_weights":[2.5868496E-2,-2.8486738E-1,2.8920922E-1,-9.505197E-2,9.594241E-2,3.911146E-2,9.621638E-2,-2.1698345E-1,5.4784622E-2,-2.7287498E-1,3.091696E-1,-8.3508976E-2,4.2303685E-2,-6.86409E-2,1.15801105E-2,-9.854611E-3,8.263703E-2],"categories":[],"categories_nodes":[],"categories_segments":[],"categories_sizes":[],"default_left":[0,0,0,0,0,0,0,0,0,0,0,0,0,0,0,0,0],"id":49,"left_children":[1,3,5,-1,7,9,-1,11,-1,13,15,-1,-1,-1,-1,-1,-1],"loss_changes":[5.1416197E0,6.7372866E0,5.160529E0,0E0,2.5411239E0,2.2034843E0,0E0,4.2376194E0,0E0,1.7903322E0,2.6733377E0,0E0,0E0,0E0,0E0,0E0,0E0],"parents":[2147483647,0,0,1,1,2,2,4,4,5,5,7,7,9,9,10,10],"right_children":[2,4,6,-1,8,10,-1,12,-1,14,16,-1,-1,-1,-1,-1,-1],"split_conditions":[1.33E0,1.08E0,9.3E-1,-9.505197E-2,1.06E0,1.62E0,9.621638E-2,1.44E0,5.4784622E-2,7.8E-1,6.1E-1,-8.3508976E-2,4.2303685E-2,-6.86409E-2,1.15801105E-2,-9.854611E-3,8.263703E-2],"split_indices":[6,7,7,0,6,6,0,7,0,7,7,0,0,0,0,0,0],"split_type":[0,0,0,0,0,0,0,0,0,0,0,0,0,0,0,0,0],"sum_hessian":[6.0826595E1,2.786491E1,3.2961685E1,1.0245811E1,1.7619099E1,2.415142E1,8.810264E0,1.0340059E1,7.2790394E0,1.1200981E1,1.29504385E1,5.237971E0,5.102089E0,5.337906E0,5.8630753E0,7.3773847E0,5.5730543E0],"tree_param":{"num_deleted":"0","num_feature":"16","num_nodes":"17","size_leaf_vector":"1"}},{"base_weights":[4.3799723E-3,-1.3775256E-1,4.8405576E-1,-8.979085E-2,4.752143E-2,-6.251841E-3,9.991489E-2,-9.199652E-2,4.9845614E-2,-6.278526E-2,1.05944825E-2],"categories":[],"categories_nodes":[],"categories_segments":[],"categories_sizes":[],"default_left":[0,0,0,0,0,0,0,0,0,0,0],"id":50,"left_children":[1,3,5,-1,7,-1,-1,9,-1,-1,-1],"loss_changes":[4.2585998E0,6.319201E0,3.552092E0,0E0,2.3298335E0,0E0,0E0,2.9190972E0,0E0,0E0,0E0],"parents":[2147483647,0,0,1,1,2,2,4,4,7,7],"right_children":[2,4,6,-1,8,-1,-1,10,-1,-1,-1],"split_conditions":[1.72E0,7.1E-1,5.6E-1,-8.979085E-2,1.44E0,-6.251841E-3,9.991489E-2,1.01E0,4.9845614E-2,-6.278526E-2,1.05944825E-2],"split_indices":[6,7,7,0,6,0,0,7,0,0,0],"split_type":[0,0,0,0,0,0,0,0,0,0,0],"sum_hessian":[6.048535E1,4.7209534E1,1.3275816E1,9.108835E0,3.81007E1,6.424942E0,6.8508744E0,2.9172352E1,8.928347E0,7.5404687E0,2.1631884E1],"tree_param":{"num_deleted":"0","num_feature":"16","num_nodes":"11","size_leaf_vector":"1"}},{"base_weights":[-1.9660378E-2,-7.899118E-2,8.803929E-2,-5.7494815E-2,7.879104E-2,-7.513398E-2,8.9713335E-2,-5.0840573E-3,7.2621934E-2],"categories":[],"categories_nodes":[],"categories_segments":[],"categories_sizes":[],"default_left":[0,0,0,0,0,0,0,0,0],"id":51,"left_children":[1,-1,3,5,-1,-1,7,-1,-1],"loss_changes":[4.593852E0,0E0,4.930834E0,4.168108E0,0E0,0E0,2.9537644E0,0E0,0E0],"parents":[2147483647,0,0,2,2,3,3,6,6],"right_children":[2,-1,4,6,-1,-1,8,-1,-1],"split_conditions":[8.3E-1,-7.899118E-2,1.3E0,1.16E0,7.879104E-2,-7.513398E-2,1.04E0,-5.0840573E-3,7.2621934E-2],"split_indices":[6,0,7,6,0,0,7,0,0],"split_type":[0,0,0,0,0,0,0,0,0],"sum_hessian":[5.740418E1,6.7060895E0,5.069809E1,4.216492E1,8.53317E0,7.123637E0,3.5041283E1,2.9173906E1,5.8673763E0],"tree_param":{"num_deleted":"0","num_feature":"16","num_nodes":"9","size_leaf_vector":"1"}},{"base_weights":[-1.5811965E-2,-7.84632E-2,7.867346E-2,-5.9615687E-2,1.0150883E-1,-5.9982117E-2,5.065308E-2,-6.7455946E-3,6.3784994E-2],"categories":[],"categories_nodes":[],"categories_segments":[],"categories_sizes":[],"default_left":[0,0,0,0,0,0,0,0,0],"id":52,"left_children":[1,-1,3,5,-1,-1,7,-1,-1],"loss_changes":[4.0510883E0,0E0,6.430095E0,2.606366E0,0E0,0E0,2.4701293E0,0E0,0E0],"parents":[2147483647,0,0,2,2,3,3,6,6],"right_children":[2,-1,4,6,-1,-1,8,-1,-1],"split_conditions":[4.3E-1,-7.84632E-2,1.82E0,7.1E-1,1.0150883E-1,-5.9982117E-2,1.52E0,-6.7455946E-3,6.3784994E-2],"split_indices":[7,0,6,7,0,0,6,0,0],"split_type":[0,0,0,0,0,0,0,0,0],"sum_hessian":[5.7790672E1,5.9261913E0,5.186448E1,4.556796E1,6.2965198E0,7.4691496E0,3.8098812E1,3.2264904E1,5.833907E0],"tree_param":{"num_deleted":"0","num_feature":"16","num_nodes":"9","size_leaf_vector":"1"}},{"base_weights":[-6.5815663E-3,-7.401881E-2,7.932694E-2,-7.232093E-2,8.920832E-2,-7.370235E-2,2.98237E-2,-5.481009E-2,1.3549206E-2],"categories":[],"categories_nodes":[],"categories_segments":[],"categories_sizes":[],"default_left":[0,0,0,0,0,0,0,0,0],"id":53,"left_children":[1,-1,3,5,-1,-1,7,-1,-1],"loss_changes":[3.4847584E0,0E0,6.0888567E0,2.8425503E0,0E0,0E0,2.1379273E0,0E0,0E0],"parents":[2147483647,0,0,2,2,3,3,6,6],"right_children":[2,-1,4,6,-1,-1,8,-1,-1],"split_conditions":[4.3E-1,-7.401881E-2,1.72E0,7.1E-1,8.920832E-2,-7.370235E-2,8.5E-1,-5.481009E-2,1.3549206E-2],"split_indices":[7,0,6,7,0,0,6,0,0],"split_type":[0,0,0,0,0,0,0,0,0],"sum_hessian":[5.715559E1,5.570886E0,5.15847E1,4.3719078E1,7.8656254E0,5.3861504E0,3.8332928E1,5.161566E0,3.317136E1],"tree_param":{"num_deleted":"0","num_feature":"16","num_nodes":"9","size_leaf_vector":"1"}},{"base_weights":[-9.608218E-3,-2.528605E-1,3.2583925E-1,-9.922338E-2,-4.369321E-3,8.349511E-2,9.565337E-2,-1.8305722E-1,5.8450744E-2,-1.4810787E-1,5.5164985E-2,-4.5838587E-2,3.6479376E-2,-4.93658E-2,1.9347861E-2],"categories":[],"categories_nodes":[],"categories_segments":[],"categories_sizes":[],"default_left":[0,0,0,0,0,0,0,0,0,0,0,0,0,0,0],"id":54,"left_children":[1,3,5,-1,7,9,-1,11,-1,13,-1,-1,-1,-1,-1],"loss_changes":[4.617107E0,5.503578E0,3.2113652E0,0E0,2.5620272E0,1.861628E0,0E0,2.6794477E0,0E0,1.363623E0,0E0,0E0,0E0,0E0,0E0],"parents":[2147483647,0,0,1,1,2,2,4,4,5,5,7,7,9,9],"right_children":[2,4,6,-1,8,10,-1,12,-1,14,-1,-1,-1,-1,-1],"split_conditions":[1.44E0,9.5E-1,8.4E-1,-9.922338E-2,1.28E0,1.85E0,9.565337E-2,1.44E0,5.8450744E-2,6.8E-1,5.5164985E-2,-4.5838587E-2,3.6479376E-2,-4.93658E-2,1.9347861E-2],"split_indices":[6,7,7,0,6,6,0,7,0,7,0,0,0,0,0],"split_type":[0,0,0,0,0,0,0,0,0,0,0,0,0,0,0],"sum_hessian":[5.4573605E1,3.1776695E1,2.2796911E1,7.803109E0,2.3973587E1,1.6798841E1,5.9980693E0,1.8613005E1,5.3605814E0,1.1373823E1,5.425018E0,1.2792661E1,5.8203444E0,5.6140833E0,5.75974E0],"tree_param":{"num_deleted":"0","num_feature":"16","num_nodes":"15","size_leaf_vector":"1"}},{"base_weights":[-1.2219943E-2,-7.1613684E-2,9.183365E-2,-6.302826E-2,6.813574E-2,-8.245572E-2,7.254164E-2,-4.284795E-3,5.6228183E-2],"categories":[],"categories_nodes":[],"categories_segments":[],"categories_sizes":[],"default_left":[0,0,0,0,0,0,0,0,0],"id":55,"left_children":[1,-1,3,5,-1,-1,7,-1,-1],"loss_changes":[3.6803832E0,0E0,3.9728754E0,3.6256733E0,0E0,0E0,1.6622618E0,0E0,0E0],"parents":[2147483647,0,0,2,2,3,3,6,6],"right_children":[2,-1,4,6,-1,-1,8,-1,-1],"split_conditions":[8.9E-1,-7.1613684E-2,1.21E0,1.2E0,6.813574E-2,-8.245572E-2,1.01E0,-4.284795E-3,5.6228183E-2],"split_indices":[6,0,7,6,0,0,7,0,0],"split_type":[0,0,0,0,0,0,0,0,0],"sum_hessian":[5.182738E1,6.330503E0,4.549688E1,3.6135372E1,9.3615055E0,5.0464883E0,3.1088886E1,2.5637716E1,5.4511695E0],"tree_param":{"num_deleted":"0","num_feature":"16","num_nodes":"9","size_leaf_vector":"1"}},{"base_weights":[1.0228331E-2,-5.6003686E-2,1.07491285E-1,-1.6388495E-2,9.228121E-2,-6.345796E-2,9.748734E-2,-3.4540822E-3,6.010757E-2],"categories":[],"categories_nodes":[],"categories_segments":[],"categories_sizes":[],"default_left":[0,0,0,0,0,0,0,0,0],"id":56,"left_children":[1,-1,3,5,-1,-1,7,-1,-1],"loss_changes":[2.8356824E0,0E0,4.3304462E0,2.7262988E0,0E0,0E0,2.1167743E0,0E0,0E0],"parents":[2147483647,0,0,2,2,3,3,6,6],"right_children":[2,-1,4,6,-1,-1,8,-1,-1],"split_conditions":[9E-1,-5.6003686E-2,1.31E0,1.15E0,9.228121E-2,-6.345796E-2,1.01E0,-3.4540822E-3,6.010757E-2],"split_indices":[6,0,7,6,0,0,7,0,0],"split_type":[0,0,0,0,0,0,0,0,0],"sum_hessian":[5.244956E1,7.397351E0,4.5052208E1,3.9554153E1,5.4980545E0,5.817654E0,3.37365E1,2.7104671E1,6.631826E0],"tree_param":{"num_deleted":"0","num_feature":"16","num_nodes":"9","size_leaf_vector":"1"}},{"base_weights":[-7.991142E-3,-1.5853795E-1,4.31665E-1,-9.4287254E-2,-2.9395724E-2,-5.1965136E-3,8.617341E-2,-3.0006847E-1,1.0790407E-1,-7.784563E-2,2.2614814E-2,-1.318192E-2,7.3029116E-2],"categories":[],"categories_nodes":[],"categories_segments":[],"categories_sizes":[],"default_left":[0,0,0,0,0,0,0,0,0,0,0,0,0],"id":57,"left_children":[1,3,5,-1,7,-1,-1,9,11,-1,-1,-1,-1],"loss_changes":[3.571417E0,3.7302551E0,2.5206978E0,0E0,1.3373328E0,0E0,0E0,2.8062096E0,3.2861335E0,0E0,0E0,0E0,0E0],"parents":[2147483647,0,0,1,1,2,2,4,4,7,7,8,8],"right_children":[2,4,6,-1,8,-1,-1,10,12,-1,-1,-1,-1],"split_conditions":[1.64E0,7.1E-1,5.6E-1,-9.4287254E-2,1.07E0,-5.1965136E-3,8.617341E-2,1.44E0,1.13E0,-7.784563E-2,2.2614814E-2,-1.318192E-2,7.3029116E-2],"split_indices":[6,7,7,0,6,0,0,7,7,0,0,0,0],"split_type":[0,0,0,0,0,0,0,0,0,0,0,0,0],"sum_hessian":[5.1924057E1,3.9155766E1,1.2768291E1,5.0417213E0,3.4114044E1,5.9815907E0,6.7867007E0,1.1081831E1,2.3032215E1,5.798927E0,5.2829046E0,1.6992323E1,6.0398912E0],"tree_param":{"num_deleted":"0","num_feature":"16","num_nodes":"13","size_leaf_vector":"1"}},{"base_weights":[1.5355712E-2,-4.546484E-2,1.1336106E-1,-3.4882158E-2,2.0682722E-1,5.891617E-2,1.1102831E-1,2.9690295E-2,-2.848301E-2],"categories":[],"categories_nodes":[],"categories_segments":[],"categories_sizes":[],"default_left":[0,0,0,0,0,0,0,0,0],"id":58,"left_children":[1,-1,3,-1,5,-1,7,-1,-1],"loss_changes":[2.1893566E0,0E0,1.7666168E0,0E0,1.0847142E0,0E0,1.8653789E0,0E0,0E0],"parents":[2147483647,0,0,2,2,4,4,6,6],"right_children":[2,-1,4,-1,6,-1,8,-1,-1],"split_conditions":[5.6E-1,-4.546484E-2,1.647145E-1,-3.4882158E-2,2.4191052E-2,5.891617E-2,2.18E0,2.9690295E-2,-2.848301E-2],"split_indices":[7,0,4,0,1,0,8,0,0],"split_type":[0,0,0,0,0,0,0,0,0],"sum_hessian":[4.8531494E1,8.215286E0,4.0316204E1,6.6267905E0,3.3689415E1,6.2898755E0,2.739954E1,1.9183403E1,8.216137E0],"tree_param":{"num_deleted":"0","num_feature":"16","num_nodes":"9","size_leaf_vector":"1"}},{"base_weights":[-1.1832917E-2,-2.343888E-1,2.747734E-1,-1.0019941E-1,-2.9634655E-2,-5.8545116E-3,7.187843E-2,-3.7279643E-2,1.2694372E-1,-4.6777535E-2,3.1959433E-2,-1.6754163E-2,6.266767E-2],"categories":[],"categories_nodes":[],"categories_segments":[],"categories_sizes":[],"default_left":[0,0,0,0,0,0,0,0,0,0,0,0,0],"id":59,"left_children":[1,3,5,-1,7,9,-1,-1,11,-1,-1,-1,-1],"loss_changes":[3.318891E0,4.1889105E0,2.5479283E0,0E0,1.2296368E0,2.022431E0,0E0,0E0,2.2633774E0,0E0,0E0,0E0,0E0],"parents":[2147483647,0,0,1,1,2,2,4,4,5,5,8,8],"right_children":[2,4,6,-1,8,10,-1,-1,12,-1,-1,-1,-1],"split_conditions":[1.45E0,9.2E-1,7.4E-1,-1.0019941E-1,9.6E-1,1.72E0,7.187843E-2,-3.7279643E-2,1.21E0,-4.6777535E-2,3.1959433E-2,-1.6754163E-2,6.266767E-2],"split_indices":[6,7,7,0,6,6,0,0,7,0,0,0,0],"split_type":[0,0,0,0,0,0,0,0,0,0,0,0,0],"sum_hessian":[5.0022034E1,2.8259851E1,2.1762182E1,5.561224E0,2.2698627E1,1.3344535E1,8.417646E0,7.062037E0,1.563659E1,5.342275E0,8.00226E0,1.0076273E1,5.5603175E0],"tree_param":{"num_deleted":"0","num_feature":"16","num_nodes":"13","size_leaf_vector":"1"}},{"base_weights":[-2.4464814E-2,-2.7136427E-1,1.8216033E-1,-9.622437E-2,-3.233594E-2,-3.4344684E-2,8.581462E-2,-3.0320726E-2,3.287754E-2,-4.1007895E-2,1.6302778E-1,-1.3287588E-2,5.875228E-2],"categories":[],"categories_nodes":[],"categories_segments":[],"categories_sizes":[],"default_left":[0,0,0,0,0,0,0,0,0,0,0,0,0],"id":60,"left_children":[1,3,5,-1,7,9,-1,-1,-1,-1,11,-1,-1],"loss_changes":[2.503765E0,3.3300843E0,3.6315298E0,0E0,1.5607492E0,1.499759E0,0E0,0E0,0E0,0E0,1.6277353E0,0E0,0E0],"parents":[2147483647,0,0,1,1,2,2,4,4,5,5,10,10],"right_children":[2,4,6,-1,8,10,-1,-1,-1,-1,12,-1,-1],"split_conditions":[1.35E0,1.01E0,9.1E-1,-9.622437E-2,1.09E0,1.58E0,8.581462E-2,-3.0320726E-2,3.287754E-2,-4.1007895E-2,6.1E-1,-1.3287588E-2,5.875228E-2],"split_indices":[6,7,7,0,6,6,0,0,0,0,7,0,0],"split_type":[0,0,0,0,0,0,0,0,0,0,0,0,0],"sum_hessian":[4.7109432E1,2.1320242E1,2.578919E1,5.104579E0,1.6215662E1,1.982592E1,5.9632697E0,9.417034E0,6.7986283E0,6.812499E0,1.3013422E1,7.857406E0,5.156016E0],"tree_param":{"num_deleted":"0","num_feature":"16","num_nodes":"13","size_leaf_vector":"1"}},{"base_weights":[-2.6979893E-3,-1.4507753E-1,2.987267E-1,-7.875967E-2,3.590322E-2,-1.6391628E-3,8.62996E-2,-8.33908E-2,4.1549366E-2,-6.829447E-2,1.42780235E-2],"categories":[],"categories_nodes":[],"categories_segments":[],"categories_sizes":[],"default_left":[0,0,0,0,0,0,0,0,0,0,0],"id":61,"left_children":[1,3,5,-1,7,-1,-1,9,-1,-1,-1],"loss_changes":[2.150474E0,3.673798E0,2.5844975E0,0E0,1.1704218E0,0E0,0E0,2.6223717E0,0E0,0E0,0E0],"parents":[2147483647,0,0,1,1,2,2,4,4,7,7],"right_children":[2,4,6,-1,8,-1,-1,10,-1,-1,-1],"split_conditions":[1.58E0,8.5E-1,6.6E-1,-7.875967E-2,1.44E0,-1.6391628E-3,8.62996E-2,1.07E0,4.1549366E-2,-6.829447E-2,1.42780235E-2],"split_indices":[6,7,7,0,7,0,0,6,0,0,0],"split_type":[0,0,0,0,0,0,0,0,0,0,0],"sum_hessian":[4.8098255E1,3.301985E1,1.5078405E1,7.0075765E0,2.6012276E1,9.927006E0,5.151399E0,2.0015E1,5.9972763E0,5.073308E0,1.4941691E1],"tree_param":{"num_deleted":"0","num_feature":"16","num_nodes":"11","size_leaf_vector":"1"}},{"base_weights":[2.504368E-2,-7.279483E-2,6.334863E-2,-3.72661E-1,1.4314768E-1,-7.672519E-2,-1.8399189E-3,-1.9566966E-2,6.788573E-2,-4.418027E-2,2.1150146E-2],"categories":[],"categories_nodes":[],"categories_segments":[],"categories_sizes":[],"default_left":[0,0,0,0,0,0,0,0,0,0,0],"id":62,"left_children":[1,3,-1,5,7,-1,-1,9,-1,-1,-1],"loss_changes":[2.618338E0,2.6702552E0,0E0,2.1009624E0,1.953107E0,0E0,0E0,1.7262523E0,0E0,0E0,0E0],"parents":[2147483647,0,0,1,1,3,3,4,4,7,7],"right_children":[2,4,-1,6,8,-1,-1,10,-1,-1,-1],"split_conditions":[1.44E0,1.35E0,6.334863E-2,1.11E0,9E-1,-7.672519E-2,-1.8399189E-3,1.58E0,6.788573E-2,-4.418027E-2,2.1150146E-2],"split_indices":[7,6,0,7,7,0,0,6,0,0,0],"split_type":[0,0,0,0,0,0,0,0,0,0,0],"sum_hessian":[4.5328804E1,3.9413193E1,5.91561E0,1.6196442E1,2.3216751E1,7.6922793E0,8.504163E0,1.817298E1,5.0437717E0,6.144102E0,1.2028877E1],"tree_param":{"num_deleted":"0","num_feature":"16","num_nodes":"11","size_leaf_vector":"1"}},{"base_weights":[3.139794E-2,-1.8924965E-1,1.9192171E-1,-8.239578E-2,1.5094918E-1,-7.966698E-2,6.549341E-2,-2.1278469E-2,5.957616E-2,-5.2424133E-2,2.2177823E-2],"categories":[],"categories_nodes":[],"categories_segments":[],"categories_sizes":[],"default_left":[0,0,0,0,0,0,0,0,0,0,0],"id":63,"left_children":[1,3,5,-1,7,9,-1,-1,-1,-1,-1],"loss_changes":[1.6322035E0,3.974885E0,3.0901847E0,0E0,1.9822395E0,2.1159773E0,0E0,0E0,0E0,0E0,0E0],"parents":[2147483647,0,0,1,1,2,2,4,4,5,5],"right_children":[2,4,6,-1,8,10,-1,-1,-1,-1,-1],"split_conditions":[1.28E0,1.15E0,8.5E-1,-8.239578E-2,1E0,1.62E0,6.549341E-2,-2.1278469E-2,5.957616E-2,-5.2424133E-2,2.2177823E-2],"split_indices":[6,7,7,0,6,6,0,0,0,0,0],"split_type":[0,0,0,0,0,0,0,0,0,0,0],"sum_hessian":[4.4057007E1,1.8478489E1,2.5578516E1,6.347167E0,1.2131322E1,1.6046103E1,9.5324135E0,6.794242E0,5.33708E0,6.3088584E0,9.737245E0],"tree_param":{"num_deleted":"0","num_feature":"16","num_nodes":"11","size_leaf_vector":"1"}},{"base_weights":[-1.4147624E-2,-8.6159565E-2,3.6530282E-2,-1.829948E-1,2.413977E-2,-5.2194484E-2,-2.4590675E-2,-2.5256637E-2,8.93952E-3],"categories":[],"categories_nodes":[],"categories_segments":[],"categories_sizes":[],"default_left":[0,0,0,0,0,0,0,0,0],"id":64,"left_children":[1,3,-1,5,-1,-1,7,-1,-1],"loss_changes":[1.1906629E0,1.2039175E0,0E0,1.4361941E0,0E0,0E0,4.9599034E-1,0E0,0E0],"parents":[2147483647,0,0,1,1,3,3,6,6],"right_children":[2,4,-1,6,-1,-1,8,-1,-1],"split_conditions":[1.81E0,3.73E0,3.6530282E-2,1.21E0,2.413977E-2,-5.2194484E-2,8.5E-1,-2.5256637E-2,8.93952E-3],"split_indices":[6,8,0,6,0,0,8,0,0],"split_type":[0,0,0,0,0,0,0,0,0],"sum_hessian":[4.426942E1,3.745531E1,6.8141084E0,2.8903841E1,8.55147E0,9.152877E0,1.9750963E1,6.279756E0,1.3471208E1],"tree_param":{"num_deleted":"0","num_feature":"16","num_nodes":"9","size_leaf_vector":"1"}},{"base_weights":[-1.5191687E-2,-9.2352755E-2,4.6002243E-2,-8.524629E-2,3.6062475E-2,-7.913988E-2,5.7028525E-2,-6.352683E-2,7.831708E-3],"categories":[],"categories_nodes":[],"categories_segments":[],"categories_sizes":[],"default_left":[0,0,0,0,0,0,0,0,0],"id":65,"left_children":[1,3,-1,-1,5,7,-1,-1,-1],"loss_changes":[1.591178E0,3.5873966E0,0E0,0E0,2.0025337E0,2.2942724E0,0E0,0E0,0E0],"parents":[2147483647,0,0,1,1,4,4,5,5],"right_children":[2,4,-1,-1,6,8,-1,-1,-1],"split_conditions":[1.44E0,1.06E0,4.6002243E-2,-8.524629E-2,1.11E0,1.36E0,5.7028525E-2,-6.352683E-2,7.831708E-3],"split_indices":[7,6,0,0,7,6,0,0,0],"split_type":[0,0,0,0,0,0,0,0,0],"sum_hessian":[4.4087143E1,3.825987E1,5.827275E0,5.086314E0,3.3173553E1,2.7623522E1,5.550032E0,5.641481E0,2.198204E1],"tree_param":{"num_deleted":"0","num_feature":"16","num_nodes":"9","size_leaf_vector":"1"}},{"base_weights":[-3.8518474E-2,3.5946447E-2,-4.8467375E-2,-5.6216177E-2,5.5374373E-2,-5.6598753E-2,8.164486E-2,-4.090994E-3,5.3201064E-2],"categories":[],"categories_nodes":[],"categories_segments":[],"categories_sizes":[],"default_left":[0,0,0,0,0,0,0,0,0],"id":66,"left_children":[1,3,-1,5,-1,-1,7,-1,-1],"loss_changes":[1.3906949E0,1.7463092E0,0E0,2.219539E0,0E0,0E0,1.3518746E0,0E0,0E0],"parents":[2147483647,0,0,1,1,3,3,6,6],"right_children":[2,4,-1,6,-1,-1,8,-1,-1],"split_conditions":[2.898E3,1.85E0,-4.8467375E-2,6.8E-1,5.5374373E-2,-5.6598753E-2,1.49E0,-4.090994E-3,5.3201064E-2],"split_indices":[12,6,0,7,0,0,6,0,0],"split_type":[0,0,0,0,0,0,0,0,0],"sum_hessian":[4.344116E1,3.7610943E1,5.8302164E0,3.2321404E1,5.28954E0,6.6443663E0,2.5677038E1,2.0640676E1,5.0363603E0],"tree_param":{"num_deleted":"0","num_feature":"16","num_nodes":"9","size_leaf_vector":"1"}},{"base_weights":[1.2091517E-2,-1.4031737E-1,2.1144167E-1,-8.1432536E-2,5.3978365E-2,-4.1680925E-2,6.393155E-2,2.04208E-1,-3.298147E-2,2.9354656E-2,-3.678283E-2,9.22595E-4,5.021299E-2],"categories":[],"categories_nodes":[],"categories_segments":[],"categories_sizes":[],"default_left":[0,0,0,0,0,0,0,0,0,0,0,0,0],"id":67,"left_children":[1,3,5,-1,7,9,-1,11,-1,-1,-1,-1,-1],"loss_changes":[1.3536927E0,3.0993383E0,1.9145172E0,0E0,1.1646715E0,1.3014901E0,0E0,7.706953E-1,0E0,0E0,0E0,0E0,0E0],"parents":[2147483647,0,0,1,1,2,2,4,4,5,5,7,7],"right_children":[2,4,6,-1,8,10,-1,12,-1,-1,-1,-1,-1],"split_conditions":[1.45E0,9.5E-1,7.4E-1,-8.1432536E-2,2.647E3,1.7233126E-1,6.393155E-2,1.16E0,-3.298147E-2,2.9354656E-2,-3.678283E-2,9.22595E-4,5.021299E-2],"split_indices":[6,7,7,0,12,10,0,6,0,0,0,0,0],"split_type":[0,0,0,0,0,0,0,0,0,0,0,0,0],"sum_hessian":[4.2578163E1,2.4297873E1,1.8280293E1,5.086218E0,1.9211655E1,1.1593415E1,6.6868763E0,1.3895086E1,5.316568E0,5.71247E0,5.8809457E0,8.60218E0,5.2929063E0],"tree_param":{"num_deleted":"0","num_feature":"16","num_nodes":"13","size_leaf_vector":"1"}},{"base_weights":[-1.6260226E-3,-7.896066E-2,4.858949E-2,-5.4179877E-2,3.980741E-2,-8.9792974E-2,4.207057E-2,-4.0351685E-2,1.9362869E-2],"categories":[],"categories_nodes":[],"categories_segments":[],"categories_sizes":[],"default_left":[0,0,0,0,0,0,0,0,0],"id":68,"left_children":[1,3,-1,-1,5,7,-1,-1,-1],"loss_changes":[1.5613046E0,1.9429612E0,0E0,0E0,1.4359319E0,1.8766353E0,0E0,0E0,0E0],"parents":[2147483647,0,0,1,1,4,4,5,5],"right_children":[2,4,-1,-1,6,8,-1,-1,-1],"split_conditions":[1.85E0,7.1E-1,4.858949E-2,-5.4179877E-2,1.44E0,1.15E0,4.207057E-2,-4.0351685E-2,1.9362869E-2],"split_indices":[6,7,0,0,6,7,0,0,0],"split_type":[0,0,0,0,0,0,0,0,0],"sum_hessian":[4.2198837E1,3.6794018E1,5.4048176E0,7.276987E0,2.9517033E1,2.215519E1,7.3618436E0,1.0551013E1,1.1604176E1],"tree_param":{"num_deleted":"0","num_feature":"16","num_nodes":"9","size_leaf_vector":"1"}},{"base_weights":[7.000075E-3,7.821784E-2,-4.5665342E-2,-2.43678E-2,5.4378077E-2,-4.253748E-2,1.10017076E-1,-2.9384915E-2,2.6336955E-2],"categories":[],"categories_nodes":[],"categories_segments":[],"categories_sizes":[],"default_left":[0,0,0,0,0,0,0,0,0],"id":69,"left_children":[1,3,-1,5,-1,-1,7,-1,-1],"loss_changes":[1.3290747E0,1.639881E0,0E0,1.5859667E0,0E0,0E0,1.2967695E0,0E0,0E0],"parents":[2147483647,0,0,1,1,3,3,6,6],"right_children":[2,4,-1,6,-1,-1,8,-1,-1],"split_conditions":[2.875E3,1.78E0,-4.5665342E-2,7.8E-1,5.4378077E-2,-4.253748E-2,1.647145E-1,-2.9384915E-2,2.6336955E-2],"split_indices":[12,6,0,7,0,0,4,0,0],"split_type":[0,0,0,0,0,0,0,0,0],"sum_hessian":[4.086136E1,3.5812634E1,5.0487285E0,2.9688852E1,6.1237783E0,7.329687E0,2.2359165E1,5.5878515E0,1.6771315E1],"tree_param":{"num_deleted":"0","num_feature":"16","num_nodes":"9","size_leaf_vector":"1"}},{"base_weights":[-5.291647E-2,-4.104892E-2,2.5873272E-2,-1.0726561E-1,5.5100612E-2,-5.3936042E-2,4.1553136E-2,-1.5344947E-2,4.6838667E-2],"categories":[],"categories_nodes":[],"categories_segments":[],"categories_sizes":[],"default_left":[0,0,0,0,0,0,0,0,0],"id":70,"left_children":[1,-1,3,5,-1,-1,7,-1,-1],"loss_changes":[1.1155455E0,0E0,2.3482552E0,1.7058277E0,0E0,0E0,1.6542649E0,0E0,0E0],"parents":[2147483647,0,0,2,2,3,3,6,6],"right_children":[2,-1,4,6,-1,-1,8,-1,-1],"split_conditions":[5.7E-1,-4.104892E-2,1.58E0,9.1E-1,5.5100612E-2,-5.3936042E-2,1.28E0,-1.5344947E-2,4.6838667E-2],"split_indices":[7,0,6,7,0,0,6,0,0],"split_type":[0,0,0,0,0,0,0,0,0],"sum_hessian":[4.1336483E1,7.1941833E0,3.41423E1,2.7462498E1,6.679802E0,6.8255014E0,2.0636995E1,1.4506769E1,6.1302266E0],"tree_param":{"num_deleted":"0","num_feature":"16","num_nodes":"9","size_leaf_vector":"1"}},{"base_weights":[1.6613975E-2,-7.417241E-2,5.696443E-2,-6.7521185E-2,3.8669724E-2,-5.5976734E-2,4.591099E-2,-4.6802852E-2,8.027391E-3],"categories":[],"categories_nodes":[],"categories_segments":[],"categories_sizes":[],