{"learner":{"attributes":{"best_iteration":"306","best_score":"0.01501681410488249","scikit_learn":"{\"_estimator_type\": \"classifier\"}"},"feature_names":["xg_p90","xa_p90","npxg_p90","shots_p90","key_passes_p90","xg_buildup_p90","tackles_per_90","interceptions_per_90","clearances_per_90","fouls_p90","yellow_cards_p90","red_cards_p90","minutes","pos_FWD","pos_MID","pos_DEF"],"feature_types":["float","float","float","float","float","float","float","float","float","float","float","float","int","i","i","i"],"gradient_booster":{"model":{"cats":{"enc":[],"feature_segments":[],"sorted_idx":[]},"gbtree_model_param":{"num_parallel_tree":"1","num_trees":"357"},"iteration_indptr":[0,1,2,3,4,5,6,7,8,9,10,11,12,13,14,15,16,17,18,19,20,21,22,23,24,25,26,27,28,29,30,31,32,33,34,35,36,37,38,39,40,41,42,43,44,45,46,47,48,49,50,51,52,53,54,55,56,57,58,59,60,61,62,63,64,65,66,67,68,69,70,71,72,73,74,75,76,77,78,79,80,81,82,83,84,85,86,87,88,89,90,91,92,93,94,95,96,97,98,99,100,101,102,103,104,105,106,107,108,109,110,111,112,113,114,115,116,117,118,119,120,121,122,123,124,125,126,127,128,129,130,131,132,133,134,135,136,137,138,139,140,141,142,143,144,145,146,147,148,149,150,151,152,153,154,155,156,157,158,159,160,161,162,163,164,165,166,167,168,169,170,171,172,173,174,175,176,177,178,179,180,181,182,183,184,185,186,187,188,189,190,191,192,193,194,195,196,197,198,199,200,201,202,203,204,205,206,207,208,209,210,211,212,213,214,215,216,217,218,219,220,221,222,223,224,225,226,227,228,229,230,231,232,233,234,235,236,237,238,239,240,241,242,243,244,245,246,247,248,249,250,251,252,253,254,255,256,257,258,259,260,261,262,263,264,265,266,267,268,269,270,271,272,273,274,275,276,277,278,279,280,281,282,283,284,285,286,287,288,289,290,291,292,293,294,295,296,297,298,299,300,301,302,303,304,305,306,307,308,309,310,311,312,313,314,315,316,317,318,319,320,321,322,323,324,325,326,327,328,329,330,331,332,333,334,335,336,337,338,339,340,341,342,343,344,345,346,347,348,349,350,351,352,353,354,355,356,357],"tree_info":[0,0,0,0,0,0,0,0,0,0,0,0,0,0,0,0,0,0,0,0,0,0,0,0,0,0,0,0,0,0,0,0,0,0,0,0,0,0,0,0,0,0,0,0,0,0,0,0,0,0,0,0,0,0,0,0,0,0,0,0,0,0,0,0,0,0,0,0,0,0,0,0,0,0,0,0,0,0,0,0,0,0,0,0,0,0,0,0,0,0,0,0,0,0,0,0,0,0,0,0,0,0,0,0,0,0,0,0,0,0,0,0,0,0,0,0,0,0,0,0,0,0,0,0,0,0,0,0,0,0,0,0,0,0,0,0,0,0,0,0,0,0,0,0,0,0,0,0,0,0,0,0,0,0,0,0,0,0,0,0,0,0,0,0,0,0,0,0,0,0,0,0,0,0,0,0,0,0,0,0,0,0,0,0,0,0,0,0,0,0,0,0,0,0,0,0,0,0,0,0,0,0,0,0,0,0,0,0,0,0,0,0,0,0,0,0,0,0,0,0,0,0,0,0,0,0,0,0,0,0,0,0,0,0,0,0,0,0,0,0,0,0,0,0,0,0,0,0,0,0,0,0,0,0,0,0,0,0,0,0,0,0,0,0,0,0,0,0,0,0,0,0,0,0,0,0,0,0,0,0,0,0,0,0,0,0,0,0,0,0,0,0,0,0,0,0,0,0,0,0,0,0,0,0,0,0,0,0,0,0,0,0,0,0,0,0,0,0,0,0,0,0,0,0,0,0,0,0,0,0,0,0,0,0,0,0,0,0,0,0,0,0,0,0,0,0,0,0,0,0,0,0,0,0,0,0,0],"trees":[{"base_weights":[1.2868121E-2,-1.5881752E0,2.1488879E0,-1.7473853E0,-3.0774066E-1,1.0206288E0,2.2617254E0,-1.2107151E-1,-4.3279886E-2,-1.464181E0,1.7662654E0,-1.2227957E0,1.4118662E-1,7.805239E-2,1.5690991E-1,-1.1546091E-1,-7.3148274E-1,5.8111683E-2,1.3948174E-1,-1.0707877E-1,-3.20563E-2,-1.0056904E-1,8.701704E-3],"categories":[],"categories_nodes":[],"categories_segments":[],"categories_sizes":[],"default_left":[0,0,0,0,0,0,0,0,0,0,0,0,0,0,0,0,0,0,0,0,0,0,0],"id":0,"left_children":[1,3,5,7,9,11,13,-1,-1,15,17,19,-1,-1,-1,-1,21,-1,-1,-1,-1,-1,-1],"loss_changes":[3.1014956E3,1.05136475E2,4.7156128E1,4.407959E0,1.4299321E2,8.8305534E1,4.081421E0,0E0,0E0,4.7083817E0,3.408699E0,2.3724785E0,0E0,0E0,0E0,0E0,6.6523314E0,0E0,0E0,0E0,0E0,0E0,0E0],"parents":[2147483647,0,0,1,1,2,2,3,3,4,4,5,5,6,6,9,9,10,10,11,11,16,16],"right_children":[2,4,6,8,10,12,14,-1,-1,16,18,20,-1,-1,-1,-1,22,-1,-1,-1,-1,-1,-1],"split_conditions":[1.0186602E0,9.4736844E-1,1.0607142E0,3.7634408E-1,2.2249691E-1,1.4248021E-1,3.8527396E-2,-1.2107151E-1,-4.3279886E-2,1.8120806E-1,9.6716416E-1,1.06E0,1.4118662E-1,7.805239E-2,1.5690991E-1,-1.1546091E-1,9.89011E-1,5.8111683E-2,1.3948174E-1,-1.0707877E-1,-3.20563E-2,-1.0056904E-1,8.701704E-3],"split_indices":[9,9,9,10,10,10,10,0,0,10,9,7,0,0,0,0,9,0,0,0,0,0,0],"split_type":[0,0,0,0,0,0,0,0,0,0,0,0,0,0,0,0,0,0,0,0,0,0,0],"sum_hessian":[9.049091E2,5.1737195E2,3.8753717E2,4.5983154E2,5.7540417E1,3.6147186E1,3.5138998E2,4.5491354E2,4.9179845E0,3.7130783E1,2.0409636E1,1.1311364E1,2.4835821E1,6.1474805E0,3.452425E2,2.7786612E1,9.344171E0,5.409783E0,1.4999852E1,7.1310773E0,4.180287E0,4.6720853E0,4.6720853E0],"tree_param":{"num_deleted":"0","num_feature":"16","num_nodes":"23","size_leaf_vector":"1"}},{"base_weights":[1.19771E-2,-7.699756E-1,8.5380894E-1,-9.8461825E-1,2.2739008E-1,4.3405926E-1,1.4809736E0,-1.1877443E0,-6.3927275E-1,-1.4812295E-1,1.1493104E0,2.4457933E-2,1.1299075E0,9.660202E-1,1.7501153E0,-1.2615515E0,-6.786581E-1,-3.6030746E-1,-1.1714308E0,-1.0527521E0,6.808364E-2,2.3448776E-2,1.3904763E0,-4.0113243E-1,3.988558E-1,1.6070662E0,7.383869E-1,4.096034E-1,1.3355541E0,1.3908811E0,1.9694912E0,-1.4404688E0,-1.1123346E0,-9.789458E-1,-2.6837668E-1,-6.895597E-1,3.5573432E-1,-1.3499818E0,-4.6674114E-1,-8.879167E-2,-4.309242E-2,-1.2138832E-1,7.674704E-2,1.081378E-1,4.3580934E-2,-5.659156E-1,2.3704742E-1,-1.6587785E-1,8.8107485E-1,1.2252275E0,1.2829918E-1,1.0146154E0,-8.759025E-2,-1.9185899E-1,8.9706415E-1,1.4867014E0,1.3137632E-2,7.445546E-1,1.6108931E0,1.424619E0,1.4151706E-1,-5.4722965E-2,-1.461795E0,-9.4515E-1,-1.0060075E-1,-4.9792845E-3,-1.2372636E0,3.4097914E-2,-7.426288E-1,-1.0297523E0,6.253481E-2,-2.6437933E-2,9.523227E-1,-4.6866376E-2,-1.00511625E-1,-7.032418E-2,1.9465983E-2,-3.1785923E-1,6.134847E-1,-8.564097E-2,-3.89752E-1,-2.5785156E-2,6.977457E-1,4.2923325E-1,-6.247364E-1,1.2547599E0,8.9814045E-2,1.4296598E0,4.5297805E-2,5.5442053E-1,1.3293467E0,-4.683426E-2,3.0377835E-2,-5.5506725E-2,1.42882895E-2,3.332917E-2,8.8202186E-2,5.2857675E-2,1.5813826E0,7.7059366E-2,1.5033227E-2,1.0743121E0,1.7900251E0,1.2090663E-1,6.651794E-2,-5.528727E-2,-1.0224935E-1,-8.562465E-2,-4.678788E-2,-4.9016606E-2,-9.7381815E-2,-6.1232295E-2,-3.017508E-2,-7.894031E-2,7.2728326E-3,-3.033977E-2,3.41124E-2,3.1087043E-2,-4.9055133E-2,9.011214E-2,2.4633668E-2,-3.1382058E-2,2.4601534E-2,6.882317E-2,7.2885617E-3,2.107929E-2,-3.8133603E-2,7.2421804E-2,1.4585646E-2,-3.018543E-3,5.4638855E-2,-9.328048E-2,-2.7889598E-2,5.7616003E-2,1.1026264E-1,-3.699267E-2,4.2666286E-2,5.6535773E-2,1.1076915E-1,6.1785642E-2,-2.6515823E-2,9.929646E-2,4.4626463E-2,6.528164E-2,1.1665492E-1,3.7164807E-2,9.348614E-2,1.31693E-1,6.824272E-2],"categories":[],"categories_nodes":[],"categories_segments":[],"categories_sizes":[],"default_left":[0,0,0,0,0,0,0,0,0,0,0,0,0,0,0,0,0,0,0,0,0,0,0,0,0,0,0,0,0,0,0,0,0,0,0,0,0,0,0,0,0,0,0,0,0,0,0,0,0,0,0,0,0,0,0,0,0,0,0,0,0,0,0,0,0,0,0,0,0,0,0,0,0,0,0,0,0,0,0,0,0,0,0,0,0,0,0,0,0,0,0,0,0,0,0,0,0,0,0,0,0,0,0,0,0,0,0,0,0,0,0,0,0,0,0,0,0,0,0,0,0,0,0,0,0,0,0,0,0,0,0,0,0,0,0,0,0,0,0,0,0,0,0,0,0,0,0,0,0],"id":1,"left_children":[1,3,5,7,9,11,13,15,17,19,21,23,25,27,29,31,33,35,37,39,41,-1,43,45,47,49,51,53,55,57,59,61,63,65,67,69,71,73,75,-1,-1,77,-1,-1,-1,79,81,83,85,87,-1,89,91,93,95,97,-1,99,101,103,-1,-1,105,107,-1,-1,109,-1,111,113,115,117,119,-1,-1,-1,-1,121,123,-1,125,-1,127,129,131,133,135,137,-1,139,141,-1,-1,-1,-1,-1,-1,-1,143,-1,-1,145,147,-1,-1,-1,-1,-1,-1,-1,-1,-1,-1,-1,-1,-1,-1,-1,-1,-1,-1,-1,-1,-1,-1,-1,-1,-1,-1,-1,-1,-1,-1,-1,-1,-1,-1,-1,-1,-1,-1,-1,-1,-1,-1,-1,-1,-1,-1],"loss_changes":[5.92346E2,1.000961E2,1.13431244E2,2.6184204E1,2.905391E1,7.4363556E1,2.2331116E1,8.187103E0,2.1016663E1,1.1840228E1,4.258995E0,2.650146E1,1.6876205E1,1.2144615E1,6.1342163E0,3.9785461E0,3.7585402E0,2.2923008E1,5.5633316E0,3.7191868E-1,9.949525E0,0E0,1.5078583E0,8.32276E0,2.4232998E1,1.893425E0,1.2628342E1,7.8173466E0,6.057846E0,5.355217E0,2.1627808E-1,1.0101318E-1,5.5157013E0,4.2358456E0,5.8611455E0,1.7010368E1,7.0836477E0,1.8479614E0,5.0581946E0,0E0,0E0,6.3767104E0,0E0,0E0,0E0,6.9387646E0,4.9613805E0,1.162261E1,1.404113E1,1.387703E0,0E0,5.2397537E0,4.902978E0,3.232156E0,1.691102E0,9.806137E-1,0E0,2.4286952E0,1.2997284E0,1.8932915E-1,0E0,0E0,1.328888E-1,5.7188873E0,0E0,0E0,3.2322502E-1,0E0,4.5721054E-2,6.1626625E0,4.915179E0,6.8252234E0,2.0979147E0,0E0,0E0,0E0,0E0,3.3677714E0,1.7304533E0,0E0,5.9672723E0,0E0,1.4737101E0,3.2555902E0,3.2819586E0,3.357872E0,5.7905426E0,1.9262505E-1,0E0,6.294706E0,8.8970184E-1,0E0,0E0,0E0,0E0,0E0,0E0,0E0,3.5746002E-1,0E0,0E0,9.166765E-1,4.1461945E-1,0E0,0E0,0E0,0E0,0E0,0E0,0E0,0E0,0E0,0E0,0E0,0E0,0E0,0E0,0E0,0E0,0E0,0E0,0E0,0E0,0E0,0E0,0E0,0E0,0E0,0E0,0E0,0E0,0E0,0E0,0E0,0E0,0E0,0E0,0E0,0E0,0E0,0E0,0E0,0E0,0E0,0E0,0E0,0E0,0E0,0E0],"parents":[2147483647,0,0,1,1,2,2,3,3,4,4,5,5,6,6,7,7,8,8,9,9,10,10,11,11,12,12,13,13,14,14,15,15,16,16,17,17,18,18,19,19,20,20,22,22,23,23,24,24,25,25,26,26,27,27,28,28,29,29,30,30,31,31,32,32,33,33,34,34,35,35,36,36,37,37,38,38,41,41,45,45,46,46,47,47,48,48,49,49,51,51,52,52,53,53,54,54,55,55,57,57,58,58,59,59,62,62,63,63,66,66,68,68,69,69,70,70,71,71,72,72,77,77,78,78,80,80,82,82,83,83,84,84,85,85,86,86,87,87,89,89,90,90,98,98,101,101,102,102],"right_children":[2,4,6,8,10,12,14,16,18,20,22,24,26,28,30,32,34,36,38,40,42,-1,44,46,48,50,52,54,56,58,60,62,64,66,68,70,72,74,76,-1,-1,78,-1,-1,-1,80,82,84,86,88,-1,90,92,94,96,98,-1,100,102,104,-1,-1,106,108,-1,-1,110,-1,112,114,116,118,120,-1,-1,-1,-1,122,124,-1,126,-1,128,130,132,134,136,138,-1,140,142,-1,-1,-1,-1,-1,-1,-1,144,-1,-1,146,148,-1,-1,-1,-1,-1,-1,-1,-1,-1,-1,-1,-1,-1,-1,-1,-1,-1,-1,-1,-1,-1,-1,-1,-1,-1,-1,-1,-1,-1,-1,-1,-1,-1,-1,-1,-1,-1,-1,-1,-1,-1,-1,-1,-1,-1,-1],"split_conditions":[1.7307693E-1,1.84E0,2.742509E-1,2.0774801E-1,1E0,1.71E0,1.37E0,1.598579E-1,2.3359396E-1,6.6839956E-2,7.6E-1,8.829942E-1,1E0,8.386464E-1,3.1209362E-1,1.15E0,1.35E0,7.9E-1,1.3420817E-1,2.26E0,2.61E0,2.3448776E-2,2.887E3,3.0800821E-2,6.1E-1,2.08E0,3.0807498E-1,1.01E0,2.4003331E-1,1.897E3,3.887689E-1,7.171315E-2,2.926736E-1,4.2E-1,1.6518813E-1,7.1E-1,3.234244E-1,2E-1,4.2E-1,-8.879167E-2,-4.309242E-2,1.5570934E-1,7.674704E-2,1.081378E-1,4.3580934E-2,9.6E-1,1.6914968E-1,1.9969325E-1,1E0,1.0828876E0,1.2829918E-1,4.7182176E-1,5.2044608E-2,1.9318439E-1,1.9132473E-1,1.7E-1,1.3137632E-2,6.2690467E-1,1.77E0,1.9E0,1.4151706E-1,-5.4722965E-2,1.558E3,9.457093E-2,-1.0060075E-1,-4.9792845E-3,1.9998025E-2,3.4097914E-2,2.9358998E-2,6.0497147E-1,4.2E-1,1.5470363E-1,1.11E0,-4.6866376E-2,-1.00511625E-1,-7.032418E-2,1.9465983E-2,3.7220843E-2,1.6635859E-1,-8.564097E-2,1.4E0,-2.5785156E-2,2.9077368E-2,3E-1,1.9118428E-1,1.1E0,1.23E0,7.6553255E-1,4.5297805E-2,7.0412517E-1,4.44E0,-4.683426E-2,3.0377835E-2,-5.5506725E-2,1.42882895E-2,3.332917E-2,8.8202186E-2,5.2857675E-2,1.627E3,7.7059366E-2,1.5033227E-2,3.4794867E-2,1.0617317E-1,1.2090663E-1,6.651794E-2,-5.528727E-2,-1.0224935E-1,-8.562465E-2,-4.678788E-2,-4.9016606E-2,-9.7381815E-2,-6.1232295E-2,-3.017508E-2,-7.894031E-2,7.2728326E-3,-3.033977E-2,3.41124E-2,3.1087043E-2,-4.9055133E-2,9.011214E-2,2.4633668E-2,-3.1382058E-2,2.4601534E-2,6.882317E-2,7.2885617E-3,2.107929E-2,-3.8133603E-2,7.2421804E-2,1.4585646E-2,-3.018543E-3,5.4638855E-2,-9.328048E-2,-2.7889598E-2,5.7616003E-2,1.1026264E-1,-3.699267E-2,4.2666286E-2,5.6535773E-2,1.1076915E-1,6.1785642E-2,-2.6515823E-2,9.929646E-2,4.4626463E-2,6.528164E-2,1.1665492E-1,3.7164807E-2,9.348614E-2,1.31693E-1,6.824272E-2],"split_indices":[10,6,10,0,14,6,6,10,5,10,8,3,15,3,10,6,6,6,10,6,6,0,12,11,8,6,5,7,1,12,3,4,5,8,10,8,2,7,7,0,0,10,0,0,0,6,5,5,15,4,0,3,0,5,5,7,0,4,6,8,0,0,12,10,0,0,1,0,2,2,6,1,6,0,0,0,0,11,10,0,8,0,1,8,10,6,6,3,0,4,8,0,0,0,0,0,0,0,12,0,0,1,1,0,0,0,0,0,0,0,0,0,0,0,0,0,0,0,0,0,0,0,0,0,0,0,0,0,0,0,0,0,0,0,0,0,0,0,0,0,0,0,0,0,0,0,0,0,0],"split_type":[0,0,0,0,0,0,0,0,0,0,0,0,0,0,0,0,0,0,0,0,0,0,0,0,0,0,0,0,0,0,0,0,0,0,0,0,0,0,0,0,0,0,0,0,0,0,0,0,0,0,0,0,0,0,0,0,0,0,0,0,0,0,0,0,0,0,0,0,0,0,0,0,0,0,0,0,0,0,0,0,0,0,0,0,0,0,0,0,0,0,0,0,0,0,0,0,0,0,0,0,0,0,0,0,0,0,0,0,0,0,0,0,0,0,0,0,0,0,0,0,0,0,0,0,0,0,0,0,0,0,0,0,0,0,0,0,0,0,0,0,0,0,0,0,0,0,0,0,0],"sum_hessian":[8.978504E2,4.6552414E2,4.3232623E2,3.830919E2,8.243227E1,2.6000308E2,1.7232317E2,2.3967816E2,1.4341371E2,5.9170494E1,2.3261768E1,1.6431595E2,9.568713E1,6.0725437E1,1.11597725E2,2.0803868E2,3.163949E1,9.519048E1,4.8223225E1,1.0667491E1,4.8503006E1,5.8969026E0,1.7364864E1,7.686714E1,8.744881E1,4.1727642E1,5.395949E1,2.507611E1,3.5649326E1,4.5094467E1,6.650326E1,9.066911E1,1.1736957E2,1.7468296E1,1.4171193E1,6.5232216E1,2.995827E1,3.774409E1,1.0479134E1,5.5647726E0,5.1027184E0,4.18152E1,6.687803E0,1.3167574E1,4.197291E0,6.118255E1,1.5684592E1,4.058046E1,4.6868347E1,1.9068516E1,2.2659128E1,4.0265327E1,1.3694164E1,1.1496882E1,1.3579228E1,3.1227625E1,4.4217E0,1.2565406E1,3.252906E1,1.1413473E1,5.5089787E1,4.12131E0,8.65478E1,8.182607E1,3.5543495E1,4.1572204E0,1.3311076E1,5.4128547E0,8.758338E0,4.466146E1,2.0570755E1,1.884312E1,1.1115148E1,6.32207E0,3.1422022E1,5.8146343E0,4.6644993E0,3.3441864E1,8.373338E0,1.1373006E1,4.980954E1,6.8199334E0,8.864658E0,1.7695307E1,2.288515E1,3.14363E1,1.5432048E1,1.2901297E1,6.1672187E0,1.7475098E1,2.279023E1,6.322553E0,7.371611E0,4.1287746E0,7.368108E0,7.6282716E0,5.9509563E0,4.692457E0,2.6535168E1,6.683748E0,5.881658E0,9.892844E0,2.2636215E1,4.9869075E0,6.426565E0,4.125597E0,8.24222E1,3.682468E1,4.5001392E1,4.6164656E0,8.694611E0,4.6162534E0,4.142085E0,4.049523E1,4.166228E0,9.504656E0,1.10661E1,1.1307306E1,7.535815E0,6.200352E0,4.9147954E0,2.8041452E1,5.4004107E0,4.2068195E0,4.166518E0,9.334318E0,4.0475224E1,4.455713E0,4.408946E0,8.079573E0,9.615734E0,4.1012416E0,1.8783909E1,1.5790226E1,1.5646074E1,7.0609455E0,8.371102E0,4.1989136E0,8.702383E0,1.2836574E1,4.6385245E0,1.8601524E1,4.188706E0,5.425452E0,2.1109716E1,4.431793E0,5.461051E0,1.8423605E1,4.212611E0],"tree_param":{"num_deleted":"0","num_feature":"16","num_nodes":"149","size_leaf_vector":"1"}},{"base_weights":[-2.4351422E-2,-1.4639552E0,1.9158108E0,-1.62025E0,-2.4794413E-1,9.408554E-1,2.009207E0,-1.6315948E0,-3.6054518E-2,-1.3290703E0,1.629435E0,-1.1166166E0,1.3194501E-1,3.6253773E-2,1.3972136E-1,-1.1292824E-1,-6.906771E-2,-1.0651032E-1,-2.4126755E-2,4.1163765E-2,1.2640834E-1,-1.0010264E-1,-2.5582982E-2],"categories":[],"categories_nodes":[],"categories_segments":[],"categories_sizes":[],"default_left":[0,0,0,0,0,0,0,0,0,0,0,0,0,0,0,0,0,0,0,0,0,0,0],"id":2,"left_children":[1,3,5,7,9,11,13,15,-1,17,19,21,-1,-1,-1,-1,-1,-1,-1,-1,-1,-1,-1],"loss_changes":[2.5200015E3,9.803235E1,3.310376E1,4.8535156E0,1.2428715E2,7.331668E1,9.142334E0,7.032471E-1,0E0,7.705429E0,3.6743813E0,2.482936E0,0E0,0E0,0E0,0E0,0E0,0E0,0E0,0E0,0E0,0E0,0E0],"parents":[2147483647,0,0,1,1,2,2,3,3,4,4,5,5,6,6,7,7,9,9,10,10,11,11],"right_children":[2,4,6,8,10,12,14,16,-1,18,20,22,-1,-1,-1,-1,-1,-1,-1,-1,-1,-1,-1],"split_conditions":[1.0222223E0,9.530387E-1,1.0607142E0,3.8927335E-1,2.1572387E-1,1.4248021E-1,3.8527396E-2,9.4276094E-1,-3.6054518E-2,1.8352365E-1,9.6716416E-1,1.0856453E-1,1.3194501E-1,3.6253773E-2,1.3972136E-1,-1.1292824E-1,-6.906771E-2,-1.0651032E-1,-2.4126755E-2,4.1163765E-2,1.2640834E-1,-1.0010264E-1,-2.5582982E-2],"split_indices":[9,9,9,10,10,10,10,9,0,10,9,10,0,0,0,0,0,0,0,0,0,0,0],"split_type":[0,0,0,0,0,0,0,0,0,0,0,0,0,0,0,0,0,0,0,0,0,0,0],"sum_hessian":[9.00231E2,5.1692053E2,3.833105E2,4.577528E2,5.9167755E1,3.4477383E1,3.488331E2,4.5258334E2,5.1694517E0,3.7731422E1,2.1436333E1,1.10393915E1,2.343799E1,4.933616E0,3.438995E2,4.4514487E2,7.438471E0,3.0394663E1,7.3367596E0,4.219233E0,1.7217098E1,6.9469514E0,4.0924397E0],"tree_param":{"num_deleted":"0","num_feature":"16","num_nodes":"23","size_leaf_vector":"1"}},{"base_weights":[2.2175847E-2,-1.4540288E0,1.7585698E0,-1.5580026E0,-4.7160602E-1,7.482156E-1,1.8813298E0,-1.0824886E-1,-2.5888335E-2,-1.3975024E0,1.5560077E0,-1.1365017E0,1.6771485E0,1.1495466E0,1.3085511E-1,-1.05642945E-1,-5.0439816E-2,4.903664E-2,1.24667384E-1,-2.112202E-2,-9.587868E-2,3.353382E-2,1.2768306E-1,6.2087784E-3,1.2352406E-1],"categories":[],"categories_nodes":[],"categories_segments":[],"categories_sizes":[],"default_left":[0,0,0,0,0,0,0,0,0,0,0,0,0,0,0,0,0,0,0,0,0,0,0,0,0],"id":3,"left_children":[1,3,5,7,9,11,13,-1,-1,15,17,19,21,23,-1,-1,-1,-1,-1,-1,-1,-1,-1,-1,-1],"loss_changes":[2.2916238E3,4.8624634E1,4.9544556E1,6.569824E0,9.168905E1,8.273237E1,2.8497314E0,0E0,0E0,1.8966446E0,2.0202942E0,2.9340782E0,5.694504E0,7.8199835E0,0E0,0E0,0E0,0E0,0E0,0E0,0E0,0E0,0E0,0E0,0E0],"parents":[2147483647,0,0,1,1,2,2,3,3,4,4,5,5,6,6,9,9,10,10,11,11,12,12,13,13],"right_children":[2,4,6,8,10,12,14,-1,-1,16,18,20,22,24,-1,-1,-1,-1,-1,-1,-1,-1,-1,-1,-1],"split_conditions":[1.009772E0,9.4276094E-1,1.0607142E0,3.7634408E-1,2.2950819E-1,1.4248021E-1,5.4811206E-2,-1.0824886E-1,-2.5888335E-2,1.8352365E-1,2.669039E-1,6.878981E-1,1.6518813E-1,1.2089077E0,1.3085511E-1,-1.05642945E-1,-5.0439816E-2,4.903664E-2,1.24667384E-1,-2.112202E-2,-9.587868E-2,3.353382E-2,1.2768306E-1,6.2087784E-3,1.2352406E-1],"split_indices":[9,9,9,10,10,10,10,0,0,10,10,3,10,9,0,0,0,0,0,0,0,0,0,0,0],"split_type":[0,0,0,0,0,0,0,0,0,0,0,0,0,0,0,0,0,0,0,0,0,0,0,0,0],"sum_hessian":[8.9202496E2,4.8222308E2,4.098019E2,4.3554202E2,4.6681053E1,4.5165985E1,3.6463593E2,4.301625E2,5.3795104E0,3.2260345E1,1.4420709E1,1.4837877E1,3.0328108E1,1.0696533E1,3.539394E2,2.568143E1,6.578916E0,4.218878E0,1.0201831E1,4.013908E0,1.082397E1,4.410644E0,2.5917463E1,4.475643E0,6.2208905E0],"tree_param":{"num_deleted":"0","num_feature":"16","num_nodes":"25","size_leaf_vector":"1"}},{"base_weights":[-4.1108145E-3,-6.446701E-1,6.59381E-1,-8.038816E-1,9.484563E-2,2.672994E-1,1.1789361E0,-5.3786916E-1,-1.0306374E0,9.0600944E-1,-3.1332636E-1,-6.4410076E-2,8.0014694E-1,7.627697E-1,1.4636666E0,-7.550541E-1,4.9057575E-3,-1.1333544E0,-5.029728E-1,3.3908594E-1,1.155797E0,-7.940152E-1,6.456864E-3,-3.0074394E-1,4.023256E-1,1.2633095E0,4.482423E-1,8.6067915E-1,-1.4073096E-2,8.4457403E-1,1.5191542E0,-9.698601E-1,-4.0623012E-1,-3.194003E-1,7.602091E-1,-1.3368427E0,-9.284428E-1,-7.704608E-1,1.4568521E-2,-1.1567877E-2,5.339063E-2,3.7017502E-2,9.027593E-2,-9.5561635E-1,-4.9383533E-3,3.180258E-1,-5.8429938E-2,-7.0660007E-1,5.0068807E-2,-1.19541615E-1,1.0161363E0,9.551383E-1,1.0205269E-1,5.634791E-1,-3.5936344E-2,4.1794965E-1,1.208356E0,9.312126E-2,1.3035704E-2,1.1997795E0,1.0966039E-1,-1.0805273E0,-5.985638E-1,-8.463711E-1,5.2751258E-2,7.013008E-1,-6.87042E-1,7.016405E-2,8.08737E-3,-1.3714563E0,-4.321904E-2,-1.1429011E0,-5.937238E-1,-9.572275E-1,-1.526305E-3,-3.532032E-2,3.483155E-2,-8.335751E-2,-3.694026E-2,9.503415E-2,6.850795E-2,-1.0074695E0,-3.0156645E-1,-1.2314057E-1,6.855417E-1,3.006633E-1,-4.5771155E-1,4.8288056E-1,1.3297508E0,6.9878584E-1,8.963614E-2,1.0860142E0,3.6129564E-1,-4.1830998E-2,6.3263834E-1,8.29277E-1,1.3961458E0,9.571793E-2,3.1534698E-2,-1.3878883E-2,-8.0471344E-2,-4.1668725E-4,-6.321971E-2,-8.758525E-2,-2.5767254E-2,-3.522296E-2,3.572435E-2,1.5248575E-2,7.574129E-2,-6.716438E-2,2.7623601E-2,-9.968559E-2,-7.035289E-2,-8.415674E-2,-3.72808E-2,-2.3702485E-2,-7.3972926E-2,-7.988017E-2,-3.6925893E-2,-4.0009025E-2,3.3338614E-2,-2.856022E-2,-7.5664476E-2,-5.73189E-2,4.1946233E-4,1.5183125E-2,-2.3680573E-2,-1.2211803E-2,8.382952E-2,-3.269493E-2,4.876813E-2,-5.8678642E-2,7.283264E-3,6.624567E-2,-7.864279E-3,1.0407704E-1,5.7456378E-2,7.421432E-2,6.9073807E-3,4.1153044E-2,9.025064E-2,9.497251E-3,7.755891E-2,2.0912293E-2,7.526988E-2,3.5819143E-2,8.4861256E-2,1.0683219E-1,5.9642326E-2],"categories":[],"categories_nodes":[],"categories_segments":[],"categories_sizes":[],"default_left":[0,0,0,0,0,0,0,0,0,0,0,0,0,0,0,0,0,0,0,0,0,0,0,0,0,0,0,0,0,0,0,0,0,0,0,0,0,0,0,0,0,0,0,0,0,0,0,0,0,0,0,0,0,0,0,0,0,0,0,0,0,0,0,0,0,0,0,0,0,0,0,0,0,0,0,0,0,0,0,0,0,0,0,0,0,0,0,0,0,0,0,0,0,0,0,0,0,0,0,0,0,0,0,0,0,0,0,0,0,0,0,0,0,0,0,0,0,0,0,0,0,0,0,0,0,0,0,0,0,0,0,0,0,0,0,0,0,0,0,0,0,0,0,0,0,0,0,0,0],"id":4,"left_children":[1,3,5,7,9,11,13,15,17,19,21,23,25,27,29,31,33,35,37,39,41,43,45,47,49,51,53,55,-1,57,59,61,63,65,67,69,71,73,75,-1,-1,-1,-1,77,-1,79,-1,81,83,85,87,89,-1,91,-1,93,95,-1,-1,97,-1,99,101,103,105,107,109,-1,-1,111,-1,113,115,117,-1,-1,-1,-1,-1,119,-1,121,123,125,127,129,131,133,135,137,-1,139,141,-1,143,145,147,-1,-1,-1,-1,-1,-1,-1,-1,-1,-1,-1,-1,-1,-1,-1,-1,-1,-1,-1,-1,-1,-1,-1,-1,-1,-1,-1,-1,-1,-1,-1,-1,-1,-1,-1,-1,-1,-1,-1,-1,-1,-1,-1,-1,-1,-1,-1,-1,-1,-1,-1,-1],"loss_changes":[3.7196997E2,5.250537E1,8.726163E1,2.155394E1,2.6698565E1,4.3586456E1,2.0758514E1,2.013227E1,1.0094757E1,3.426365E0,8.277626E0,1.6968008E1,1.4848667E1,7.4748497E0,2.4449768E0,8.744377E0,1.2439238E1,5.5932617E0,4.698661E0,2.2672212E0,1.0503159E0,2.4419403E0,9.142258E0,1.455283E1,1.670403E1,1.2982559E0,6.4751577E0,1.0298744E1,0E0,3.462572E0,3.89328E-1,2.425087E0,9.782031E0,1.38178215E1,2.4161005E0,1.1024628E0,5.418785E0,3.1011229E0,3.5029674E0,0E0,0E0,0E0,0E0,1.2194624E0,0E0,3.6994264E0,0E0,5.465027E0,6.2069416E0,4.240632E0,3.353754E0,8.2505035E-1,0E0,4.879775E0,0E0,7.517232E0,1.603241E0,0E0,0E0,2.5229416E0,0E0,4.12307E0,3.667901E0,4.4791737E0,6.716751E0,1.650928E0,8.745017E0,0E0,0E0,5.281067E-1,0E0,1.7515182E0,3.8565102E0,9.019184E-1,0E0,0E0,0E0,0E0,0E0,5.545493E0,0E0,9.90427E-1,3.5328417E0,3.4552567E0,5.752154E0,4.5953155E0,3.7332878E0,3.0899792E0,4.1036606E-2,2.9267325E0,0E0,6.888695E-1,6.249029E0,0E0,3.7998428E0,1.2666407E0,6.694031E-1,0E0,0E0,0E0,0E0,0E0,0E0,0E0,0E0,0E0,0E0,0E0,0E0,0E0,0E0,0E0,0E0,0E0,0E0,0E0,0E0,0E0,0E0,0E0,0E0,0E0,0E0,0E0,0E0,0E0,0E0,0E0,0E0,0E0,0E0,0E0,0E0,0E0,0E0,0E0,0E0,0E0,0E0,0E0,0E0,0E0,0E0,0E0,0E0,0E0,0E0,0E0,0E0],"parents":[2147483647,0,0,1,1,2,2,3,3,4,4,5,5,6,6,7,7,8,8,9,9,10,10,11,11,12,12,13,13,14,14,15,15,16,16,17,17,18,18,19,19,20,20,21,21,22,22,23,23,24,24,25,25,26,26,27,27,29,29,30,30,31,31,32,32,33,33,34,34,35,35,36,36,37,37,38,38,43,43,45,45,47,47,48,48,49,49,50,50,51,51,53,53,55,55,56,56,59,59,61,61,62,62,63,63,64,64,65,65,66,66,69,69,71,71,72,72,73,73,79,79,81,81,82,82,83,83,84,84,85,85,86,86,87,87,88,88,89,89,91,91,92,92,94,94,95,95,96,96],"right_children":[2,4,6,8,10,12,14,16,18,20,22,24,26,28,30,32,34,36,38,40,42,44,46,48,50,52,54,56,-1,58,60,62,64,66,68,70,72,74,76,-1,-1,-1,-1,78,-1,80,-1,82,84,86,88,90,-1,92,-1,94,96,-1,-1,98,-1,100,102,104,106,108,110,-1,-1,112,-1,114,116,118,-1,-1,-1,-1,-1,120,-1,122,124,126,128,130,132,134,136,138,-1,140,142,-1,144,146,148,-1,-1,-1,-1,-1,-1,-1,-1,-1,-1,-1,-1,-1,-1,-1,-1,-1,-1,-1,-1,-1,-1,-1,-1,-1,-1,-1,-1,-1,-1,-1,-1,-1,-1,-1,-1,-1,-1,-1,-1,-1,-1,-1,-1,-1,-1,-1,-1,-1,-1,-1,-1],"split_conditions":[1.7307693E-1,1.84E0,2.669039E-1,1.8924163E-1,1E0,1.67E0,1.51E0,2.9493085E-1,1.5375854E-1,7.6E-1,1.03151865E-1,1.6734457E0,1E0,2.3646621E-1,1.645E3,1.17852464E-1,1.193634E-1,1.07E0,1.7020295E0,1.1208465E-1,1.5414047E-1,2.55E0,2.8875133E-1,1.22E0,5.8E-1,2.08E0,4.3547314E-1,7.743449E-1,-1.4073096E-2,1.41E0,1.74E0,1.43E0,6.630873E-2,8.39785E-2,1.4511563E-1,3.70218E-2,1.0171473E0,1.57E0,8.4E-1,-1.1567877E-2,5.339063E-2,3.7017502E-2,9.027593E-2,6.164383E-1,-4.9383533E-3,2.39E0,-5.8429938E-2,2.2249691E-1,3.044655E-2,1.7870526E-1,2.193E3,1.5126051E0,1.0205269E-1,1.64E0,-3.5936344E-2,2.7849406E-1,1.781E3,9.312126E-2,1.3035704E-2,2.93E0,1.0966039E-1,6.818588E-2,1.24E0,1.3165489E-1,1.02E0,2.219E3,8E-1,7.016405E-2,8.08737E-3,3.7210208E-1,-4.321904E-2,1.41E0,3.9337188E-1,9.3E-1,-1.526305E-3,-3.532032E-2,3.483155E-2,-8.335751E-2,-3.694026E-2,2.2895565E-2,6.850795E-2,8.525563E-3,3.8903054E-2,1.4E0,2.0315214E-1,1.7E-1,3.1E-1,1.0766504E0,9.7E-1,7.632094E-1,8.963614E-2,6.97769E-2,1.94E0,-4.1830998E-2,1.14E0,2.0632951E-1,2.2636518E-1,9.571793E-2,3.1534698E-2,-1.3878883E-2,-8.0471344E-2,-4.1668725E-4,-6.321971E-2,-8.758525E-2,-2.5767254E-2,-3.522296E-2,3.572435E-2,1.5248575E-2,7.574129E-2,-6.716438E-2,2.7623601E-2,-9.968559E-2,-7.035289E-2,-8.415674E-2,-3.72808E-2,-2.3702485E-2,-7.3972926E-2,-7.988017E-2,-3.6925893E-2,-4.0009025E-2,3.3338614E-2,-2.856022E-2,-7.5664476E-2,-5.73189E-2,4.1946233E-4,1.5183125E-2,-2.3680573E-2,-1.2211803E-2,8.382952E-2,-3.269493E-2,4.876813E-2,-5.8678642E-2,7.283264E-3,6.624567E-2,-7.864279E-3,1.0407704E-1,5.7456378E-2,7.421432E-2,6.9073807E-3,4.1153044E-2,9.025064E-2,9.497251E-3,7.755891E-2,2.0912293E-2,7.526988E-2,3.5819143E-2,8.4861256E-2,1.0683219E-1,5.9642326E-2],"split_indices":[10,6,10,5,15,6,6,2,10,8,10,3,15,1,12,10,10,6,3,0,5,6,5,6,8,6,5,3,0,8,6,6,2,1,5,11,3,6,6,0,0,0,0,3,0,6,0,10,11,5,12,3,0,8,0,10,12,0,0,8,0,5,8,5,6,12,6,0,0,2,0,7,5,7,0,0,0,0,0,2,0,1,0,8,5,7,8,4,8,4,0,1,7,0,7,2,5,0,0,0,0,0,0,0,0,0,0,0,0,0,0,0,0,0,0,0,0,0,0,0,0,0,0,0,0,0,0,0,0,0,0,0,0,0,0,0,0,0,0,0,0,0,0,0,0,0,0,0,0],"split_type":[0,0,0,0,0,0,0,0,0,0,0,0,0,0,0,0,0,0,0,0,0,0,0,0,0,0,0,0,0,0,0,0,0,0,0,0,0,0,0,0,0,0,0,0,0,0,0,0,0,0,0,0,0,0,0,0,0,0,0,0,0,0,0,0,0,0,0,0,0,0,0,0,0,0,0,0,0,0,0,0,0,0,0,0,0,0,0,0,0,0,0,0,0,0,0,0,0,0,0,0,0,0,0,0,0,0,0,0,0,0,0,0,0,0,0,0,0,0,0,0,0,0,0,0,0,0,0,0,0,0,0,0,0,0,0,0,0,0,0,0,0,0,0,0,0,0,0,0,0],"sum_hessian":[8.732112E2,4.4429797E2,4.289132E2,3.65518E2,7.8779945E1,2.4530708E2,1.8360614E2,1.697511E2,1.9576692E2,2.5963259E1,5.281669E1,1.5173055E2,9.357654E1,7.608216E1,1.0752397E2,1.2095949E2,4.8791607E1,1.6290698E2,3.2859936E1,8.66178E0,1.7301477E1,2.0507471E1,3.2309216E1,1.0096306E2,5.0767487E1,3.9283405E1,5.4293133E1,6.918781E1,6.89435E0,1.0178642E1,9.734533E1,7.375856E1,4.7200928E1,3.4538757E1,1.4252851E1,7.8965775E1,8.3941216E1,2.1341187E1,1.1518751E1,4.289878E0,4.3719025E0,4.365405E0,1.2936072E1,1.6494217E1,4.013254E0,2.4139671E1,8.169546E0,4.633908E1,5.4623978E1,2.7874006E1,2.289348E1,1.8529844E1,2.075356E1,4.890299E1,5.3901415E0,3.1402365E1,3.778545E1,5.136173E0,5.042469E0,2.1398066E1,7.5947266E1,5.5350758E1,1.8407804E1,2.3664139E1,2.3536789E1,8.9057455E0,2.563301E1,9.746091E0,4.5067596E0,7.440118E1,4.564598E0,4.968985E1,3.4251366E1,1.6855125E1,4.486061E0,5.533244E0,5.985507E0,9.084661E0,7.409558E0,1.9014868E1,5.1248026E0,2.5735046E1,2.0604034E1,4.355776E1,1.1066216E1,1.2478866E1,1.5395142E1,9.418471E0,1.3475009E1,1.2383849E1,6.1459956E0,1.2423511E1,3.647948E1,5.119886E0,2.6282478E1,1.4311582E1,2.3473867E1,1.6337303E1,5.060761E0,5.336295E0,5.001446E1,6.8049374E0,1.1602868E1,1.1557542E1,1.2106597E1,1.0602256E1,1.2934532E1,4.746316E0,4.159429E0,2.0346916E1,5.2860947E0,5.853552E1,1.5865653E1,4.3001293E1,6.688558E0,2.3672268E1,1.0579097E1,1.0192677E1,6.6624484E0,6.7659907E0,1.2248878E1,4.173047E0,2.1561998E1,6.93487E0,1.3669166E1,1.7036776E1,2.6520985E1,4.4735117E0,6.592705E0,4.241901E0,8.236964E0,8.755326E0,6.6398144E0,4.8865767E0,4.5318947E0,8.360726E0,5.114283E0,7.09292E0,5.290929E0,5.0653834E0,7.3581266E0,2.9147688E1,7.331792E0,1.629653E1,9.985949E0,9.395021E0,4.91656E0,1.6668285E1,6.805583E0],"tree_param":{"num_deleted":"0","num_feature":"16","num_nodes":"149","size_leaf_vector":"1"}},{"base_weights":[1.0053174E-2,-1.3827147E0,1.6009473E0,-1.4858052E0,-3.841124E-1,5.730955E-1,1.7267994E0,-1.0309988E-1,-3.0560108E-2,-1.3027204E0,1.0635342E-1,-1.1025677E0,1.5866574E0,3.183342E-2,1.20162115E-1,-1.01674065E-1,-1.1245016E-2,-2.85097E-2,-8.949617E-2,5.998499E-2,1.1628576E-1],"categories":[],"categories_nodes":[],"categories_segments":[],"categories_sizes":[],"default_left":[0,0,0,0,0,0,0,0,0,0,0,0,0,0,0,0,0,0,0,0,0],"id":5,"left_children":[1,3,5,7,9,11,13,-1,-1,15,-1,17,19,-1,-1,-1,-1,-1,-1,-1,-1],"loss_changes":[1.9139077E3,4.6843384E1,5.116809E1,4.249878E0,8.074886E1,7.89931E1,7.3914795E0,0E0,0E0,5.824314E0,0E0,1.8673248E0,6.261215E-1,0E0,0E0,0E0,0E0,0E0,0E0,0E0,0E0],"parents":[2147483647,0,0,1,1,2,2,3,3,4,4,5,5,6,6,9,9,11,11,12,12],"right_children":[2,4,6,8,10,12,14,-1,-1,16,-1,18,20,-1,-1,-1,-1,-1,-1,-1,-1],"split_conditions":[1.0053786E0,9.4276094E-1,1.056E0,3.7634408E-1,2.424569E-1,1.6433354E-1,3.5985604E-2,-1.0309988E-1,-3.0560108E-2,2.0766036E-1,1.0635342E-1,5.1609207E-2,1.8464243E-1,3.183342E-2,1.20162115E-1,-1.01674065E-1,-1.1245016E-2,-2.85097E-2,-8.949617E-2,5.998499E-2,1.1628576E-1],"split_indices":[9,9,9,10,10,10,10,0,0,10,0,1,10,0,0,0,0,0,0,0,0],"split_type":[0,0,0,0,0,0,0,0,0,0,0,0,0,0,0,0,0,0,0,0,0],"sum_hessian":[8.617767E2,4.5957068E2,4.02206E2,4.161243E2,4.3446358E1,4.4480587E1,3.577254E2,4.112259E2,4.8984127E0,2.9648191E1,1.3798165E1,1.6731522E1,2.7749067E1,5.4148183E0,3.5231058E2,2.5469997E1,4.178193E0,4.411978E0,1.2319543E1,4.6496725E0,2.3099394E1],"tree_param":{"num_deleted":"0","num_feature":"16","num_nodes":"21","size_leaf_vector":"1"}},{"base_weights":[-1.7975983E-3,-1.3460655E0,1.5271448E0,-1.4283535E0,-4.0629262E-1,6.3397753E-1,1.6514856E0,-9.910927E-2,-3.32193E-2,-9.054287E-2,1.1646283E0,-9.975842E-1,1.4007206E0,4.8167065E-2,1.1465103E-1,2.113666E-2,1.05208255E-1,-8.837228E-2,-1.4713008E-2,3.5487182E-2,1.0953681E-1],"categories":[],"categories_nodes":[],"categories_segments":[],"categories_sizes":[],"default_left":[0,0,0,0,0,0,0,0,0,0,0,0,0,0,0,0,0,0,0,0,0],"id":6,"left_children":[1,3,5,7,9,11,13,-1,-1,-1,15,17,19,-1,-1,-1,-1,-1,-1,-1,-1],"loss_changes":[1.7175499E3,3.380835E1,4.237378E1,3.4829102E0,5.46214E1,6.319745E1,3.192871E0,0E0,0E0,0E0,3.9412193E0,3.3935375E0,4.899864E0,0E0,0E0,0E0,0E0,0E0,0E0,0E0,0E0],"parents":[2147483647,0,0,1,1,2,2,3,3,4,4,5,5,6,6,10,10,11,11,12,12],"right_children":[2,4,6,8,10,12,14,-1,-1,-1,16,18,20,-1,-1,-1,-1,-1,-1,-1,-1],"split_conditions":[1.0053786E0,9.530387E-1,1.0607142E0,3.7634408E-1,2.208589E-1,1.4248021E-1,3.8527396E-2,-9.910927E-2,-3.32193E-2,-9.054287E-2,2.669039E-1,1.0465117E0,1.013245E0,4.8167065E-2,1.1465103E-1,2.113666E-2,1.05208255E-1,-8.837228E-2,-1.4713008E-2,3.5487182E-2,1.0953681E-1],"split_indices":[9,9,9,10,10,10,10,0,0,0,10,9,9,0,0,0,0,0,0,0,0],"split_type":[0,0,0,0,0,0,0,0,0,0,0,0,0,0,0,0,0,0,0,0,0],"sum_hessian":[8.336653E2,4.4368805E2,3.8997723E2,4.0748782E2,3.6200207E1,4.8401012E1,3.4157623E2,4.0236856E2,5.119265E0,2.3039377E1,1.3160831E1,1.5377652E1,3.3023357E1,5.465072E0,3.3611115E2,4.463215E0,8.697617E0,1.0803801E1,4.5738516E0,6.486741E0,2.6536617E1],"tree_param":{"num_deleted":"0","num_feature":"16","num_nodes":"21","size_leaf_vector":"1"}},{"base_weights":[-5.5816043E-3,-1.2980881E0,1.459781E0,-1.3654608E0,-1.59335E-1,5.828032E-1,1.5833337E0,-1.3958386E0,-6.66634E-1,-9.224577E-2,1.2285315E0,-5.7248014E-1,1.0449525E-1,5.4725405E-2,1.09770685E-1,-9.657024E-2,-4.5372766E-2,-9.03251E-2,6.86527E-2,4.3544497E-2,9.95487E-2,-7.981483E-2,-2.1201601E-2,-7.344914E-2,5.9931036E-2],"categories":[],"categories_nodes":[],"categories_segments":[],"categories_sizes":[],"default_left":[0,0,0,0,0,0,0,0,0,0,0,0,0,0,0,0,0,0,0,0,0,0,0,0,0],"id":7,"left_children":[1,3,5,7,9,11,13,15,17,-1,19,21,-1,-1,-1,-1,-1,-1,-1,-1,-1,-1,23,-1,-1],"loss_changes":[1.5551306E3,3.32536E1,4.077289E1,7.810852E0,4.341516E1,5.3883717E1,1.5599365E0,9.492798E-1,2.1766518E1,0E0,6.698303E-1,7.3099E0,0E0,0E0,0E0,0E0,0E0,0E0,0E0,0E0,0E0,0E0,1.277426E1,0E0,0E0],"parents":[2147483647,0,0,1,1,2,2,3,3,4,4,5,5,6,6,7,7,8,8,10,10,11,11,22,22],"right_children":[2,4,6,8,10,12,14,16,18,-1,20,22,-1,-1,-1,-1,-1,-1,-1,-1,-1,-1,24,-1,-1],"split_conditions":[1.0053786E0,9.6716416E-1,1.0607142E0,3.0420086E-1,2.0766036E-1,1.7037387E-1,3.8527396E-2,6.33134E-2,8.947368E-1,-9.224577E-2,9.782609E-1,1.11317255E-1,1.0449525E-1,5.4725405E-2,1.09770685E-1,-9.657024E-2,-4.5372766E-2,-9.03251E-2,6.86527E-2,4.3544497E-2,9.95487E-2,-7.981483E-2,1.0257949E0,-7.344914E-2,5.9931036E-2],"split_indices":[9,9,9,10,10,10,10,11,9,0,9,10,0,0,0,0,0,0,0,0,0,0,9,0,0],"split_type":[0,0,0,0,0,0,0,0,0,0,0,0,0,0,0,0,0,0,0,0,0,0,0,0,0],"sum_hessian":[8.190862E2,4.3527286E2,3.8381332E2,4.1077112E2,2.4501741E1,4.8101963E1,3.3571136E2,3.92703E2,1.8068136E1,1.3260557E1,1.1241183E1,2.1684174E1,2.641779E1,5.4779806E0,3.3023337E2,3.8839804E2,4.304962E0,1.3172534E1,4.8956027E0,4.044096E0,7.1970873E0,9.972255E0,1.1711919E1,5.3002596E0,6.4116597E0],"tree_param":{"num_deleted":"0","num_feature":"16","num_nodes":"25","size_leaf_vector":"1"}},{"base_weights":[-1.3336666E-2,-1.2296156E0,1.4214848E0,-1.3472843E0,-3.2160774E-1,6.406217E-1,1.5128976E0,-9.375836E-2,-2.0238046E-2,-1.0771676E0,9.7213E-2,-1.0862545E0,1.3941544E0,7.620658E-1,1.0572271E-1,-9.297314E-2,-3.800354E-1,-3.9525013E-2,-8.693623E-2,5.0487176E-2,1.0464321E-1,-3.168626E-2,1.06317535E-1,-8.593188E-2,4.5215003E-2],"categories":[],"categories_nodes":[],"categories_segments":[],"categories_sizes":[],"default_left":[0,0,0,0,0,0,0,0,0,0,0,0,0,0,0,0,0,0,0,0,0,0,0,0,0],"id":8,"left_children":[1,3,5,7,9,11,13,-1,-1,15,-1,17,19,21,-1,-1,23,-1,-1,-1,-1,-1,-1,-1,-1],"loss_changes":[1.3715923E3,4.501422E1,2.4769653E1,5.2196045E0,6.714603E1,5.2943867E1,4.222412E0,0E0,0E0,6.234131E0,0E0,4.0968418E-1,1.2025986E0,1.1483138E1,0E0,0E0,1.1046487E1,0E0,0E0,0E0,0E0,0E0,0E0,0E0,0E0],"parents":[2147483647,0,0,1,1,2,2,3,3,4,4,5,5,6,6,9,9,11,11,12,12,13,13,16,16],"right_children":[2,4,6,8,10,12,14,-1,-1,16,-1,18,20,22,-1,-1,24,-1,-1,-1,-1,-1,-1,-1,-1],"split_conditions":[1.013245E0,9.4276094E-1,1.056E0,3.7634408E-1,2.424569E-1,1.4248021E-1,5.2878965E-2,-9.375836E-2,-2.0238046E-2,1.8352365E-1,9.7213E-2,7.5877644E-2,1.7037387E-1,1.2144579E0,1.0572271E-1,-9.297314E-2,9.8445594E-1,-3.9525013E-2,-8.693623E-2,5.0487176E-2,1.0464321E-1,-3.168626E-2,1.06317535E-1,-8.593188E-2,4.5215003E-2],"split_indices":[9,9,9,10,10,10,10,0,0,10,0,1,10,9,0,0,9,0,0,0,0,0,0,0,0],"split_type":[0,0,0,0,0,0,0,0,0,0,0,0,0,0,0,0,0,0,0,0,0,0,0,0,0],"sum_hessian":[7.839468E2,4.24363E2,3.595838E2,3.7525052E2,4.911248E1,3.8522884E1,3.210609E2,3.699782E2,5.2722864E0,3.4466297E1,1.4646184E1,1.15688715E1,2.6954014E1,1.0274948E1,3.1078595E2,2.4096933E1,1.0369365E1,4.0494585E0,7.5194135E0,5.3886676E0,2.1565346E1,4.1689095E0,6.106038E0,5.533392E0,4.8359733E0],"tree_param":{"num_deleted":"0","num_feature":"16","num_nodes":"25","size_leaf_vector":"1"}},{"base_weights":[8.980611E-3,-1.2017062E0,1.3876256E0,-1.31217E0,-2.2795631E-1,5.6971157E-1,1.469091E0,-9.18472E-2,-8.5310805E-1,-1.1322336E0,1.2133E0,-9.0510553E-1,1.310622E0,4.6546135E-2,1.0192137E-1,-8.931982E-2,2.2807315E-2,-9.0207174E-2,-3.2385934E-2,4.4330224E-2,9.378715E-2,-1.686832E-2,-8.452756E-2,4.5143567E-2,9.918842E-2],"categories":[],"categories_nodes":[],"categories_segments":[],"categories_sizes":[],"default_left":[0,0,0,0,0,0,0,0,0,0,0,0,0,0,0,0,0,0,0,0,0,0,0,0,0],"id":9,"left_children":[1,3,5,7,9,11,13,-1,15,17,19,21,23,-1,-1,-1,-1,-1,-1,-1,-1,-1,-1,-1,-1],"loss_changes":[1.2655806E3,4.31261E1,2.2785583E1,2.4455566E0,5.6558224E1,3.806089E1,1.7834473E0,0E0,1.0426964E1,2.504673E0,5.4569626E-1,2.2262926E0,9.988899E-1,0E0,0E0,0E0,0E0,0E0,0E0,0E0,0E0,0E0,0E0,0E0,0E0],"parents":[2147483647,0,0,1,1,2,2,3,3,4,4,5,5,6,6,8,8,9,9,10,10,11,11,12,12],"right_children":[2,4,6,8,10,12,14,-1,16,18,20,22,24,-1,-1,-1,-1,-1,-1,-1,-1,-1,-1,-1,-1],"split_conditions":[1.0169492E0,9.530387E-1,1.0607142E0,2.9678482E-1,2.1269412E-1,1.4248021E-1,3.5985604E-2,-9.18472E-2,8.947368E-1,1.8352365E-1,2.424569E-1,7.0412517E-1,1.7037387E-1,4.6546135E-2,1.0192137E-1,-8.931982E-2,2.2807315E-2,-9.0207174E-2,-3.2385934E-2,4.4330224E-2,9.378715E-2,-1.686832E-2,-8.452756E-2,4.5143567E-2,9.918842E-2],"split_indices":[9,9,9,10,10,10,10,0,9,10,10,4,10,0,0,0,0,0,0,0,0,0,0,0,0],"split_type":[0,0,0,0,0,0,0,0,0,0,0,0,0,0,0,0,0,0,0,0,0,0,0,0,0],"sum_hessian":[7.5623895E2,4.027147E2,3.5352423E2,3.6137244E2,4.134227E1,3.2746124E1,3.207781E2,3.433555E2,1.801694E1,2.5535267E1,1.5807002E1,1.0875774E1,2.1870352E1,5.205176E0,3.1557294E2,1.3035664E1,4.9812756E0,1.9360336E1,6.174931E0,4.3735495E0,1.1433453E1,4.145345E0,6.7304287E0,4.6147747E0,1.7255577E1],"tree_param":{"num_deleted":"0","num_feature":"16","num_nodes":"25","size_leaf_vector":"1"}},{"base_weights":[-1.2461614E-2,-1.1620027E0,1.3416759E0,-1.2797476E0,-1.8670374E-1,7.8292227E-1,9.870376E-2,-8.931571E-2,-1.3716034E-2,-1.091789E0,1.1452109E0,-9.3217915E-1,1.2312509E0,-8.502661E-2,-2.81278E-2,1.6353786E-2,9.8549806E-2,-9.470078E-2,-2.8988512E-2,2.4830846E-2,1.3536129E0,5.337456E-2,9.716072E-2],"categories":[],"categories_nodes":[],"categories_segments":[],"categories_sizes":[],"default_left":[0,0,0,0,0,0,0,0,0,0,0,0,0,0,0,0,0,0,0,0,0,0,0],"id":10,"left_children":[1,3,5,7,9,11,-1,-1,-1,13,15,17,19,-1,-1,-1,-1,-1,-1,-1,21,-1,-1],"loss_changes":[1.123768E3,4.4599182E1,1.58428955E1,6.215149E0,5.3365196E1,3.8740273E1,0E0,0E0,0E0,2.0588436E0,4.32502E0,1.8444052E0,3.6870575E0,0E0,0E0,0E0,0E0,0E0,0E0,0E0,3.2691956E-2,0E0,0E0],"parents":[2147483647,0,0,1,1,2,2,3,3,4,4,5,5,9,9,10,10,11,11,12,12,20,20],"right_children":[2,4,6,8,10,12,-1,-1,-1,14,16,18,20,-1,-1,-1,-1,-1,-1,-1,22,-1,-1],"split_conditions":[1.0169492E0,9.530387E-1,1.0894737E0,3.7634408E-1,2.1572387E-1,1.11317255E-1,9.870376E-2,-8.931571E-2,-1.3716034E-2,1.8352365E-1,9.6716416E-1,5.8900524E-2,1.4248021E-1,-8.502661E-2,-2.81278E-2,1.6353786E-2,9.8549806E-2,-9.470078E-2,-2.8988512E-2,2.4830846E-2,1.0222223E0,5.337456E-2,9.716072E-2],"split_indices":[9,9,9,10,10,10,0,0,0,10,9,10,10,0,0,0,0,0,0,0,9,0,0],"split_type":[0,0,0,0,0,0,0,0,0,0,0,0,0,0,0,0,0,0,0,0,0,0,0],"sum_hessian":[7.1991895E2,3.894515E2,3.3046744E2,3.4722046E2,4.223105E1,4.788946E1,2.8257797E2,3.415819E2,5.638549E0,2.52518E1,1.6979248E1,9.700506E0,3.8188957E1,2.0217695E1,5.0341067E0,4.5045304E0,1.2474717E1,4.291895E0,5.4086113E0,5.1919184E0,3.299704E1,4.280434E0,2.8716604E1],"tree_param":{"num_deleted":"0","num_feature":"16","num_nodes":"23","size_leaf_vector":"1"}},{"base_weights":[-5.747591E-4,-1.157627E0,1.2641908E0,-1.2543442E0,-2.950216E-1,4.4358233E-1,1.3743886E0,-1.2680694E0,-1.1264614E-2,-1.0981649E0,1.0788326E0,-8.0261236E-1,1.0411468E0,3.9254684E-2,9.549906E-2,-8.796382E-2,-8.562093E-1,-8.61549E-2,-2.2200122E-2,3.08758E-2,9.01462E-2,-7.3720263E-3,-8.224716E-2,3.846234E-1,9.303824E-2,-7.776665E-2,-2.5634464E-2,-4.3051984E-2,9.202552E-2],"categories":[],"categories_nodes":[],"categories_segments":[],"categories_sizes":[],"default_left":[0,0,0,0,0,0,0,0,0,0,0,0,0,0,0,0,0,0,0,0,0,0,0,0,0,0,0,0,0],"id":11,"left_children":[1,3,5,7,9,11,13,15,-1,17,19,21,23,-1,-1,-1,25,-1,-1,-1,-1,-1,-1,27,-1,-1,-1,-1,-1],"loss_changes":[1.022244E3,3.0065063E1,2.9569763E1,4.6989136E0,4.32094E1,3.1358236E1,2.1278687E0,1.3891602E-1,0E0,2.50634E0,1.5254459E0,3.6452456E0,5.2046165E0,0E0,0E0,0E0,9.1958094E-1,0E0,0E0,0E0,0E0,0E0,0E0,1.0849189E1,0E0,0E0,0E0,0E0,0E0],"parents":[2147483647,0,0,1,1,2,2,3,3,4,4,5,5,6,6,7,7,9,9,10,10,11,11,12,12,16,16,23,23],"right_children":[2,4,6,8,10,12,14,16,-1,18,20,22,24,-1,-1,-1,26,-1,-1,-1,-1,-1,-1,28,-1,-1,-1,-1,-1],"split_conditions":[1.0053786E0,9.4276094E-1,1.0607142E0,3.816794E-1,2.2950819E-1,1.4248021E-1,3.4602076E-2,3.1209362E-1,-1.1264614E-2,2.0766036E-1,2.669039E-1,9.7895265E-2,1.8352365E-1,3.9254684E-2,9.549906E-2,-8.796382E-2,8.300971E-1,-8.61549E-2,-2.2200122E-2,3.08758E-2,9.01462E-2,-7.3720263E-3,-8.224716E-2,1.0301769E0,9.303824E-2,-7.776665E-2,-2.5634464E-2,-4.3051984E-2,9.202552E-2],"split_indices":[9,9,9,10,10,10,10,10,0,10,10,2,10,0,0,0,9,0,0,0,0,0,0,9,0,0,0,0,0],"split_type":[0,0,0,0,0,0,0,0,0,0,0,0,0,0,0,0,0,0,0,0,0,0,0,0,0,0,0,0,0],"sum_hessian":[6.9654047E2,3.638042E2,3.3273624E2,3.2671774E2,3.7086456E1,3.9987446E1,2.9274878E2,3.2249722E2,4.22052E0,2.3531065E1,1.355539E1,1.2848765E1,2.713868E1,5.1402497E0,2.8760855E2,3.1335724E2,9.140004E0,1.9145426E1,4.385639E0,4.4136634E0,9.1417265E0,5.08762E0,7.7611456E0,9.420344E0,1.7718336E1,4.990987E0,4.149018E0,4.7371135E0,4.683231E0],"tree_param":{"num_deleted":"0","num_feature":"16","num_nodes":"29","size_leaf_vector":"1"}},{"base_weights":[-3.0394996E-2,-1.1496376E0,1.2132497E0,-1.2350953E0,-3.965411E-1,4.0189776E-1,1.340154E0,-1.248482E0,-4.1204598E-2,-1.0877345E0,9.802881E-1,-6.748412E-1,1.1898953E0,4.896094E-2,9.337573E-2,-8.659668E-2,-5.5241287E-2,-8.4207915E-2,-2.5320983E-2,1.6780643E-2,9.1401756E-2,-7.8043625E-2,-3.2603197E-2,3.632837E-2,9.068457E-2,-1.9683804E-2,1.5547002E-2],"categories":[],"categories_nodes":[],"categories_segments":[],"categories_sizes":[],"default_left":[0,0,0,0,0,0,0,0,0,0,0,0,0,0,0,0,0,0,0,0,0,0,0,0,0,0,0],"id":12,"left_children":[1,3,5,7,9,11,13,15,-1,17,19,21,23,-1,-1,-1,-1,-1,-1,-1,-1,-1,25,-1,-1,-1,-1],"loss_changes":[9.273005E2,2.2075348E1,3.1953827E1,1.9331055E0,3.647243E1,3.822984E1,1.7365723E0,2.227478E-1,0E0,2.005127E0,2.9890413E0,5.6390333E0,1.4772682E0,0E0,0E0,0E0,0E0,0E0,0E0,0E0,0E0,0E0,6.572073E-1,0E0,0E0,0E0,0E0],"parents":[2147483647,0,0,1,1,2,2,3,3,4,4,5,5,6,6,7,7,9,9,10,10,11,11,12,12,22,22],"right_children":[2,4,6,8,10,12,14,16,-1,18,20,22,24,-1,-1,-1,-1,-1,-1,-1,-1,-1,26,-1,-1,-1,-1],"split_conditions":[1.0053786E0,9.4276094E-1,1.0607142E0,3.4394905E-1,2.3525019E-1,1.6433354E-1,4.6224963E-2,9.323583E-1,-4.1204598E-2,2.0766036E-1,2.7675277E-1,1.1622901E-1,1.013245E0,4.896094E-2,9.337573E-2,-8.659668E-2,-5.5241287E-2,-8.4207915E-2,-2.5320983E-2,1.6780643E-2,9.1401756E-2,-7.8043625E-2,2.0530835E-1,3.632837E-2,9.068457E-2,-1.9683804E-2,1.5547002E-2],"split_indices":[9,9,9,10,10,10,10,9,0,10,10,10,9,0,0,0,0,0,0,0,0,0,5,0,0,0,0],"split_type":[0,0,0,0,0,0,0,0,0,0,0,0,0,0,0,0,0,0,0,0,0,0,0,0,0,0,0],"sum_hessian":[6.6419073E2,3.4961942E2,3.145713E2,3.1341464E2,3.6204792E1,4.3111107E1,2.714602E2,3.0602048E2,7.394162E0,2.4243889E1,1.1960904E1,1.8278507E1,2.4832598E1,7.757174E0,2.63703E2,2.9819907E2,7.8213983E0,1.9827085E1,4.416803E0,4.3749013E0,7.586003E0,1.0219373E1,8.059135E0,4.8226476E0,2.000995E1,4.016331E0,4.042804E0],"tree_param":{"num_deleted":"0","num_feature":"16","num_nodes":"27","size_leaf_vector":"1"}},{"base_weights":[3.5274301E-3,-1.0831751E0,1.2577908E0,-1.2185925E0,-2.541117E-1,1.2259535E-3,1.2823361E0,-1.2268574E0,-3.9453913E-2,-1.0259808E0,9.87165E-1,7.59349E-1,9.0983756E-2,-8.4927276E-2,-4.70062E-2,-7.992962E-2,-1.0881852E-2,2.9201934E-2,8.74133E-2,-5.4108355E-2,8.506084E-2],"categories":[],"categories_nodes":[],"categories_segments":[],"categories_sizes":[],"default_left":[0,0,0,0,0,0,0,0,0,0,0,0,0,0,0,0,0,0,0,0,0],"id":13,"left_children":[1,3,5,7,9,-1,11,13,-1,15,17,19,-1,-1,-1,-1,-1,-1,-1,-1,-1],"loss_changes":[8.7022925E2,3.8095795E1,8.997772E0,8.649292E-1,4.824089E1,0E0,4.8995056E0,1.6082764E-1,0E0,3.426731E0,2.5457554E0,1.7468029E1,0E0,0E0,0E0,0E0,0E0,0E0,0E0,0E0,0E0],"parents":[2147483647,0,0,1,1,2,2,3,3,4,4,6,6,7,7,9,9,10,10,11,11],"right_children":[2,4,6,8,10,-1,12,14,-1,16,18,20,-1,-1,-1,-1,-1,-1,-1,-1,-1],"split_conditions":[1.0222223E0,9.4276094E-1,3.5985604E-2,3.7634408E-1,2.2249691E-1,1.2259535E-3,1.056E0,9.350649E-1,-3.9453913E-2,3.3860046E-2,2.669039E-1,1.4248021E-1,9.0983756E-2,-8.4927276E-2,-4.70062E-2,-7.992962E-2,-1.0881852E-2,2.9201934E-2,8.74133E-2,-5.4108355E-2,8.506084E-2],"split_indices":[9,9,10,10,10,0,9,9,0,11,10,10,0,0,0,0,0,0,0,0,0],"split_type":[0,0,0,0,0,0,0,0,0,0,0,0,0,0,0,0,0,0,0,0,0],"sum_hessian":[6.3646136E2,3.4108197E2,2.953794E2,2.9278864E2,4.8293316E1,5.7669683E0,2.8961243E2,2.881995E2,4.589154E0,2.9883905E1,1.8409409E1,2.1440628E1,2.6817178E2,2.8361465E2,4.584837E0,2.5577961E1,4.305944E0,6.9806314E0,1.1428777E1,4.894884E0,1.6545744E1],"tree_param":{"num_deleted":"0","num_feature":"16","num_nodes":"21","size_leaf_vector":"1"}},{"base_weights":[-9.314873E-3,-1.0803641E0,1.1857194E0,-1.1870713E0,-2.5673655E-1,6.224325E-1,8.911348E-2,-1.2046719E0,-1.6795885E-2,-9.70446E-1,9.835212E-1,-1.1109089E0,1.0658847E0,-8.357831E-2,-4.8973113E-2,-7.797747E-2,-2.0951169E-2,1.8928496E-2,8.697822E-2,-9.1527574E-2,-4.7164544E-2,2.4115743E-2,1.2009252E0,4.5042876E-2,8.6422905E-2],"categories":[],"categories_nodes":[],"categories_segments":[],"categories_sizes":[],"default_left":[0,0,0,0,0,0,0,0,0,0,0,0,0,0,0,0,0,0,0,0,0,0,0,0,0],"id":14,"left_children":[1,3,5,7,9,11,-1,13,-1,15,17,19,21,-1,-1,-1,-1,-1,-1,-1,-1,-1,23,-1,-1],"loss_changes":[7.8348816E2,2.8065674E1,1.6843658E1,4.445648E0,3.4857864E1,3.8526264E1,0E0,3.7615967E-1,0E0,2.3313923E0,2.5220785E0,5.5117607E-2,3.3675652E0,0E0,0E0,0E0,0E0,0E0,0E0,0E0,0E0,0E0,1.410904E-1,0E0,0E0],"parents":[2147483647,0,0,1,1,2,2,3,3,4,4,5,5,7,7,9,9,10,10,11,11,12,12,22,22],"right_children":[2,4,6,8,10,12,-1,14,-1,16,18,20,22,-1,-1,-1,-1,-1,-1,-1,-1,-1,24,-1,-1],"split_conditions":[1.013245E0,9.4736844E-1,1.0894737E0,3.7634408E-1,2.2950819E-1,1.0688836E-1,8.911348E-2,9.350649E-1,-1.6795885E-2,1.989683E-1,9.6716416E-1,5.9800666E-2,1.4248021E-1,-8.357831E-2,-4.8973113E-2,-7.797747E-2,-2.0951169E-2,1.8928496E-2,8.697822E-2,-9.1527574E-2,-4.7164544E-2,2.4115743E-2,2.2462169E-2,4.5042876E-2,8.6422905E-2],"split_indices":[9,9,9,10,10,10,0,9,0,10,9,10,10,0,0,0,0,0,0,0,0,0,0,0,0],"split_type":[0,0,0,0,0,0,0,0,0,0,0,0,0,0,0,0,0,0,0,0,0,0,0,0,0],"sum_hessian":[6.1012775E2,3.2180554E2,2.8832224E2,2.8450455E2,3.7300987E1,4.758123E1,2.40741E2,2.7902054E2,5.4840355E0,2.3814447E1,1.3486539E1,9.386533E0,3.8194695E1,2.726085E2,6.412038E0,1.8596611E1,5.217837E0,4.3755226E0,9.111016E0,4.805912E0,4.580621E0,6.6331077E0,3.1561588E1,4.015851E0,2.7545738E1],"tree_param":{"num_deleted":"0","num_feature":"16","num_nodes":"25","size_leaf_vector":"1"}},{"base_weights":[-1.6123226E-2,-1.0402887E0,1.1873171E0,-1.1723642E0,-2.3671666E-1,7.374395E-1,8.7623216E-2,-8.223855E-2,-6.4081913E-1,-8.759493E-1,1.0654317E0,-8.2756495E-1,1.1218383E0,-7.5792044E-2,1.7270012E-2,-8.226849E-2,-2.6521036E-1,3.5756785E-2,8.6739466E-2,-9.070956E-2,-1.3135794E-2,1.2027801E0,2.9030949E-2,-7.1168505E-2,4.6617456E-2,8.704332E-2,4.516296E-2],"categories":[],"categories_nodes":[],"categories_segments":[],"categories_sizes":[],"default_left":[0,0,0,0,0,0,0,0,0,0,0,0,0,0,0,0,0,0,0,0,0,0,0,0,0,0,0],"id":15,"left_children":[1,3,5,7,9,11,-1,-1,13,15,17,19,21,-1,-1,-1,23,-1,-1,-1,-1,25,-1,-1,-1,-1,-1],"loss_changes":[7.1424634E2,3.2948273E1,9.257019E0,2.3502197E0,3.8760105E1,2.7845476E1,0E0,0E0,5.5023665E0,5.722334E0,9.8033714E-1,2.6792011E0,1.5530701E0,0E0,0E0,0E0,9.330379E0,0E0,0E0,0E0,0E0,2.4315262E-1,0E0,0E0,0E0,0E0,0E0],"parents":[2147483647,0,0,1,1,2,2,3,3,4,4,5,5,8,8,9,9,10,10,11,11,12,12,16,16,21,21],"right_children":[2,4,6,8,10,12,-1,-1,14,16,18,20,22,-1,-1,-1,24,-1,-1,-1,-1,26,-1,-1,-1,-1,-1],"split_conditions":[1.0222223E0,9.4276094E-1,1.1015548E0,3.1209362E-1,2.3525019E-1,1.0856453E-1,8.7623216E-2,-8.223855E-2,8.388158E-1,1.744186E-1,2.7057496E-1,6.451613E-2,2.3882682E0,-7.5792044E-2,1.7270012E-2,-8.226849E-2,9.9277294E-1,3.5756785E-2,8.6739466E-2,-9.070956E-2,-1.3135794E-2,3.600691E-1,2.9030949E-2,-7.1168505E-2,4.6617456E-2,8.704332E-2,4.516296E-2],"split_indices":[9,9,9,10,10,10,0,0,9,10,10,10,3,0,0,0,9,0,0,0,0,5,0,0,0,0,0],"split_type":[0,0,0,0,0,0,0,0,0,0,0,0,0,0,0,0,0,0,0,0,0,0,0,0,0,0,0],"sum_hessian":[5.774977E2,3.120602E2,2.6543744E2,2.6761578E2,4.4444427E1,4.374354E1,2.2169391E2,2.5586595E2,1.1749836E1,3.002988E1,1.4414548E1,8.398364E0,3.5345177E1,7.5976763E0,4.1521597E0,1.9105202E1,1.0924678E1,4.7430162E0,9.671532E0,4.1438956E0,4.2544684E0,3.1039871E1,4.3053074E0,5.964389E0,4.960289E0,2.6738554E1,4.3013167E0],"tree_param":{"num_deleted":"0","num_feature":"16","num_nodes":"27","size_leaf_vector":"1"}},{"base_weights":[-7.0790853E-3,-1.0829836E0,1.089515E0,-1.1516477E0,-2.707335E-1,3.0226213E-1,1.2220907E0,-1.1720701E0,-4.8815206E-1,-9.4991416E-1,9.316439E-2,-6.0240865E-1,8.30153E-2,6.0290927E-1,8.617251E-2,-8.135196E-2,-3.4725226E-2,-6.6761956E-2,7.02725E-3,-8.257279E-2,-1.0553479E-2,-7.0703596E-2,-5.8667228E-2,-3.206083E-2,8.525879E-2,-6.2167328E-2,5.338508E-2],"categories":[],"categories_nodes":[],"categories_segments":[],"categories_sizes":[],"default_left":[0,0,0,0,0,0,0,0,0,0,0,0,0,0,0,0,0,0,0,0,0,0,0,0,0,0,0],"id":16,"left_children":[1,3,5,7,9,11,13,15,17,19,-1,21,-1,23,-1,-1,-1,-1,-1,-1,-1,-1,25,-1,-1,-1,-1],"loss_changes":[6.4948364E2,1.5185303E1,2.8084808E1,2.8952942E0,2.6609339E1,3.391884E1,3.460968E0,9.3185425E-1,2.7563107E0,3.1464787E0,0E0,4.7755265E0,0E0,9.011266E0,0E0,0E0,0E0,0E0,0E0,0E0,0E0,0E0,7.912695E0,0E0,0E0,0E0,0E0],"parents":[2147483647,0,0,1,1,2,2,3,3,4,4,5,5,6,6,7,7,8,8,9,9,11,11,13,13,22,22],"right_children":[2,4,6,8,10,12,14,16,18,20,-1,22,-1,24,-1,-1,-1,-1,-1,-1,-1,-1,26,-1,-1,-1,-1],"split_conditions":[9.9277294E-1,2.8717294E-1,1.056E0,9.737249E-1,9.183673E-1,1.8352365E-1,5.8900524E-2,5.765535E-2,1.8E-1,8.801956E-1,9.316439E-2,1.0257949E0,8.30153E-2,1.2089077E0,8.617251E-2,-8.135196E-2,-3.4725226E-2,-6.6761956E-2,7.02725E-3,-8.257279E-2,-1.0553479E-2,-7.0703596E-2,1.193634E-1,-3.206083E-2,8.525879E-2,-6.2167328E-2,5.338508E-2],"split_indices":[9,10,9,9,9,10,10,11,10,9,0,9,0,9,0,0,0,0,0,0,0,0,10,0,0,0,0],"split_type":[0,0,0,0,0,0,0,0,0,0,0,0,0,0,0,0,0,0,0,0,0,0,0,0,0,0,0],"sum_hessian":[5.484889E2,2.7686246E2,2.7162646E2,2.5489673E2,2.1965717E1,3.9622528E1,2.3200392E2,2.4654167E2,8.355056E0,1.5779627E1,6.1860905E0,1.9961538E1,1.9660988E1,1.1429563E1,2.2057436E2,2.4241873E2,4.1229315E0,4.248148E0,4.1069074E0,1.1635925E1,4.143701E0,1.0713613E1,9.247926E0,4.360691E0,7.0688715E0,4.554837E0,4.693089E0],"tree_param":{"num_deleted":"0","num_feature":"16","num_nodes":"27","size_leaf_vector":"1"}},{"base_weights":[-7.974607E-3,-1.0434722E0,1.0888659E0,-1.1203785E0,-1.3095094E-1,3.7488216E-1,1.1961863E0,-8.027137E-2,-5.1109666E-1,-7.305398E-2,7.1264654E-2,-7.1369565E-1,1.1016977E0,4.4663373E-1,8.458119E-2,-7.588715E-2,6.0382463E-2,-6.667012E-2,-3.7359376E-3,3.1920873E-2,8.551354E-2,-3.0772697E-2,7.970259E-2],"categories":[],"categories_nodes":[],"categories_segments":[],"categories_sizes":[],"default_left":[0,0,0,0,0,0,0,0,0,0,0,0,0,0,0,0,0,0,0,0,0,0,0],"id":17,"left_children":[1,3,5,7,9,11,13,-1,15,-1,-1,17,19,21,-1,-1,-1,-1,-1,-1,-1,-1,-1],"loss_changes":[5.909356E2,1.8634949E1,1.891211E1,6.204071E0,2.4875132E1,2.806073E1,4.7114563E0,0E0,1.640962E1,0E0,0E0,2.3648586E0,1.306961E0,7.2168E0,0E0,0E0,0E0,0E0,0E0,0E0,0E0,0E0,0E0],"parents":[2147483647,0,0,1,1,2,2,3,3,4,4,5,5,6,6,8,8,11,11,12,12,13,13],"right_children":[2,4,6,8,10,12,14,-1,16,-1,-1,18,20,22,-1,-1,-1,-1,-1,-1,-1,-1,-1],"split_conditions":[1.0053786E0,9.620524E-1,1.056E0,2.857143E-1,2.1572387E-1,1.6433354E-1,5.8900524E-2,-8.027137E-2,8.801956E-1,-7.305398E-2,7.1264654E-2,1.3726488E-1,1.8352365E-1,1.1734029E0,8.458119E-2,-7.588715E-2,6.0382463E-2,-6.667012E-2,-3.7359376E-3,3.1920873E-2,8.551354E-2,-3.0772697E-2,7.970259E-2],"split_indices":[9,9,9,10,10,10,10,0,9,0,0,10,10,9,0,0,0,0,0,0,0,0,0],"split_type":[0,0,0,0,0,0,0,0,0,0,0,0,0,0,0,0,0,0,0,0,0,0,0],"sum_hessian":[5.182922E2,2.6662622E2,2.5166597E2,2.4569179E2,2.093443E1,3.3472473E1,2.181935E2,2.278597E2,1.7832085E1,1.1695658E1,9.238771E0,1.3408352E1,2.0064121E1,9.550244E0,2.0864325E2,1.2651946E1,5.180139E0,9.337712E0,4.070639E0,4.386168E0,1.5677953E1,4.3956122E0,5.1546316E0],"tree_param":{"num_deleted":"0","num_feature":"16","num_nodes":"23","size_leaf_vector":"1"}},{"base_weights":[-2.4026956E-2,-9.891962E-1,1.1163014E0,-1.125092E0,-2.3681939E-1,6.047078E-1,8.333955E-2,-7.9177804E-2,-6.2922233E-1,-8.4653723E-1,9.8168415E-1,-9.343217E-1,1.0759606E0,-7.16801E-2,1.516591E-2,-7.514562E-2,-2.1695206E-1,2.835734E-2,8.3544314E-2,-8.315105E-2,-3.4480546E-2,3.6037017E-2,8.371555E-2,-6.833081E-2,3.8831767E-2],"categories":[],"categories_nodes":[],"categories_segments":[],"categories_sizes":[],"default_left":[0,0,0,0,0,0,0,0,0,0,0,0,0,0,0,0,0,0,0,0,0,0,0,0,0],"id":18,"left_children":[1,3,5,7,9,11,-1,-1,13,15,17,19,21,-1,-1,-1,23,-1,-1,-1,-1,-1,-1,-1,-1],"loss_changes":[5.5341565E2,2.7576385E1,1.0337952E1,2.0923157E0,3.272397E1,2.8374405E1,0E0,0E0,4.8161783E0,4.2529182E0,1.4500542E0,5.064907E-1,1.6298218E0,0E0,0E0,0E0,6.2529774E0,0E0,0E0,0E0,0E0,0E0,0E0,0E0,0E0],"parents":[2147483647,0,0,1,1,2,2,3,3,4,4,5,5,8,8,9,9,10,10,11,11,12,12,16,16],"right_children":[2,4,6,8,10,12,-1,-1,14,16,18,20,22,-1,-1,-1,24,-1,-1,-1,-1,-1,-1,-1,-1],"split_conditions":[1.0222223E0,9.4276094E-1,1.0945101E0,3.1209362E-1,2.3525019E-1,1.0856453E-1,8.333955E-2,-7.9177804E-2,8.485563E-1,1.8804848E-1,2.669039E-1,6.1245322E-2,1.0339168E0,-7.16801E-2,1.516591E-2,-7.514562E-2,9.89011E-1,2.835734E-2,8.3544314E-2,-8.315105E-2,-3.4480546E-2,3.6037017E-2,8.371555E-2,-6.833081E-2,3.8831767E-2],"split_indices":[9,9,9,10,10,10,0,0,9,10,10,10,9,0,0,0,9,0,0,0,0,0,0,0,0],"split_type":[0,0,0,0,0,0,0,0,0,0,0,0,0,0,0,0,0,0,0,0,0,0,0,0,0],"sum_hessian":[5.00823E2,2.7131534E2,2.2950764E2,2.2938753E2,4.192782E1,3.6736336E1,1.9277132E2,2.1726952E2,1.2118013E1,2.8148212E1,1.3779608E1,8.381427E0,2.835491E1,8.01068E0,4.1073327E0,1.9743065E1,8.405147E0,4.7826657E0,8.996942E0,4.0476336E0,4.333793E0,6.6778307E0,2.167708E1,4.0817065E0,4.3234406E0],"tree_param":{"num_deleted":"0","num_feature":"16","num_nodes":"25","size_leaf_vector":"1"}},{"base_weights":[-8.833039E-3,-1.003827E0,1.0729E0,-1.1297609E0,-3.218277E-1,3.5209942E-1,1.1532326E0,-7.872333E-2,-4.056446E-2,-9.5357865E-1,9.366348E-1,-6.875689E-2,9.8698163E-1,5.121654E-1,8.194875E-2,-7.343467E-2,-3.1068077E-2,2.7205134E-2,8.088556E-2,2.6596641E-2,7.9776764E-2,-4.86927E-2,8.2059324E-2],"categories":[],"categories_nodes":[],"categories_segments":[],"categories_sizes":[],"default_left":[0,0,0,0,0,0,0,0,0,0,0,0,0,0,0,0,0,0,0,0,0,0,0],"id":19,"left_children":[1,3,5,7,9,11,13,-1,-1,15,17,-1,19,21,-1,-1,-1,-1,-1,-1,-1,-1,-1],"loss_changes":[5.0684042E2,2.070279E1,1.2658234E1,8.2162476E-1,3.240087E1,2.1617783E1,4.161743E0,0E0,0E0,1.0419235E0,1.307621E0,0E0,1.2904415E0,1.1392619E1,0E0,0E0,0E0,0E0,0E0,0E0,0E0,0E0,0E0],"parents":[2147483647,0,0,1,1,2,2,3,3,4,4,5,5,6,6,9,9,10,10,12,12,13,13],"right_children":[2,4,6,8,10,12,14,-1,-1,16,18,-1,20,22,-1,-1,-1,-1,-1,-1,-1,-1,-1],"split_conditions":[1.013245E0,9.323583E-1,1.0518934E0,3.4394905E-1,2.3622048E-1,1.4248021E-1,5.8900524E-2,-7.872333E-2,-4.056446E-2,1.989683E-1,2.742509E-1,-6.875689E-2,1.7037387E-1,1.1369681E0,8.194875E-2,-7.343467E-2,-3.1068077E-2,2.7205134E-2,8.088556E-2,2.6596641E-2,7.9776764E-2,-4.86927E-2,8.2059324E-2],"split_indices":[9,9,9,10,10,10,10,0,0,10,10,0,10,9,0,0,0,0,0,0,0,0,0],"split_type":[0,0,0,0,0,0,0,0,0,0,0,0,0,0,0,0,0,0,0,0,0,0,0],"sum_hessian":[4.6890152E2,2.4428062E2,2.2462088E2,2.0565001E2,3.863061E1,2.306334E1,2.0155754E2,1.9959741E2,6.0525947E0,2.5880707E1,1.2749905E1,7.19199E0,1.5871348E1,1.173604E1,1.898215E2,2.022026E1,5.660445E0,4.703297E0,8.046607E0,4.246011E0,1.1625338E1,4.185088E0,7.550952E0],"tree_param":{"num_deleted":"0","num_feature":"16","num_nodes":"23","size_leaf_vector":"1"}},{"base_weights":[1.0843246E-4,-1.0265646E0,1.0184118E0,-1.119432E0,-3.9922553E-1,4.2765644E-1,8.063824E-2,-7.806914E-2,-3.3607595E-2,-9.4129294E-1,8.667774E-1,-5.1422626E-1,1.0445544E0,-7.6325424E-2,-2.517978E-2,3.2450594E-2,7.7840246E-2,-7.9866245E-2,-1.5136689E-2,3.3582885E-2,7.8487515E-2,-6.580858E-2,5.8281988E-2],"categories":[],"categories_nodes":[],"categories_segments":[],"categories_sizes":[],"default_left":[0,0,0,0,0,0,0,0,0,0,0,0,0,0,0,0,0,0,0,0,0,0,0],"id":20,"left_children":[1,3,5,7,9,11,-1,-1,-1,13,15,17,19,-1,-1,-1,-1,-1,21,-1,-1,-1,-1],"loss_changes":[4.678836E2,1.2536316E1,1.974562E1,1.1832886E0,2.1602757E1,2.8243652E1,0E0,0E0,0E0,1.6801033E0,4.6832275E-1,6.278022E0,9.8862076E-1,0E0,0E0,0E0,0E0,0E0,1.0558084E1,0E0,0E0,0E0,0E0],"parents":[2147483647,0,0,1,1,2,2,3,3,4,4,5,5,9,9,10,10,11,11,12,12,18,18],"right_children":[2,4,6,8,10,12,-1,-1,-1,14,16,18,20,-1,-1,-1,-1,-1,22,-1,-1,-1,-1],"split_conditions":[9.9277294E-1,2.6175472E-1,1.0894737E0,9.782609E-1,9.211873E-1,1.5789473E-1,8.063824E-2,-7.806914E-2,-3.3607595E-2,3.5714287E-1,2.9475984E-1,1.0339168E0,1.8352365E-1,-7.6325424E-2,-2.517978E-2,3.2450594E-2,7.7840246E-2,-7.9866245E-2,1.05882354E-1,3.3582885E-2,7.8487515E-2,-6.580858E-2,5.8281988E-2],"split_indices":[9,10,9,9,9,10,0,0,0,10,10,9,10,0,0,0,0,0,10,0,0,0,0],"split_type":[0,0,0,0,0,0,0,0,0,0,0,0,0,0,0,0,0,0,0,0,0,0,0],"sum_hessian":[4.455365E2,2.2185246E2,2.2368404E2,1.9256233E2,2.929012E1,4.66839E1,1.7700014E2,1.875467E2,5.0156345E0,2.0688402E1,8.601717E0,1.8541334E1,2.8142567E1,1.5318454E1,5.369949E0,4.5541377E0,4.0475793E0,7.5075536E0,1.1033781E1,5.000918E0,2.3141647E1,5.2227025E0,5.811078E0],"tree_param":{"num_deleted":"0","num_feature":"16","num_nodes":"23","size_leaf_vector":"1"}},{"base_weights":[1.3996162E-3,-1.0264975E0,9.905752E-1,-1.1007628E0,-2.5398642E-1,3.0227742E-1,1.1296229E0,-7.697874E-2,-3.1803343E-2,-7.181086E-2,6.769371E-2,-6.048241E-1,9.6072656E-1,1.7669136E-2,7.9477556E-2,-8.894765E-1,8.883496E-3,2.5226178E-2,8.1610434E-2,-7.2347976E-2,-3.2116305E-2],"categories":[],"categories_nodes":[],"categories_segments":[],"categories_sizes":[],"default_left":[0,0,0,0,0,0,0,0,0,0,0,0,0,0,0,0,0,0,0,0,0],"id":21,"left_children":[1,3,5,7,9,11,13,-1,-1,-1,-1,15,17,-1,-1,19,-1,-1,-1,-1,-1],"loss_changes":[4.2923764E2,1.1597763E1,2.0247849E1,1.537323E0,2.000903E1,2.299174E1,3.5194244E0,0E0,0E0,0E0,0E0,3.5393019E0,2.5164795E0,0E0,0E0,3.2381153E-1,0E0,0E0,0E0,0E0,0E0],"parents":[2147483647,0,0,1,1,2,2,3,3,4,4,5,5,6,6,11,11,12,12,15,15],"right_children":[2,4,6,8,10,12,14,-1,-1,-1,-1,16,18,-1,-1,20,-1,-1,-1,-1,-1],"split_conditions":[9.9277294E-1,2.857143E-1,1.0607142E0,9.737249E-1,9E-1,1.6433354E-1,3.8527396E-2,-7.697874E-2,-3.1803343E-2,-7.181086E-2,6.769371E-2,1.0465117E0,1.946848E-1,1.7669136E-2,7.9477556E-2,1.3100436E-1,8.883496E-3,2.5226178E-2,8.1610434E-2,-7.2347976E-2,-3.2116305E-2],"split_indices":[9,10,9,9,9,10,10,0,0,0,0,9,10,0,0,10,0,0,0,0,0],"split_type":[0,0,0,0,0,0,0,0,0,0,0,0,0,0,0,0,0,0,0,0,0],"sum_hessian":[4.2015768E2,2.060275E2,2.141302E2,1.8757048E2,1.845701E1,3.6521194E1,1.7760901E2,1.819671E2,5.603379E0,1.1366144E1,7.090867E0,1.5394567E1,2.1126627E1,5.1552444E0,1.7245377E2,1.0939119E1,4.455447E0,6.5100384E0,1.461659E1,6.8487697E0,4.09035E0],"tree_param":{"num_deleted":"0","num_feature":"16","num_nodes":"21","size_leaf_vector":"1"}},{"base_weights":[6.0082856E-3,-9.528181E-1,1.0204008E0,-1.0818369E0,-2.0904851E-1,5.4091555E-1,7.93539E-2,-7.6268405E-2,-2.061288E-2,-6.988151E-2,8.472742E-1,-8.983793E-2,8.029294E-1,2.2651173E-2,7.9514235E-2,2.3585603E-1,1.0239313E0,-6.0281437E-2,7.362664E-2,3.173475E-2,7.6815665E-2],"categories":[],"categories_nodes":[],"categories_segments":[],"categories_sizes":[],"default_left":[0,0,0,0,0,0,0,0,0,0,0,0,0,0,0,0,0,0,0,0,0],"id":22,"left_children":[1,3,5,7,9,11,-1,-1,-1,-1,13,-1,15,-1,-1,17,19,-1,-1,-1,-1],"loss_changes":[3.9092624E2,1.9601791E1,1.1727982E1,3.1986084E0,2.7910328E1,2.2331629E1,0E0,0E0,0E0,0E0,1.8981228E0,0E0,4.666748E0,0E0,0E0,1.2308435E1,9.2271805E-1,0E0,0E0,0E0,0E0],"parents":[2147483647,0,0,1,1,2,2,3,3,4,4,5,5,10,10,12,12,15,15,16,16],"right_children":[2,4,6,8,10,12,-1,-1,-1,-1,14,-1,16,-1,-1,18,20,-1,-1,-1,-1],"split_conditions":[1.013245E0,9.4276094E-1,1.1057334E0,3.4394905E-1,2.1647625E-1,5.9800666E-2,7.93539E-2,-7.6268405E-2,-2.061288E-2,-6.988151E-2,2.6175472E-1,-8.983793E-2,1.4248021E-1,2.2651173E-2,7.9514235E-2,1.0518934E0,1.0222223E0,-6.0281437E-2,7.362664E-2,3.173475E-2,7.6815665E-2],"split_indices":[9,9,9,10,10,10,0,0,0,0,10,0,10,0,0,9,9,0,0,0,0],"split_type":[0,0,0,0,0,0,0,0,0,0,0,0,0,0,0,0,0,0,0,0,0],"sum_hessian":[3.9992886E2,2.0562666E2,1.943022E2,1.748428E2,3.078386E1,4.3018E1,1.512842E2,1.6889047E2,5.952334E0,1.7485971E1,1.3297888E1,4.853603E0,3.81644E1,5.720402E0,7.5774865E0,1.1282248E1,2.688215E1,4.813194E0,6.4690533E0,4.6015177E0,2.2280632E1],"tree_param":{"num_deleted":"0","num_feature":"16","num_nodes":"21","size_leaf_vector":"1"}},{"base_weights":[2.4907668E-3,-9.6222085E-1,9.8661023E-1,-1.0759974E0,-3.336389E-1,4.9611703E-1,7.856153E-2,-7.5612E-2,-1.2289792E-2,-7.0866086E-2,6.807531E-1,-6.9789046E-1,8.1135684E-1,1.0589117E-2,7.967779E-2,-8.6211994E-2,-4.9893144E-3,2.8988415E-1,7.2120085E-2,-4.748741E-2,7.112505E-2],"categories":[],"categories_nodes":[],"categories_segments":[],"categories_sizes":[],"default_left":[0,0,0,0,0,0,0,0,0,0,0,0,0,0,0,0,0,0,0,0,0],"id":23,"left_children":[1,3,5,7,9,11,-1,-1,-1,-1,13,15,17,-1,-1,-1,-1,19,-1,-1,-1],"loss_changes":[3.6691437E2,1.3598587E1,1.3901794E1,3.0526886E0,2.2822807E1,1.8454021E1,0E0,0E0,0E0,0E0,3.1743402E0,3.5349388E0,4.378273E0,0E0,0E0,0E0,0E0,1.0344212E1,0E0,0E0,0E0],"parents":[2147483647,0,0,1,1,2,2,3,3,4,4,5,5,10,10,11,11,12,12,17,17],"right_children":[2,4,6,8,10,12,-1,-1,-1,-1,14,16,18,-1,-1,-1,-1,20,-1,-1,-1],"split_conditions":[1.0053786E0,9.2740047E-1,1.1057334E0,3.7634408E-1,2.2249691E-1,1.0856453E-1,7.856153E-2,-7.5612E-2,-1.2289792E-2,-7.0866086E-2,2.7675277E-1,6.451613E-2,1.6433354E-1,1.0589117E-2,7.967779E-2,-8.6211994E-2,-4.9893144E-3,1.0465117E0,7.2120085E-2,-4.748741E-2,7.112505E-2],"split_indices":[9,9,9,10,10,10,0,0,0,0,10,10,10,0,0,0,0,9,0,0,0],"split_type":[0,0,0,0,0,0,0,0,0,0,0,0,0,0,0,0,0,0,0,0,0],"sum_hessian":[3.8447327E2,1.941623E2,1.9031096E2,1.638016E2,3.0360691E1,4.652349E1,1.4378748E2,1.5967114E2,4.1304684E0,1.8003874E1,1.2356816E1,9.463926E0,3.7059563E1,6.4938893E0,5.8629265E0,4.4874825E0,4.976444E0,1.22371235E1,2.482244E1,5.309302E0,6.927822E0],"tree_param":{"num_deleted":"0","num_feature":"16","num_nodes":"21","size_leaf_vector":"1"}},{"base_weights":[4.9411105E-3,-9.913278E-1,9.2443883E-1,-1.0729767E0,-2.4755807E-1,3.9437708E-1,7.772865E-2,-1.0880327E0,-3.1154182E-2,-6.856718E-2,5.6560162E-2,-3.0804604E-1,1.007009E0,-7.558082E-2,-4.0695313E-2,-8.100778E-1,3.232741E-1,2.4322672E-2,7.698737E-2,-7.415054E-2,-2.659897E-2,-5.0733473E-2,6.7448445E-2],"categories":[],"categories_nodes":[],"categories_segments":[],"categories_sizes":[],"default_left":[0,0,0,0,0,0,0,0,0,0,0,0,0,0,0,0,0,0,0,0,0,0,0],"id":24,"left_children":[1,3,5,7,9,11,-1,13,-1,-1,-1,15,17,-1,-1,19,21,-1,-1,-1,-1,-1,-1],"loss_changes":[3.3200168E2,1.029805E1,1.9960236E1,9.6954346E-1,1.5616253E1,2.3531256E1,0E0,6.745911E-2,0E0,0E0,0E0,8.472039E0,1.7124882E0,0E0,0E0,1.2471933E0,9.199167E0,0E0,0E0,0E0,0E0,0E0,0E0],"parents":[2147483647,0,0,1,1,2,2,3,3,4,4,5,5,7,7,11,11,12,12,15,15,16,16],"right_children":[2,4,6,8,10,12,-1,14,-1,-1,-1,16,18,-1,-1,20,22,-1,-1,-1,-1,-1,-1],"split_conditions":[9.89011E-1,2.7849406E-1,1.1057334E0,9.737249E-1,8.947368E-1,1.6635859E-1,7.772865E-2,5.447942E-2,-3.1154182E-2,-6.856718E-2,5.6560162E-2,1.056E0,1.8352365E-1,-7.558082E-2,-4.0695313E-2,1.0257949E0,8.1558675E-2,2.4322672E-2,7.698737E-2,-7.415054E-2,-2.659897E-2,-5.0733473E-2,6.7448445E-2],"split_indices":[9,10,9,9,9,10,0,11,0,0,0,9,10,0,0,9,10,0,0,0,0,0,0],"split_type":[0,0,0,0,0,0,0,0,0,0,0,0,0,0,0,0,0,0,0,0,0,0,0],"sum_hessian":[3.6042032E2,1.7295103E2,1.874693E2,1.5544421E2,1.750683E1,5.2961426E1,1.3450787E2,1.5102693E2,4.4172726E0,1.0339005E1,7.1678247E0,2.4904242E1,2.8057184E1,1.4701695E2,4.0099826E0,1.3714886E1,1.1189355E1,4.676465E0,2.338072E1,7.4728107E0,6.242075E0,4.231217E0,6.9581375E0],"tree_param":{"num_deleted":"0","num_feature":"16","num_nodes":"23","size_leaf_vector":"1"}},{"base_weights":[-1.0193965E-2,-9.239254E-1,9.786089E-1,-1.0558953E0,-2.971524E-1,3.0656958E-1,1.0774263E0,-7.4874856E-2,-1.1118545E-2,-8.4263784E-1,7.6339287E-1,-6.0753405E-1,7.06406E-2,1.472674E-2,7.712546E-2,-9.7598165E-1,-1.6505595E-2,1.9957645E-2,6.8301074E-2,-6.305643E-2,-1.7746892E-2,-3.8159825E-2,-7.411113E-2],"categories":[],"categories_nodes":[],"categories_segments":[],"categories_sizes":[],"default_left":[0,0,0,0,0,0,0,0,0,0,0,0,0,0,0,0,0,0,0,0,0,0,0],"id":25,"left_children":[1,3,5,7,9,11,13,-1,-1,15,17,19,-1,-1,-1,21,-1,-1,-1,-1,-1,-1,-1],"loss_changes":[3.1081476E2,1.4474655E1,1.0642075E1,3.9562378E0,1.9438267E1,1.5466529E1,5.033951E0,0E0,0E0,1.5292091E0,9.629493E-1,9.033234E-1,0E0,0E0,0E0,1.4889336E-1,0E0,0E0,0E0,0E0,0E0,0E0,0E0],"parents":[2147483647,0,0,1,1,2,2,3,3,4,4,5,5,6,6,9,9,10,10,11,11,15,15],"right_children":[2,4,6,8,10,12,14,-1,-1,16,18,20,-1,-1,-1,22,-1,-1,-1,-1,-1,-1,-1],"split_conditions":[1.009772E0,9.2740047E-1,1.056E0,3.5714287E-1,2.424569E-1,1.6433354E-1,5.4811206E-2,-7.4874856E-2,-1.1118545E-2,2.94792E-2,2.7675277E-1,1.0301769E0,7.06406E-2,1.472674E-2,7.712546E-2,5.7E-1,-1.6505595E-2,1.9957645E-2,6.8301074E-2,-6.305643E-2,-1.7746892E-2,-3.8159825E-2,-7.411113E-2],"split_indices":[9,9,9,10,10,10,10,0,0,11,10,9,0,0,0,8,0,0,0,0,0,0,0],"split_type":[0,0,0,0,0,0,0,0,0,0,0,0,0,0,0,0,0,0,0,0,0,0,0],"sum_hessian":[3.4201105E2,1.7778726E2,1.6422377E2,1.4629874E2,3.1488533E1,2.1578018E1,1.4264575E2,1.4113475E2,5.1639905E0,2.092919E1,1.0559343E1,9.569923E0,1.2008096E1,6.975392E0,1.3567036E2,1.6632326E1,4.296864E0,4.173857E0,6.3854856E0,4.22844E0,5.341483E0,4.44519E0,1.2187137E1],"tree_param":{"num_deleted":"0","num_feature":"16","num_nodes":"23","size_leaf_vector":"1"}},{"base_weights":[-2.0336762E-2,-8.752137E-1,9.819356E-1,-1.0482965E0,-1.8324605E-1,4.8016804E-1,7.6369114E-2,-7.4070975E-2,-1.3972734E-2,-7.9686016E-1,8.0939615E-1,-7.3018855E-1,9.429672E-1,-9.4982487E-1,-5.1587643E-3,2.7074171E-2,7.315564E-2,-8.350442E-2,-6.0835946E-3,7.2861254E-2,2.5630161E-2,-7.2371475E-2,-3.203218E-2],"categories":[],"categories_nodes":[],"categories_segments":[],"categories_sizes":[],"default_left":[0,0,0,0,0,0,0,0,0,0,0,0,0,0,0,0,0,0,0,0,0,0,0],"id":26,"left_children":[1,3,5,7,9,11,-1,-1,-1,13,15,17,19,21,-1,-1,-1,-1,-1,-1,-1,-1,-1],"loss_changes":[2.7664673E2,2.0676025E1,8.940582E0,2.9920197E0,2.2617708E1,1.8495098E1,0E0,0E0,0E0,2.4464064E0,1.0852795E0,2.7897625E0,1.1450195E0,4.285965E-1,0E0,0E0,0E0,0E0,0E0,0E0,0E0,0E0,0E0],"parents":[2147483647,0,0,1,1,2,2,3,3,4,4,5,5,9,9,10,10,11,11,12,12,13,13],"right_children":[2,4,6,8,10,12,-1,-1,-1,14,16,18,20,22,-1,-1,-1,-1,-1,-1,-1,-1,-1],"split_conditions":[1.0222223E0,9.350649E-1,1.1057334E0,3.5714287E-1,2.2332506E-1,1.0688836E-1,7.6369114E-2,-7.4070975E-2,-1.3972734E-2,2.94792E-2,7.6553255E-1,5.8900524E-2,1.7324938E-1,2.793E3,-5.1587643E-3,2.7074171E-2,7.315564E-2,-8.350442E-2,-6.0835946E-3,7.2861254E-2,2.5630161E-2,-7.2371475E-2,-3.203218E-2],"split_indices":[9,9,9,10,10,10,0,0,0,11,3,10,1,12,0,0,0,0,0,0,0,0,0],"split_type":[0,0,0,0,0,0,0,0,0,0,0,0,0,0,0,0,0,0,0,0,0,0,0],"sum_hessian":[3.208733E2,1.7323836E2,1.4763493E2,1.3816422E2,3.5074142E1,3.0788792E1,1.16846146E2,1.3358041E2,4.583805E0,2.179718E1,1.3276964E1,8.356447E0,2.2432344E1,1.772584E1,4.0713396E0,5.98331E0,7.2936535E0,4.2632513E0,4.093196E0,1.795893E1,4.4734154E0,1.3700445E1,4.025395E0],"tree_param":{"num_deleted":"0","num_feature":"16","num_nodes":"23","size_leaf_vector":"1"}},{"base_weights":[4.0036845E-3,-9.3749756E-1,9.026655E-1,-7.317057E-2,-1.9985403E-1,4.0140915E-1,7.578071E-2,-7.58188E-1,6.752025E-2,-7.023686E-1,7.1987003E-1,-7.030051E-2,-1.2707697E-2,-7.6091215E-2,-1.7822674E-2,3.6969373E-1,7.505775E-2,-3.471004E-2,8.891012E-1,8.1755266E-2,3.094898E-2],"categories":[],"categories_nodes":[],"categories_segments":[],"categories_sizes":[],"default_left":[0,0,0,0,0,0,0,0,0,0,0,0,0,0,0,0,0,0,0,0,0],"id":27,"left_children":[1,3,5,-1,7,9,-1,11,-1,13,15,-1,-1,-1,-1,17,-1,-1,19,-1,-1],"loss_changes":[2.6432605E2,1.3856628E1,1.5401566E1,0E0,1.6125425E1,1.6953438E1,0E0,2.2840233E0,0E0,1.6752434E0,4.366684E0,0E0,0E0,0E0,0E0,9.717358E0,0E0,0E0,1.1927147E0,0E0,0E0],"parents":[2147483647,0,0,1,1,2,2,4,4,5,5,7,7,9,9,10,10,15,15,18,18],"right_children":[2,4,6,-1,8,10,-1,12,-1,14,16,-1,-1,-1,-1,18,-1,-1,20,-1,-1],"split_conditions":[9.9277294E-1,2.669039E-1,1.1057334E0,-7.317057E-2,9.183673E-1,1.0856453E-1,7.578071E-2,3.5714287E-1,6.752025E-2,5.9800666E-2,1.946848E-1,-7.030051E-2,-1.2707697E-2,-7.6091215E-2,-1.7822674E-2,1.0257949E0,7.505775E-2,-3.471004E-2,1.040802E-1,8.1755266E-2,3.094898E-2],"split_indices":[9,10,9,0,9,10,0,10,0,10,10,0,0,0,0,9,0,0,2,0,0],"split_type":[0,0,0,0,0,0,0,0,0,0,0,0,0,0,0,0,0,0,0,0,0],"sum_hessian":[3.104083E2,1.5156985E2,1.5883844E2,1.2922868E2,2.2341173E1,4.57919E1,1.1304655E2,1.5409518E1,6.9316564E0,9.983571E0,3.580833E1,1.0035405E1,5.3741126E0,4.4521303E0,5.5314407E0,1.9425112E1,1.638322E1,7.2534285E0,1.2171682E1,6.2409635E0,5.930719E0],"tree_param":{"num_deleted":"0","num_feature":"16","num_nodes":"21","size_leaf_vector":"1"}},{"base_weights":[-5.14592E-3,-9.507046E-1,8.9506227E-1,-1.0494549E0,-3.0924383E-1,3.2500044E-1,7.485012E-2,-7.338362E-2,-3.517733E-2,-8.1554306E-1,5.0950468E-2,-2.2326244E-1,7.186086E-2,-1.7302506E-2,-7.139266E-2,-5.7665277E-2,1.10531494E-1,-3.9135538E-2,5.1264863E-2],"categories":[],"categories_nodes":[],"categories_segments":[],"categories_sizes":[],"default_left":[0,0,0,0,0,0,0,0,0,0,0,0,0,0,0,0,0,0,0],"id":28,"left_children":[1,3,5,7,9,11,-1,-1,-1,13,-1,15,-1,-1,-1,-1,17,-1,-1],"loss_changes":[2.4716708E2,8.646149E0,1.5914543E1,5.194397E-1,1.1391547E1,1.5549269E1,0E0,0E0,0E0,1.5084686E0,0E0,4.781905E0,0E0,0E0,0E0,0E0,7.1805143E0,0E0,0E0],"parents":[2147483647,0,0,1,1,2,2,3,3,4,4,5,5,9,9,11,11,16,16],"right_children":[2,4,6,8,10,12,-1,-1,-1,14,-1,16,-1,-1,-1,-1,18,-1,-1],"split_conditions":[9.9277294E-1,2.669039E-1,1.0894737E0,9.737249E-1,9.211873E-1,1.8352365E-1,7.485012E-2,-7.338362E-2,-3.517733E-2,2.947014E-2,5.0950468E-2,1.0856453E-1,7.186086E-2,-1.7302506E-2,-7.139266E-2,-5.7665277E-2,1.0339168E0,-3.9135538E-2,5.1264863E-2],"split_indices":[9,10,9,9,9,10,0,0,0,0,0,10,0,0,0,0,9,0,0],"split_type":[0,0,0,0,0,0,0,0,0,0,0,0,0,0,0,0,0,0,0],"sum_hessian":[2.883753E2,1.406176E2,1.477577E2,1.2130686E2,1.9310743E1,3.788163E1,1.09876076E2,1.1682645E2,4.480412E0,1.317502E1,6.1357226E0,2.187703E1,1.6004599E1,4.310985E0,8.864036E0,7.1726403E0,1.470439E1,7.150504E0,7.5538855E0],"tree_param":{"num_deleted":"0","num_feature":"16","num_nodes":"19","size_leaf_vector":"1"}},{"base_weights":[1.4157334E-3,-9.175218E-1,8.9193875E-1,-1.033583E0,-2.1940173E-1,1.5810046E-1,1.035648E0,-7.35085E-2,-2.4665786E-2,-8.011595E-1,5.498717E-2,-7.9587585E-1,8.196571E-1,1.8115325E-2,7.473533E-2,-6.887524E-2,-1.9622609E-2,-6.693822E-2,-2.9330982E-2,1.9287003E-2,7.421659E-2],"categories":[],"categories_nodes":[],"categories_segments":[],"categories_sizes":[],"default_left":[0,0,0,0,0,0,0,0,0,0,0,0,0,0,0,0,0,0,0,0,0],"id":29,"left_children":[1,3,5,7,9,11,13,-1,-1,15,-1,17,19,-1,-1,-1,-1,-1,-1,-1,-1],"loss_changes":[2.2669096E2,1.0819595E1,1.4672462E1,2.2827377E0,1.289948E1,1.5936884E1,4.2141647E0,0E0,0E0,1.1194801E0,0E0,2.653103E-1,1.7579975E0,0E0,0E0,0E0,0E0,0E0,0E0,0E0,0E0],"parents":[2147483647,0,0,1,1,2,2,3,3,4,4,5,5,6,6,9,9,11,11,12,12],"right_children":[2,4,6,8,10,12,14,-1,-1,16,-1,18,20,-1,-1,-1,-1,-1,-1,-1,-1],"split_conditions":[1E0,2.6849642E-1,1.0518934E0,9.782609E-1,9.183673E-1,1.6433354E-1,5.8900524E-2,-7.35085E-2,-2.4665786E-2,3.6082473E-1,5.498717E-2,1.2508686E-1,1.946848E-1,1.8115325E-2,7.473533E-2,-6.887524E-2,-1.9622609E-2,-6.693822E-2,-2.9330982E-2,1.9287003E-2,7.421659E-2],"split_indices":[9,10,9,9,9,10,10,0,0,10,0,10,10,0,0,0,0,0,0,0,0],"split_type":[0,0,0,0,0,0,0,0,0,0,0,0,0,0,0,0,0,0,0,0,0],"sum_hessian":[2.7501483E2,1.3533318E2,1.3968166E2,1.1562944E2,1.9703726E1,2.3218525E1,1.1646313E2,1.09561005E2,6.0684376E0,1.2673283E1,7.0304427E0,9.424785E0,1.3793739E1,7.4036465E0,1.0905949E2,8.470802E0,4.202481E0,5.282533E0,4.1422515E0,5.1370196E0,8.65672E0],"tree_param":{"num_deleted":"0","num_feature":"16","num_nodes":"21","size_leaf_vector":"1"}},{"base_weights":[8.77261E-3,-8.869751E-1,8.687881E-1,-1.0357255E0,-1.5640062E-1,1.8886442E-1,1.0293683E0,-7.287546E-2,-3.3425048E-2,-6.578357E-2,6.486109E-1,-6.0416743E-2,6.925516E-1,1.5221019E-2,7.395806E-2,1.487234E-2,6.2067274E-2,9.494755E-3,6.857119E-2],"categories":[],"categories_nodes":[],"categories_segments":[],"categories_sizes":[],"default_left":[0,0,0,0,0,0,0,0,0,0,0,0,0,0,0,0,0,0,0],"id":30,"left_children":[1,3,5,7,9,11,13,-1,-1,-1,15,-1,17,-1,-1,-1,-1,-1,-1],"loss_changes":[2.0438106E2,1.3961029E1,1.4583183E1,8.2107544E-1,1.5514659E1,1.5151791E1,3.6996536E0,0E0,0E0,0E0,1.1315994E0,0E0,3.0497913E0,0E0,0E0,0E0,0E0,0E0,0E0],"parents":[2147483647,0,0,1,1,2,2,3,3,4,4,5,5,6,6,10,10,12,12],"right_children":[2,4,6,8,10,12,14,-1,-1,-1,16,-1,18,-1,-1,-1,-1,-1,-1],"split_conditions":[9.9277294E-1,2.6036644E-1,1.056E0,9.737249E-1,8.801956E-1,1.4248021E-1,5.235602E-2,-7.287546E-2,-3.3425048E-2,-6.578357E-2,9.350649E-1,-6.0416743E-2,1.8352365E-1,1.5221019E-2,7.395806E-2,1.487234E-2,6.2067274E-2,9.494755E-3,6.857119E-2],"split_indices":[9,10,9,9,9,10,10,0,0,0,9,0,10,0,0,0,0,0,0],"split_type":[0,0,0,0,0,0,0,0,0,0,0,0,0,0,0,0,0,0,0],"sum_hessian":[2.6330664E2,1.2895863E2,1.34348E2,1.0679642E2,2.2162226E1,2.608325E1,1.0826476E2,1.0171576E2,5.080656E0,1.1030077E1,1.113215E1,8.130764E0,1.7952486E1,5.9695053E0,1.0229526E2,4.7880797E0,6.3440704E0,6.8586545E0,1.1093832E1],"tree_param":{"num_deleted":"0","num_feature":"16","num_nodes":"19","size_leaf_vector":"1"}},{"base_weights":[6.2685944E-3,-9.2748684E-1,8.373489E-1,-1.0171344E0,-1.9524506E-1,3.3827817E-1,7.3758356E-2,-1.0430267E0,-2.4675576E-2,-6.078881E-2,4.3078758E-2,-7.6533146E-2,5.4584545E-1,-7.29037E-2,-3.6788046E-2,1.597768E-1,6.811322E-2,-3.9491764E-1,6.621463E-2,-5.336041E-2,-1.2419713E-4],"categories":[],"categories_nodes":[],"categories_segments":[],"categories_sizes":[],"default_left":[0,0,0,0,0,0,0,0,0,0,0,0,0,0,0,0,0,0,0,0,0],"id":31,"left_children":[1,3,5,7,9,11,-1,13,-1,-1,-1,-1,15,-1,-1,17,-1,19,-1,-1,-1],"loss_changes":[1.9442036E2,7.546196E0,1.5097061E1,1.4152756E0,8.511988E0,1.3766106E1,0E0,2.3163605E-1,0E0,0E0,0E0,0E0,6.503069E0,0E0,0E0,1.0162451E1,0E0,2.0463982E0,0E0,0E0,0E0],"parents":[2147483647,0,0,1,1,2,2,3,3,4,4,5,5,7,7,12,12,15,15,17,17],"right_children":[2,4,6,8,10,12,-1,14,-1,-1,-1,-1,16,-1,-1,18,-1,20,-1,-1,-1],"split_conditions":[9.89011E-1,2.857143E-1,1.1057334E0,9.6716416E-1,8.947368E-1,5.9800666E-2,7.3758356E-2,5.172414E-2,-2.4675576E-2,-6.078881E-2,4.3078758E-2,-7.6533146E-2,1.8352365E-1,-7.29037E-2,-3.6788046E-2,1.0518934E0,6.811322E-2,9.116694E-1,6.621463E-2,-5.336041E-2,-1.2419713E-4],"split_indices":[9,10,9,9,9,10,0,11,0,0,0,0,10,0,0,9,0,3,0,0,0],"split_type":[0,0,0,0,0,0,0,0,0,0,0,0,0,0,0,0,0,0,0,0,0],"sum_hessian":[2.4853262E2,1.1698208E2,1.3155054E2,1.03875626E2,1.3106455E1,4.273485E1,8.881569E1,9.9386475E1,4.4891496E0,7.091446E0,6.0150084E0,4.8073115E0,3.792754E1,9.538052E1,4.00595E0,2.0997915E1,1.6929623E1,1.2710932E1,8.286984E0,5.970073E0,6.7408586E0],"tree_param":{"num_deleted":"0","num_feature":"16","num_nodes":"21","size_leaf_vector":"1"}},{"base_weights":[-1.3387019E-2,-9.058568E-1,8.098588E-1,-7.210604E-2,-3.5550898E-1,2.4032383E-1,7.212944E-2,-8.727491E-1,5.752843E-1,-2.6013416E-1,9.0994656E-1,-6.851796E-2,-2.7880328E-2,1.4340508E-3,6.8017885E-2,-5.2889194E-2,1.22938484E-1,4.0307347E-2,7.155505E-2,-4.0131167E-2,6.9174126E-2],"categories":[],"categories_nodes":[],"categories_segments":[],"categories_sizes":[],"default_left":[0,0,0,0,0,0,0,0,0,0,0,0,0,0,0,0,0,0,0,0,0],"id":32,"left_children":[1,3,5,-1,7,9,-1,11,13,15,17,-1,-1,-1,-1,-1,19,-1,-1,-1,-1],"loss_changes":[1.7234366E2,8.373184E0,1.6256195E1,0E0,1.2293978E1,1.2707008E1,0E0,5.200968E-1,2.1177707E0,4.38882E0,6.823349E-2,0E0,0E0,0E0,0E0,0E0,8.949088E0,0E0,0E0,0E0,0E0],"parents":[2147483647,0,0,1,1,2,2,4,4,5,5,7,7,8,8,9,9,10,10,16,16],"right_children":[2,4,6,-1,8,10,-1,12,14,16,18,-1,-1,-1,-1,-1,20,-1,-1,-1,-1],"split_conditions":[9.89011E-1,2.3893805E-1,1.0894737E0,-7.210604E-2,9.183673E-1,1.8352365E-1,7.212944E-2,3.5714287E-1,6.372549E-1,1.0301769E0,2.1983391E-1,-6.851796E-2,-2.7880328E-2,1.4340508E-3,6.8017885E-2,-5.2889194E-2,1.193634E-1,4.0307347E-2,7.155505E-2,-4.0131167E-2,6.9174126E-2],"split_indices":[9,10,9,0,9,10,0,10,3,9,10,0,0,0,0,0,10,0,0,0,0],"split_type":[0,0,0,0,0,0,0,0,0,0,0,0,0,0,0,0,0,0,0,0,0],"sum_hessian":[2.3257138E2,1.1154576E2,1.2102561E2,8.805297E1,2.3492794E1,3.6211662E1,8.481395E1,1.5141211E1,8.3515835E0,2.1073452E1,1.5138208E1,1.1112585E1,4.028625E0,4.0103273E0,4.3412557E0,8.628777E0,1.2444676E1,5.881664E0,9.256545E0,7.0999885E0,5.3446875E0],"tree_param":{"num_deleted":"0","num_feature":"16","num_nodes":"21","size_leaf_vector":"1"}},{"base_weights":[9.2597725E-3,-7.717507E-1,9.1817194E-1,-1.0210974E0,-2.2585523E-1,3.6982486E-1,7.2328605E-2,-7.150145E-2,-3.811217E-2,-8.823149E-1,3.9367178E-1,-5.324082E-2,8.2179135E-1,-6.7240745E-2,-2.9037893E-2,6.765774E-2,6.612104E-2,7.1122095E-2,2.3096766E-2,-5.3236775E-2,4.9599E-2],"categories":[],"categories_nodes":[],"categories_segments":[],"categories_sizes":[],"default_left":[0,0,0,0,0,0,0,0,0,0,0,0,0,0,0,0,0,0,0,0,0],"id":33,"left_children":[1,3,5,7,9,11,-1,-1,-1,13,15,-1,17,-1,-1,19,-1,-1,-1,-1,-1],"loss_changes":[1.5776012E2,1.6040222E1,7.0517044E0,8.213806E-2,1.611251E1,1.1732988E1,0E0,0E0,0E0,4.173956E-1,3.745773E0,0E0,1.2831984E0,0E0,0E0,8.332242E0,0E0,0E0,0E0,0E0,0E0],"parents":[2147483647,0,0,1,1,2,2,3,3,4,4,5,5,9,9,10,10,12,12,15,15],"right_children":[2,4,6,8,10,12,-1,-1,-1,14,16,-1,18,-1,-1,20,-1,-1,-1,-1,-1],"split_conditions":[1.0222223E0,8.9730805E-1,1.0945101E0,3.3546326E-1,2.0766036E-1,1.0688836E-1,7.2328605E-2,-7.150145E-2,-3.811217E-2,1.2826604E0,9.782609E-1,-5.324082E-2,1.3290162E-1,-6.7240745E-2,-2.9037893E-2,2.669039E-1,6.612104E-2,7.1122095E-2,2.3096766E-2,-5.3236775E-2,4.9599E-2],"split_indices":[9,9,9,10,10,10,0,0,0,4,9,0,2,0,0,10,0,0,0,0,0],"split_type":[0,0,0,0,0,0,0,0,0,0,0,0,0,0,0,0,0,0,0,0,0],"sum_hessian":[2.2023987E2,1.1853552E2,1.0170435E2,8.077137E1,3.7764153E1,2.0483446E1,8.122091E1,7.673353E1,4.0378437E0,1.8129595E1,1.9634556E1,5.6032906E0,1.4880156E1,1.4125051E1,4.0045457E0,1.3172804E1,6.4617515E0,9.595135E0,5.2850204E0,5.675891E0,7.496913E0],"tree_param":{"num_deleted":"0","num_feature":"16","num_nodes":"21","size_leaf_vector":"1"}},{"base_weights":[-1.5162527E-2,-7.643099E-1,9.181907E-1,-1.0010432E0,-1.9239706E-1,4.144897E-1,7.2526544E-2,-7.1562946E-2,-6.65106E-1,-3.6112338E-1,4.2202186E-2,4.604354E-2,1.4995812E-1,-1.0769487E-2,-6.392226E-2,-1.5202004E-1,-6.324858E-1,-1.2836791E-2,2.4066683E-2,-4.316552E-2,7.7247806E-2,-2.167448E-2,-5.5469573E-2,-7.891214E-3,2.611093E-2],"categories":[],"categories_nodes":[],"categories_segments":[],"categories_sizes":[],"default_left":[0,0,0,0,0,0,0,0,0,0,0,0,0,0,0,0,0,0,0,0,0,0,0,0,0],"id":34,"left_children":[1,3,5,7,9,11,-1,-1,13,15,-1,-1,17,-1,-1,19,21,-1,-1,-1,23,-1,-1,-1,-1],"loss_changes":[1.4694824E2,1.5590416E1,5.925476E0,3.6162567E-1,5.0260463E0,1.3399386E0,0E0,0E0,1.3480692E0,1.5986269E0,0E0,0E0,8.561177E-1,0E0,0E0,2.0279555E0,4.4359493E-1,0E0,0E0,0E0,8.052733E-1,0E0,0E0,0E0,0E0],"parents":[2147483647,0,0,1,1,2,2,3,3,4,4,5,5,8,8,9,9,12,12,15,15,16,16,20,20],"right_children":[2,4,6,8,10,12,-1,-1,14,16,-1,-1,18,-1,-1,20,22,-1,-1,-1,24,-1,-1,-1,-1],"split_conditions":[1.0301769E0,9.183673E-1,1.1057334E0,8.801956E-1,3.440367E-2,8.16144E-2,7.2526544E-2,-7.1562946E-2,4.1758526E-2,9.9378064E-2,4.2202186E-2,4.604354E-2,9.608541E-1,-1.0769487E-2,-6.392226E-2,2.5273314E-2,1.999E3,-1.2836791E-2,2.4066683E-2,-4.316552E-2,9.2436975E-1,-2.167448E-2,-5.5469573E-2,-7.891214E-3,2.611093E-2],"split_indices":[9,9,9,9,11,2,0,0,2,1,0,0,4,0,0,0,12,0,0,0,3,0,0,0,0],"split_type":[0,0,0,0,0,0,0,0,0,0,0,0,0,0,0,0,0,0,0,0,0,0,0,0,0],"sum_hessian":[2.0815683E2,1.15573746E2,9.2583084E1,8.120855E1,3.4365196E1,2.0425344E1,7.215774E1,7.105248E1,1.0156068E1,2.886771E1,5.4974847E0,9.638846E0,1.0786499E1,4.0055842E0,6.150483E0,1.7185396E1,1.1682313E1,4.040432E0,6.746067E0,5.031609E0,1.2153788E1,5.111905E0,6.570408E0,7.8110285E0,4.3427596E0],"tree_param":{"num_deleted":"0","num_feature":"16","num_nodes":"25","size_leaf_vector":"1"}},{"base_weights":[-1.1275343E-2,-8.8913476E-1,7.9176027E-1,-9.8043454E-1,1.0264304E-1,2.608988E-1,7.2160706E-2,-1.0172052E0,-1.9196838E-2,-1.1041927E-2,2.3860412E-2,-2.0347017E-1,6.6375434E-2,-7.1199246E-2,-3.8398918E-2,-5.447456E-2,9.071387E-2,-4.340615E-2,6.5060973E-1,6.867338E-2,1.2200218E-2],"categories":[],"categories_nodes":[],"categories_segments":[],"categories_sizes":[],"default_left":[0,0,0,0,0,0,0,0,0,0,0,0,0,0,0,0,0,0,0,0,0],"id":35,"left_children":[1,3,5,7,9,11,-1,13,-1,-1,-1,15,-1,-1,-1,-1,17,-1,19,-1,-1],"loss_changes":[1.4301129E2,8.875931E0,1.4130798E1,2.0085602E0,6.3745236E-1,1.1885678E1,0E0,6.767273E-2,0E0,0E0,0E0,3.9419713E0,0E0,0E0,0E0,0E0,6.7954397E0,0E0,1.365104E0,0E0,0E0],"parents":[2147483647,0,0,1,1,2,2,3,3,4,4,5,5,7,7,11,11,16,16,18,18],"right_children":[2,4,6,8,10,12,-1,14,-1,-1,-1,16,-1,-1,-1,-1,18,-1,20,-1,-1],"split_conditions":[9.9277294E-1,3.1209362E-1,1.1042944E0,9.737249E-1,1.21E0,1.8352365E-1,7.2160706E-2,2.8015563E-1,-1.9196838E-2,-1.1041927E-2,2.3860412E-2,1.0257949E0,6.6375434E-2,-7.1199246E-2,-3.8398918E-2,-5.447456E-2,1.0688836E-1,-4.340615E-2,1.2873033E-1,6.867338E-2,1.2200218E-2],"split_indices":[9,10,9,9,6,10,0,10,0,0,0,9,0,0,0,0,10,0,2,0,0],"split_type":[0,0,0,0,0,0,0,0,0,0,0,0,0,0,0,0,0,0,0,0,0],"sum_hessian":[2.0086797E2,9.591202E1,1.0495595E2,8.7837425E1,8.074587E0,3.4811176E1,7.014477E1,8.3036316E1,4.8011084E0,4.0494933E0,4.025094E0,2.1390738E1,1.3420439E1,7.892311E1,4.113204E0,6.573354E0,1.4817384E1,6.421834E0,8.39555E0,4.2084556E0,4.187094E0],"tree_param":{"num_deleted":"0","num_feature":"16","num_nodes":"21","size_leaf_vector":"1"}},{"base_weights":[2.3092714E-3,-7.910972E-1,8.495558E-1,-9.883993E-1,-2.1681611E-1,3.703697E-1,7.175974E-2,-7.094614E-2,-1.4891348E-2,-7.537491E-1,6.347823E-1,-3.0196065E-1,8.7488806E-1,-6.753187E-2,-2.2503506E-2,1.2257343E-2,6.851792E-2,2.087821E-2,-4.53772E-2,2.782853E-2,7.015629E-2],"categories":[],"categories_nodes":[],"categories_segments":[],"categories_sizes":[],"default_left":[0,0,0,0,0,0,0,0,0,0,0,0,0,0,0,0,0,0,0,0,0],"id":36,"left_children":[1,3,5,7,9,11,-1,-1,-1,13,15,17,19,-1,-1,-1,-1,-1,-1,-1,-1],"loss_changes":[1.2876683E2,1.0994385E1,8.157425E0,2.1450348E0,1.2630706E1,9.794531E0,0E0,0E0,0E0,1.3028355E0,1.6029992E0,2.9621658E0,6.927538E-1,0E0,0E0,0E0,0E0,0E0,0E0,0E0,0E0],"parents":[2147483647,0,0,1,1,2,2,3,3,4,4,5,5,9,9,10,10,11,11,12,12],"right_children":[2,4,6,8,10,12,-1,-1,-1,14,16,18,20,-1,-1,-1,-1,-1,-1,-1,-1],"split_conditions":[1.013245E0,9.183673E-1,1.1057334E0,3.529412E-1,2.3696682E-1,1.4248021E-1,7.175974E-2,-7.094614E-2,-1.4891348E-2,1.8595041E-1,6.939502E-1,9.935734E-2,1.6433354E-1,-6.753187E-2,-2.2503506E-2,1.2257343E-2,6.851792E-2,2.087821E-2,-4.53772E-2,2.782853E-2,7.015629E-2],"split_indices":[9,9,9,10,10,10,0,0,0,10,3,2,10,0,0,0,0,0,0,0,0],"split_type":[0,0,0,0,0,0,0,0,0,0,0,0,0,0,0,0,0,0,0,0,0],"sum_hessian":[1.8955739E2,9.7923195E1,9.163419E1,7.234647E1,2.5576721E1,2.7096296E1,6.45379E1,6.831352E1,4.0329533E0,1.5756896E1,9.819824E0,1.1788378E1,1.53079195E1,9.442702E0,6.3141932E0,4.987902E0,4.8319225E0,4.429691E0,7.3586874E0,4.4741416E0,1.0833777E1],"tree_param":{"num_deleted":"0","num_feature":"16","num_nodes":"21","size_leaf_vector":"1"}},{"base_weights":[-6.812697E-3,-7.738612E-1,8.4531003E-1,-9.3885666E-1,-8.885073E-2,3.3671156E-1,7.139935E-2,-7.104738E-2,-3.3524424E-1,-5.980283E-2,5.205049E-1,-4.8461996E-2,8.340006E-1,-6.483947E-2,2.519947E-2,1.4493381E-2,5.8742836E-2,2.7319802E-2,6.457898E-2],"categories":[],"categories_nodes":[],"categories_segments":[],"categories_sizes":[],"default_left":[0,0,0,0,0,0,0,0,0,0,0,0,0,0,0,0,0,0,0],"id":37,"left_children":[1,3,5,7,9,11,-1,-1,13,-1,15,-1,17,-1,-1,-1,-1,-1,-1],"loss_changes":[1.1828184E2,1.0680012E1,7.9999504E0,3.9481888E0,9.757662E0,1.3485262E1,0E0,0E0,5.3166666E0,0E0,1.0184362E0,0E0,4.140005E-1,0E0,0E0,0E0,0E0,0E0,0E0],"parents":[2147483647,0,0,1,1,2,2,3,3,4,4,5,5,8,8,10,10,12,12],"right_children":[2,4,6,8,10,12,-1,-1,14,-1,16,-1,18,-1,-1,-1,-1,-1,-1],"split_conditions":[1.0186602E0,2.6036644E-1,1.1042944E0,9.782609E-1,8.947368E-1,1.11317255E-1,7.139935E-2,-7.104738E-2,1.8352365E-1,-5.980283E-2,3.1209362E-1,-4.8461996E-2,1.4446227E-1,-6.483947E-2,2.519947E-2,1.4493381E-2,5.8742836E-2,2.7319802E-2,6.457898E-2],"split_indices":[9,10,9,9,9,10,0,0,10,0,10,0,10,0,0,0,0,0,0],"split_type":[0,0,0,0,0,0,0,0,0,0,0,0,0,0,0,0,0,0,0],"sum_hessian":[1.7896356E2,9.423165E1,8.473191E1,7.564162E1,1.8590033E1,2.3929531E1,6.0802376E1,6.494544E1,1.0696177E1,7.9695425E0,1.062049E1,7.604438E0,1.6325094E1,5.5523353E0,5.1438413E0,6.3408027E0,4.2796874E0,4.055482E0,1.2269612E1],"tree_param":{"num_deleted":"0","num_feature":"16","num_nodes":"19","size_leaf_vector":"1"}},{"base_weights":[-1.4879438E-3,-8.913826E-1,6.965668E-1,-9.9276406E-1,2.479093E-3,1.9104287E-1,7.108637E-2,-7.0610955E-2,-3.3655576E-2,-3.1249204E-1,6.9412357E-1,-7.34656E-2,-5.77709E-2,3.0585477E-1,6.75695E-2,-5.1924616E-1,5.9799336E-2,-1.9621065E-2,5.577982E-2,-5.899435E-2,-8.637868E-3],"categories":[],"categories_nodes":[],"categories_segments":[],"categories_sizes":[],"default_left":[0,0,0,0,0,0,0,0,0,0,0,0,0,0,0,0,0,0,0,0,0],"id":38,"left_children":[1,3,5,7,-1,9,-1,-1,-1,11,13,-1,15,17,-1,19,-1,-1,-1,-1,-1],"loss_changes":[1.0691931E2,7.1494064E0,1.6170902E1,6.194153E-1,0E0,1.02782E1,0E0,0E0,0E0,3.8847642E0,1.948844E0,0E0,7.4649215E0,3.2179003E0,0E0,1.4311907E0,0E0,0E0,0E0,0E0,0E0],"parents":[2147483647,0,0,1,1,2,2,3,3,5,5,9,9,10,10,12,12,13,13,15,15],"right_children":[2,4,6,8,-1,10,-1,-1,-1,12,14,-1,16,18,-1,20,-1,-1,-1,-1,-1],"split_conditions":[9.6716416E-1,3.1209362E-1,1.1057334E0,9.4276094E-1,2.479093E-3,1.6433354E-1,7.108637E-2,-7.0610955E-2,-3.3655576E-2,6.896552E-2,2.208589E-1,-7.34656E-2,1.056E0,1.013245E0,6.75695E-2,1.0257949E0,5.9799336E-2,-1.9621065E-2,5.577982E-2,-5.899435E-2,-8.637868E-3],"split_indices":[9,10,9,9,0,10,0,0,0,10,10,0,9,9,0,9,0,0,0,0,0],"split_type":[0,0,0,0,0,0,0,0,0,0,0,0,0,0,0,0,0,0,0,0,0],"sum_hessian":[1.7011917E2,7.466181E1,9.545737E1,6.724056E1,7.4212484E0,3.871792E1,5.673945E1,6.21873E1,5.0532584E0,1.9539558E1,1.9178358E1,4.1278286E0,1.5411731E1,9.029914E0,1.0148444E1,1.0579425E1,4.832305E0,4.357854E0,4.67206E0,5.0647945E0,5.514631E0],"tree_param":{"num_deleted":"0","num_feature":"16","num_nodes":"21","size_leaf_vector":"1"}},{"base_weights":[-4.046421E-3,-7.095273E-1,8.4338397E-1,-9.3208075E-1,-6.096606E-2,2.7315968E-1,1.0025645E0,-7.070773E-2,-1.5773099E-2,-5.8747715E-1,5.4230157E-2,-3.4982786E-2,6.595721E-2,3.8401905E-2,7.1009666E-2,-6.3434996E-2,1.6058778E-2],"categories":[],"categories_nodes":[],"categories_segments":[],"categories_sizes":[],"default_left":[0,0,0,0,0,0,0,0,0,0,0,0,0,0,0,0,0],"id":39,"left_children":[1,3,5,7,9,11,13,-1,-1,15,-1,-1,-1,-1,-1,-1,-1],"loss_changes":[9.521097E1,1.2486855E1,6.293419E0,4.0662575E0,1.0858682E1,9.665435E0,1.3912582E-1,0E0,0E0,4.3039174E0,0E0,0E0,0E0,0E0,0E0,0E0,0E0],"parents":[2147483647,0,0,1,1,2,2,3,3,4,4,5,5,6,6,9,9],"right_children":[2,4,6,8,10,12,14,-1,-1,16,-1,-1,-1,-1,-1,-1,-1],"split_conditions":[1.0257949E0,2.3622048E-1,1.11317255E-1,1E0,9.350649E-1,1.1057334E0,1.0429744E0,-7.070773E-2,-1.5773099E-2,3.529412E-1,5.4230157E-2,-3.4982786E-2,6.595721E-2,3.8401905E-2,7.1009666E-2,-6.3434996E-2,1.6058778E-2],"split_indices":[9,10,10,9,9,9,9,0,0,10,0,0,0,0,0,0,0],"split_type":[0,0,0,0,0,0,0,0,0,0,0,0,0,0,0,0,0],"sum_hessian":[1.5725577E2,8.590395E1,7.1351814E1,6.363164E1,2.2272316E1,1.6164091E1,5.5187725E1,5.5674603E1,7.9570384E0,1.3933365E1,8.33895E0,7.670225E0,8.493866E0,4.567384E0,5.0620342E1,9.818854E0,4.1145105E0],"tree_param":{"num_deleted":"0","num_feature":"16","num_nodes":"17","size_leaf_vector":"1"}},{"base_weights":[-2.1665165E-2,-8.171265E-1,7.1306413E-1,-6.8448626E-2,-1.734474E-1,2.1035853E-1,7.037623E-2,-6.571885E-2,4.148926E-1,-4.9826005E-1,7.31827E-1,-5.3209746E-3,6.401151E-2,-6.8100356E-2,-2.4620744E-3,4.0226406E-1,7.1242444E-2,-8.916591E-3,6.584409E-2],"categories":[],"categories_nodes":[],"categories_segments":[],"categories_sizes":[],"default_left":[0,0,0,0,0,0,0,0,0,0,0,0,0,0,0,0,0,0,0],"id":40,"left_children":[1,3,5,-1,7,9,-1,-1,11,13,15,-1,-1,-1,-1,17,-1,-1,-1],"loss_changes":[9.0574646E1,8.295101E0,1.2296391E1,0E0,8.31807E0,1.2161871E1,0E0,0E0,2.7391396E0,3.1707883E0,1.4588623E0,0E0,0E0,0E0,0E0,3.2558756E0,0E0,0E0,0E0],"parents":[2147483647,0,0,1,1,2,2,4,4,5,5,8,8,9,9,10,10,15,15],"right_children":[2,4,6,-1,8,10,-1,-1,12,14,16,-1,-1,-1,-1,18,-1,-1,-1],"split_conditions":[9.89011E-1,2.6036644E-1,1.1057334E0,-6.8448626E-2,8.801956E-1,1.434263E-1,7.037623E-2,-6.571885E-2,3.1209362E-1,1.056E0,2.0766036E-1,-5.3209746E-3,6.401151E-2,-6.8100356E-2,-2.4620744E-3,1.0222223E0,7.1242444E-2,-8.916591E-3,6.584409E-2],"split_indices":[9,10,9,0,9,10,0,0,10,9,10,0,0,0,0,9,0,0,0],"split_type":[0,0,0,0,0,0,0,0,0,0,0,0,0,0,0,0,0,0,0],"sum_hessian":[1.5297754E2,7.339915E1,7.95784E1,5.7154915E1,1.624423E1,3.0925625E1,4.865277E1,6.712829E0,9.531402E0,1.3129109E1,1.7796515E1,5.30642E0,4.2249823E0,5.818656E0,7.3104534E0,9.634933E0,8.161582E0,5.306521E0,4.3284125E0],"tree_param":{"num_deleted":"0","num_feature":"16","num_nodes":"19","size_leaf_vector":"1"}},{"base_weights":[-2.7423542E-2,-4.1030455E-1,2.8685284E-1,-5.1666313E-1,-4.9290687E-2,1.7067145E-1,6.9197845E-1,-6.2034816E-1,-1.7947333E-1,1.20564215E-1,-2.1917809E-2,5.8552884E-3,4.595242E-1,3.8330963E-1,6.2660456E-2,-5.0624466E-1,-5.657614E-2,-2.8083013E-2,6.8387464E-3,5.522596E-4,1.6819764E-2,2.6154697E-1,-2.202024E-1,1.018189E-2,5.9829587E-1,6.715726E-3,4.0994346E-2,-5.6631E-1,-1.3272728E-2,3.875204E-2,9.514777E-2,-3.2528958E-1,9.373088E-3,3.832009E-1,6.0911942E-2,-6.626363E-1,-2.2795098E-2,-6.94943E-2,2.8410092E-2,-7.6060873E-3,-4.1590345E-1,9.870091E-3,3.4840375E-2,-5.198903E-2,-2.5764879E-2,-2.4254031E-2,1.1889283E-2,-3.610411E-2,-1.5970299E-2],"categories":[],"categories_nodes":[],"categories_segments":[],"categories_sizes":[],"default_left":[0,0,0,0,0,0,0,0,0,0,0,0,0,0,0,0,0,0,0,0,0,0,0,0,0,0,0,0,0,0,0,0,0,0,0,0,0,0,0,0,0,0,0,0,0,0,0,0,0],"id":41,"left_children":[1,3,5,7,9,11,13,15,17,19,-1,21,23,25,-1,27,-1,-1,-1,-1,-1,29,31,-1,33,-1,-1,35,-1,-1,37,39,-1,41,-1,43,-1,45,-1,-1,47,-1,-1,-1,-1,-1,-1,-1,-1],"loss_changes":[1.7893656E1,2.5473576E0,3.728311E0,1.6945019E0,7.855306E-1,3.0839481E0,8.542404E-1,4.816513E-1,9.032571E-1,1.4765888E-1,0E0,2.5022082E0,9.297395E-1,4.9498808E-1,0E0,4.0972805E-1,0E0,0E0,0E0,0E0,0E0,9.639379E-1,9.0511906E-1,0E0,6.4361286E-1,0E0,0E0,2.930889E-1,0E0,0E0,7.7494925E-1,3.054396E-1,0E0,2.4766493E-1,0E0,1.1811495E-1,0E0,7.630628E-1,0E0,0E0,1.24331236E-1,0E0,0E0,0E0,0E0,0E0,0E0,0E0,0E0],"parents":[2147483647,0,0,1,1,2,2,3,3,4,4,5,5,6,6,7,7,8,8,9,9,11,11,12,12,13,13,15,15,21,21,22,22,24,24,27,27,30,30,31,31,33,33,35,35,37,37,40,40],"right_children":[2,4,6,8,10,12,14,16,18,20,-1,22,24,26,-1,28,-1,-1,-1,-1,-1,30,32,-1,34,-1,-1,36,-1,-1,38,40,-1,42,-1,44,-1,46,-1,-1,48,-1,-1,-1,-1,-1,-1,-1,-1],"split_conditions":[1.6433354E-1,1.72E0,2.8836912E-2,3.234244E-1,2.639E3,2.7849406E-1,7.743449E-1,2.7244374E-1,5.1E-1,8.40685E-1,-2.1917809E-2,1E0,1.24E0,1.63E0,6.2660456E-2,1.51E0,-5.657614E-2,-2.8083013E-2,6.8387464E-3,5.522596E-4,1.6819764E-2,8.452793E-1,2.03E0,1.018189E-2,3.638814E-1,6.715726E-3,4.0994346E-2,1.17852464E-1,-1.3272728E-2,3.875204E-2,1.59E0,2.3710122E-2,9.373088E-3,1.68E0,6.0911942E-2,1.8696623E-1,-2.2795098E-2,1.8696623E-1,2.8410092E-2,-7.6060873E-3,6.936416E-1,9.870091E-3,3.4840375E-2,-5.198903E-2,-2.5764879E-2,-2.4254031E-2,1.1889283E-2,-3.610411E-2,-1.5970299E-2],"split_indices":[10,6,11,2,12,10,3,5,8,4,0,15,6,6,0,6,0,0,0,0,0,4,6,0,10,0,0,10,0,0,6,1,0,6,0,2,0,2,0,0,4,0,0,0,0,0,0,0,0],"split_type":[0,0,0,0,0,0,0,0,0,0,0,0,0,0,0,0,0,0,0,0,0,0,0,0,0,0,0,0,0,0,0,0,0,0,0,0,0,0,0,0,0,0,0,0,0,0,0,0,0],"sum_hessian":[1.4672618E2,6.600597E1,8.072022E1,5.0652145E1,1.535382E1,6.3834988E1,1.6885231E1,3.8097504E1,1.2554643E1,9.749153E0,5.604667E0,4.1293594E1,2.2541393E1,8.129278E0,8.755954E0,2.6554003E1,1.1543501E1,6.647534E0,5.9071093E0,5.661767E0,4.087386E0,1.9303078E1,2.1990519E1,7.5807934E0,1.4960601E1,4.083576E0,4.045702E0,2.1607838E1,4.946166E0,6.021986E0,1.3281092E1,1.7049204E1,4.9413133E0,9.876732E0,5.0838695E0,1.4042954E1,7.5648828E0,9.259144E0,4.021948E0,5.7159076E0,1.1333297E1,4.076378E0,5.800354E0,9.41448E0,4.628474E0,4.0621037E0,5.1970396E0,5.968781E0,5.364516E0],"tree_param":{"num_deleted":"0","num_feature":"16","num_nodes":"49","size_leaf_vector":"1"}},{"base_weights":[1.1562035E-2,-6.697387E-1,8.318649E-1,-9.651877E-1,-1.8183151E-1,3.1945425E-1,7.021024E-2,-6.999528E-2,-2.8992882E-2,-6.2095944E-2,2.7891663E-1,-4.0504675E-2,7.5853735E-1,-2.2724492E-2,6.379666E-2,2.181174E-2,6.3428335E-2,-4.9726665E-2,3.966581E-2],"categories":[],"categories_nodes":[],"categories_segments":[],"categories_sizes":[],"default_left":[0,0,0,0,0,0,0,0,0,0,0,0,0,0,0,0,0,0,0],"id":42,"left_children":[1,3,5,7,9,11,-1,-1,-1,-1,13,-1,15,17,-1,-1,-1,-1,-1],"loss_changes":[8.219355E1,1.1407314E1,6.0900764E0,9.603462E-1,1.0711656E1,8.154108E0,0E0,0E0,0E0,0E0,3.925825E0,0E0,6.755161E-1,6.5354576E0,0E0,0E0,0E0,0E0,0E0],"parents":[2147483647,0,0,1,1,2,2,3,3,4,4,5,5,10,10,12,12,13,13],"right_children":[2,4,6,8,10,12,-1,-1,-1,-1,14,-1,16,18,-1,-1,-1,-1,-1],"split_conditions":[1.0222223E0,2.0766036E-1,1.1042944E0,1.0053786E0,8.801956E-1,1.0856453E-1,7.021024E-2,-6.999528E-2,-2.8992882E-2,-6.2095944E-2,9.782609E-1,-4.0504675E-2,7.2E-1,2.7849406E-1,6.379666E-2,2.181174E-2,6.3428335E-2,-4.9726665E-2,3.966581E-2],"split_indices":[9,10,9,9,9,10,0,0,0,0,9,0,8,10,0,0,0,0,0],"split_type":[0,0,0,0,0,0,0,0,0,0,0,0,0,0,0,0,0,0,0],"sum_hessian":[1.4507329E2,7.935157E1,6.572172E1,4.8814213E1,3.0537354E1,1.8341402E1,4.7380318E1,4.3822407E1,4.99181E0,1.1544098E1,1.8993256E1,5.8693748E0,1.2472028E1,1.36151905E1,5.3780646E0,4.1468315E0,8.325196E0,6.1847334E0,7.4304566E0],"tree_param":{"num_deleted":"0","num_feature":"16","num_nodes":"19","size_leaf_vector":"1"}},{"base_weights":[1.7413788E-2,-8.3116007E-1,7.0346606E-1,-6.952671E-2,-9.673605E-2,2.3361742E-1,6.9932476E-2,-5.319104E-2,3.310716E-2,-1.040925E-1,6.48494E-2,-3.602207E-1,5.387633E-2,-6.091354E-2,5.910436E-2,-3.4631904E-2,5.4264512E-2],"categories":[],"categories_nodes":[],"categories_segments":[],"categories_sizes":[],"default_left":[0,0,0,0,0,0,0,0,0,0,0,0,0,0,0,0,0],"id":43,"left_children":[1,3,5,-1,7,9,-1,-1,-1,11,-1,13,-1,-1,15,-1,-1],"loss_changes":[7.976539E1,7.930523E0,1.0867767E1,0E0,5.475126E0,7.636941E0,0E0,0E0,0E0,5.332786E0,0E0,3.997479E0,0E0,0E0,4.8643436E0,0E0,0E0],"parents":[2147483647,0,0,1,1,2,2,4,4,5,5,9,9,11,11,14,14],"right_children":[2,4,6,-1,8,10,-1,-1,-1,12,-1,14,-1,-1,16,-1,-1],"split_conditions":[9.782609E-1,2.742509E-1,1.1057334E0,-6.952671E-2,8.947368E-1,2.0766036E-1,6.9932476E-2,-5.319104E-2,3.310716E-2,2.7531356E-2,6.48494E-2,1.0301769E0,5.387633E-2,-6.091354E-2,1.1622901E-1,-3.4631904E-2,5.4264512E-2],"split_indices":[9,10,9,0,9,10,0,0,0,11,0,9,0,0,10,0,0],"split_type":[0,0,0,0,0,0,0,0,0,0,0,0,0,0,0,0,0],"sum_hessian":[1.350105E2,6.0261684E1,7.474882E1,4.8180958E1,1.2080728E1,3.0527948E1,4.422087E1,5.4116554E0,6.6690726E0,2.1247099E1,9.2808485E0,1.6944672E1,4.3024287E0,7.036801E0,9.90787E0,5.769415E0,4.138455E0],"tree_param":{"num_deleted":"0","num_feature":"16","num_nodes":"17","size_leaf_vector":"1"}},{"base_weights":[-2.489292E-3,-8.4510005E-1,6.370768E-1,-9.727962E-1,-1.592195E-1,2.0550512E-1,6.9530845E-2,-6.910469E-2,-3.711256E-2,-4.8099082E-2,2.223237E-2,-4.0049825E-2,4.28234E-1,1.287078E-1,7.932672E-1,-3.3672303E-1,5.1651943E-2,7.341133E-2,2.2401325E-2,-4.4957485E-2,-1.2903493E-3],"categories":[],"categories_nodes":[],"categories_segments":[],"categories_sizes":[],"default_left":[0,0,0,0,0,0,0,0,0,0,0,0,0,0,0,0,0,0,0,0,0],"id":44,"left_children":[1,3,5,7,9,11,-1,-1,-1,-1,-1,-1,13,15,17,19,-1,-1,-1,-1,-1],"loss_changes":[7.127288E1,4.843315E0,1.18824215E1,9.686279E-2,2.8645678E0,6.5760546E0,0E0,0E0,0E0,0E0,0E0,0E0,3.0366497E0,5.1577473E0,1.2799511E0,1.0319159E0,0E0,0E0,0E0,0E0,0E0],"parents":[2147483647,0,0,1,1,2,2,3,3,4,4,5,5,12,12,13,13,14,14,15,15],"right_children":[2,4,6,8,10,12,-1,-1,-1,-1,-1,-1,14,16,18,20,-1,-1,-1,-1,-1],"split_conditions":[9.620524E-1,2.9475984E-1,1.1057334E0,9.3838865E-1,8.801956E-1,1.0856453E-1,6.9530845E-2,-6.910469E-2,-3.711256E-2,-4.8099082E-2,2.223237E-2,-4.0049825E-2,1.0222223E0,2.1983391E-1,1.11847855E-1,5.474412E-2,5.1651943E-2,7.341133E-2,2.2401325E-2,-4.4957485E-2,-1.2903493E-3],"split_indices":[9,10,9,9,9,10,0,0,0,0,0,0,9,10,2,0,0,0,0,0,0],"split_type":[0,0,0,0,0,0,0,0,0,0,0,0,0,0,0,0,0,0,0,0,0],"sum_hessian":[1.3025589E2,5.6067345E1,7.418855E1,4.691455E1,9.152793E0,3.509191E1,3.909664E1,4.259104E1,4.3235073E0,4.1083302E0,5.0444627E0,7.384803E0,2.770711E1,1.5962089E1,1.1745021E1,9.387827E0,6.5742607E0,6.6130505E0,5.131971E0,4.1797824E0,5.208045E0],"tree_param":{"num_deleted":"0","num_feature":"16","num_nodes":"21","size_leaf_vector":"1"}},{"base_weights":[-2.050832E-2,-8.109576E-1,6.7457366E-1,-9.611513E-1,-3.0130288E-1,1.7991732E-1,6.853294E-2,-6.851142E-2,-3.3970717E-2,-6.282275E-2,-4.892996E-2,-4.3998316E-2,6.5721564E-2,-2.7273681E-2,2.2661125E-2,1.7285813E-1,-2.0596355E-1,-3.6268067E-3,2.3855176E-2,-2.9358743E-2,7.758612E-3],"categories":[],"categories_nodes":[],"categories_segments":[],"categories_sizes":[],"default_left":[0,0,0,0,0,0,0,0,0,0,0,0,0,0,0,0,0,0,0,0,0],"id":45,"left_children":[1,3,5,7,9,11,-1,-1,-1,13,-1,15,-1,-1,-1,17,19,-1,-1,-1,-1],"loss_changes":[6.913588E1,4.2163734E0,1.0441473E1,2.1895218E-1,1.4050813E0,4.820502E0,0E0,0E0,0E0,1.4991783E0,0E0,8.1997764E-1,0E0,0E0,0E0,4.1321325E-1,9.776405E-1,0E0,0E0,0E0,0E0],"parents":[2147483647,0,0,1,1,2,2,3,3,4,4,5,5,9,9,11,11,15,15,16,16],"right_children":[2,4,6,8,10,12,-1,-1,-1,14,-1,16,-1,-1,-1,18,20,-1,-1,-1,-1],"split_conditions":[9.89011E-1,9.183673E-1,1.0945101E0,3.8281582E-2,1.0174496E-1,3.1271715E-2,6.853294E-2,-6.851142E-2,-3.3970717E-2,5.969013E-2,-4.892996E-2,7.698574E-1,6.5721564E-2,-2.7273681E-2,2.2661125E-2,2.14E3,1.6030265E-1,-3.6268067E-3,2.3855176E-2,-2.9358743E-2,7.758612E-3],"split_indices":[9,9,9,11,1,11,0,0,0,2,0,4,0,0,0,12,1,0,0,0,0],"split_type":[0,0,0,0,0,0,0,0,0,0,0,0,0,0,0,0,0,0,0,0,0],"sum_hessian":[1.23837E2,5.7865486E1,6.597151E1,4.400999E1,1.3855496E1,2.655685E1,3.9414658E1,4.0002155E1,4.0078354E0,9.482667E0,4.37283E0,2.1332108E1,5.224744E0,5.119214E0,4.3634524E0,9.091789E0,1.2240318E1,4.256667E0,4.835122E0,7.0362396E0,5.2040787E0],"tree_param":{"num_deleted":"0","num_feature":"16","num_nodes":"21","size_leaf_vector":"1"}},{"base_weights":[-2.4413647E-2,-8.452161E-1,5.8874214E-1,-9.516247E-1,-7.203558E-3,9.639818E-2,6.913872E-2,-6.9035776E-2,-2.8177086E-2,-3.578777E-1,7.109186E-1,-6.7941755E-1,-4.222387E-2,1.948077E-2,6.3125625E-2,-6.0831267E-2,-2.2163771E-2,-3.9235882E-2,4.4761546E-2],"categories":[],"categories_nodes":[],"categories_segments":[],"categories_sizes":[],"default_left":[0,0,0,0,0,0,0,0,0,0,0,0,0,0,0,0,0,0,0],"id":46,"left_children":[1,3,5,7,-1,9,-1,-1,-1,11,13,15,17,-1,-1,-1,-1,-1,-1],"loss_changes":[6.0380627E1,3.9423752E0,1.3947033E1,8.2326126E-1,0E0,9.337191E0,0E0,0E0,0E0,1.9374933E0,9.879446E-1,4.106078E-1,4.3292274E0,0E0,0E0,0E0,0E0,0E0,0E0],"parents":[2147483647,0,0,1,1,2,2,3,3,5,5,9,9,10,10,11,11,12,12],"right_children":[2,4,6,8,-1,10,-1,-1,-1,12,14,16,18,-1,-1,-1,-1,-1,-1],"split_conditions":[9.6716416E-1,3.1209362E-1,1.1015548E0,9.3838865E-1,-7.203558E-3,1.8352365E-1,6.913872E-2,-6.9035776E-2,-2.8177086E-2,1.0339168E0,1E0,1.10916175E-1,1.11317255E-1,1.948077E-2,6.3125625E-2,-6.0831267E-2,-2.2163771E-2,-3.9235882E-2,4.4761546E-2],"split_indices":[9,10,9,9,0,10,0,0,0,9,9,0,10,0,0,0,0,0,0],"split_type":[0,0,0,0,0,0,0,0,0,0,0,0,0,0,0,0,0,0,0],"sum_hessian":[1.17985535E2,5.028839E1,6.769714E1,4.3721706E1,6.566686E0,3.1535858E1,3.616128E1,3.9199757E1,4.521949E0,1.8372137E1,1.3163721E1,8.530329E0,9.841808E0,5.044041E0,8.11968E0,4.4960847E0,4.034244E0,5.68572E0,4.1560884E0],"tree_param":{"num_deleted":"0","num_feature":"16","num_nodes":"19","size_leaf_vector":"1"}},{"base_weights":[2.5576975E-2,-7.1177036E-1,7.408841E-1,-6.694415E-2,-2.7467355E-1,3.617724E-1,6.874678E-2,-5.897573E-2,-4.118686E-2,1.4297438E-1,7.663586E-2,-2.3819674E-2,1.4160402E-2,2.6806576E-2,1.0645156E-2,1.8576654E-2,-2.3031753E-2],"categories":[],"categories_nodes":[],"categories_segments":[],"categories_sizes":[],"default_left":[0,0,0,0,0,0,0,0,0,0,0,0,0,0,0,0,0],"id":47,"left_children":[1,3,5,-1,7,9,-1,11,-1,13,-1,-1,-1,-1,15,-1,-1],"loss_changes":[6.035226E1,6.1463795E0,5.30464E0,0E0,1.5295341E0,3.95706E0,0E0,1.1769389E0,0E0,6.6542184E-1,0E0,0E0,0E0,0E0,1.3770977E0,0E0,0E0],"parents":[2147483647,0,0,1,1,2,2,4,4,5,5,7,7,9,9,14,14],"right_children":[2,4,6,-1,8,10,-1,12,-1,14,-1,-1,-1,-1,16,-1,-1],"split_conditions":[1E0,8.801956E-1,1.1057334E0,-6.694415E-2,9.9378064E-2,3.1271715E-2,6.874678E-2,4.8302967E-2,-4.118686E-2,1.13E0,7.663586E-2,-2.3819674E-2,1.4160402E-2,2.6806576E-2,7.8161545E-2,1.8576654E-2,-2.3031753E-2],"split_indices":[9,9,9,0,1,11,0,1,0,6,0,0,0,0,2,0,0],"split_type":[0,0,0,0,0,0,0,0,0,0,0,0,0,0,0,0,0],"sum_hessian":[1.1242728E2,5.536318E1,5.7064095E1,3.3930824E1,2.1432352E1,2.4048271E1,3.3015823E1,1.3566365E1,7.8659873E0,1.954482E1,4.503449E0,6.3613877E0,7.2049775E0,6.1525235E0,1.3392298E1,7.773766E0,5.6185317E0],"tree_param":{"num_deleted":"0","num_feature":"16","num_nodes":"17","size_leaf_vector":"1"}},{"base_weights":[9.154185E-3,-5.2583635E-1,8.35122E-1,-9.396736E-1,-1.1296034E-1,-1.3484299E-2,9.660086E-1,-6.783974E-2,-3.306682E-2,-7.767269E-1,2.4685158E-1,3.795069E-2,6.9230385E-2,-6.387722E-2,-2.8294764E-2,2.0484027E-2,7.336801E-2,-2.9638463E-1,3.414867E-2,-6.001108E-2,2.5076399E-2],"categories":[],"categories_nodes":[],"categories_segments":[],"categories_sizes":[],"default_left":[0,0,0,0,0,0,0,0,0,0,0,0,0,0,0,0,0,0,0,0,0],"id":48,"left_children":[1,3,5,7,9,-1,11,-1,-1,13,15,-1,-1,-1,-1,17,-1,19,-1,-1,-1],"loss_changes":[4.974325E1,1.1568916E1,6.159601E0,2.3645973E-1,8.632325E0,0E0,8.873367E-2,0E0,0E0,3.1776524E-1,4.3651853E0,0E0,0E0,0E0,0E0,3.0944571E0,